SVM-light Version V6.02
0 # kernel type
3 # kernel parameter -d 
1 # kernel parameter -g 
1 # kernel parameter -s 
1 # kernel parameter -r 
empty# kernel parameter -u 
180 # highest feature index 
892 # number of training documents 
432 # number of support vectors plus 1 
38.403888 # threshold b, each following line is a SV (starting with alpha*y)
-14 15:1 35:1 45:1 66:1 83:1 109:1 130:1 152:1 165:1 
-14 12:1 29:1 41:1 63:1 98:1 108:1 130:1 149:1 180:1 
-14 6:1 21:1 48:1 63:1 89:1 113:1 128:1 150:1 169:1 
-14 9:1 35:1 45:1 76:1 85:1 109:1 129:1 156:1 165:1 
-14 15:1 26:1 60:1 75:1 93:1 115:1 125:1 155:1 175:1 
22.400000000000002131628207280301 1:1 30:1 46:1 68:1 86:1 117:1 123:1 156:1 178:1 
22.400000000000002131628207280301 1:1 30:1 50:1 78:1 95:1 104:1 124:1 146:1 170:1 
22.400000000000002131628207280301 1:1 30:1 54:1 62:1 86:1 115:1 127:1 158:1 163:1 
22.400000000000002131628207280301 1:1 33:1 41:1 69:1 81:1 101:1 121:1 141:1 178:1 
22.400000000000002131628207280301 3:1 30:1 41:1 69:1 81:1 101:1 121:1 141:1 178:1 
-14 1:1 30:1 45:1 69:1 81:1 101:1 121:1 141:1 178:1 
-14 1:1 30:1 41:1 69:1 81:1 101:1 121:1 141:1 170:1 
-14 4:1 30:1 43:1 77:1 88:1 116:1 137:1 153:1 174:1 
-14 1:1 30:1 41:1 69:1 81:1 101:1 140:1 141:1 178:1 
5.788973040272913372916718799388 12:1 30:1 52:1 72:1 90:1 112:1 138:1 156:1 168:1 
22.400000000000002131628207280301 4:1 24:1 45:1 80:1 98:1 103:1 130:1 144:1 175:1 
13.595780247080474723020415694918 16:1 26:1 47:1 66:1 96:1 115:1 136:1 156:1 166:1 
22.400000000000002131628207280301 13:1 36:1 58:1 76:1 94:1 118:1 130:1 149:1 176:1 
22.400000000000002131628207280301 16:1 36:1 49:1 69:1 100:1 109:1 138:1 149:1 176:1 
-14 10:1 40:1 54:1 65:1 96:1 109:1 133:1 146:1 168:1 
-9.459269780089815782275763922371 16:1 29:1 56:1 78:1 81:1 104:1 137:1 154:1 164:1 
-14 5:1 21:1 43:1 61:1 100:1 109:1 128:1 160:1 163:1 
-10.316182682099048761870108137373 1:1 30:1 41:1 69:1 81:1 101:1 121:1 146:1 178:1 
-14 18:1 36:1 56:1 78:1 90:1 112:1 138:1 156:1 176:1 
22.400000000000002131628207280301 4:1 35:1 41:1 61:1 81:1 101:1 121:1 141:1 161:1 
-14 1:1 30:1 41:1 69:1 81:1 101:1 121:1 141:1 168:1 
-14 1:1 21:1 41:1 61:1 81:1 115:1 121:1 141:1 180:1 
-14 1:1 21:1 41:1 80:1 81:1 101:1 121:1 141:1 180:1 
-14 1:1 21:1 41:1 61:1 95:1 101:1 121:1 141:1 180:1 
22.400000000000002131628207280301 14:1 30:1 45:1 67:1 90:1 102:1 130:1 148:1 168:1 
22.400000000000002131628207280301 11:1 31:1 59:1 80:1 99:1 106:1 133:1 156:1 170:1 
22.400000000000002131628207280301 5:1 38:1 60:1 65:1 83:1 108:1 138:1 148:1 165:1 
22.400000000000002131628207280301 9:1 30:1 48:1 73:1 89:1 103:1 128:1 155:1 166:1 
19.552004451203838897299647214822 6:1 28:1 46:1 77:1 83:1 116:1 138:1 148:1 170:1 
-6.6733148541743059212194566498511 9:1 40:1 57:1 76:1 85:1 113:1 139:1 150:1 170:1 
-14 7:1 30:1 60:1 76:1 87:1 113:1 128:1 148:1 170:1 
-14 4:1 24:1 45:1 74:1 85:1 108:1 129:1 149:1 161:1 
-4.8139230046209746660679229535162 15:1 35:1 48:1 80:1 83:1 110:1 128:1 144:1 170:1 
22.400000000000002131628207280301 1:1 33:1 41:1 61:1 81:1 101:1 121:1 141:1 169:1 
-14 3:1 33:1 57:1 69:1 96:1 116:1 128:1 157:1 169:1 
22.400000000000002131628207280301 18:1 21:1 45:1 61:1 88:1 117:1 137:1 149:1 164:1 
-14 15:1 30:1 58:1 77:1 90:1 109:1 123:1 148:1 178:1 
-14 1:1 35:1 45:1 61:1 81:1 101:1 128:1 141:1 169:1 
-14 1:1 21:1 41:1 61:1 81:1 101:1 121:1 155:1 180:1 
22.400000000000002131628207280301 17:1 29:1 53:1 77:1 90:1 109:1 126:1 141:1 168:1 
22.400000000000002131628207280301 20:1 28:1 53:1 73:1 96:1 110:1 135:1 157:1 170:1 
18.584732678728457244687888305634 5:1 30:1 54:1 63:1 98:1 111:1 132:1 148:1 170:1 
22.400000000000002131628207280301 7:1 30:1 56:1 70:1 95:1 106:1 130:1 153:1 178:1 
13.343625465422693565642475732602 8:1 30:1 50:1 70:1 82:1 110:1 128:1 145:1 170:1 
-14 9:1 24:1 56:1 77:1 90:1 107:1 130:1 158:1 170:1 
-14 16:1 30:1 60:1 72:1 97:1 118:1 121:1 157:1 170:1 
22.400000000000002131628207280301 1:1 30:1 41:1 69:1 86:1 101:1 121:1 141:1 178:1 
-14 6:1 30:1 56:1 75:1 93:1 110:1 130:1 155:1 170:1 
-9.0458873454915735834447332308628 10:1 37:1 55:1 74:1 81:1 110:1 133:1 143:1 174:1 
-14 1:1 30:1 41:1 69:1 81:1 120:1 121:1 141:1 178:1 
-14 1:1 30:1 41:1 69:1 81:1 101:1 121:1 141:1 165:1 
22.400000000000002131628207280301 12:1 30:1 56:1 79:1 90:1 116:1 130:1 143:1 178:1 
22.400000000000002131628207280301 8:1 30:1 44:1 61:1 89:1 114:1 129:1 146:1 165:1 
3.0688726162216082293809904513182 5:1 29:1 60:1 61:1 98:1 109:1 128:1 158:1 169:1 
22.400000000000002131628207280301 13:1 23:1 58:1 79:1 98:1 117:1 138:1 150:1 165:1 
-6.8461536220371472793999600980897 14:1 34:1 50:1 80:1 99:1 116:1 127:1 153:1 175:1 
-14 16:1 38:1 58:1 78:1 81:1 116:1 138:1 148:1 168:1 
-8.7782892788863335908899898640811 9:1 35:1 46:1 68:1 90:1 117:1 130:1 149:1 180:1 
22.400000000000002131628207280301 1:1 21:1 43:1 69:1 81:1 101:1 121:1 141:1 180:1 
-14 1:1 35:1 48:1 61:1 81:1 101:1 128:1 141:1 170:1 
-14 1:1 30:1 41:1 69:1 90:1 101:1 121:1 141:1 178:1 
-9.1013551796546199312842873041518 8:1 21:1 50:1 72:1 81:1 116:1 125:1 158:1 175:1 
22.400000000000002131628207280301 9:1 40:1 41:1 66:1 96:1 103:1 129:1 146:1 174:1 
-14 9:1 29:1 57:1 76:1 90:1 104:1 129:1 155:1 171:1 
-14 16:1 36:1 49:1 73:1 86:1 103:1 126:1 155:1 179:1 
-14 9:1 28:1 59:1 64:1 84:1 110:1 136:1 158:1 170:1 
22.400000000000002131628207280301 1:1 23:1 41:1 61:1 81:1 101:1 121:1 141:1 180:1 
-14 1:1 25:1 41:1 69:1 81:1 101:1 121:1 141:1 165:1 
22.400000000000002131628207280301 15:1 30:1 56:1 69:1 98:1 101:1 133:1 158:1 168:1 
13.987662769722174260778047027998 10:1 40:1 52:1 77:1 98:1 101:1 137:1 150:1 180:1 
22.400000000000002131628207280301 13:1 29:1 50:1 64:1 81:1 116:1 132:1 155:1 180:1 
-14 15:1 21:1 60:1 74:1 89:1 116:1 137:1 144:1 170:1 
-14 3:1 33:1 41:1 70:1 83:1 116:1 124:1 158:1 163:1 
8.0071596769247808111913400352933 9:1 38:1 47:1 63:1 91:1 106:1 125:1 144:1 180:1 
-14 6:1 35:1 50:1 77:1 89:1 107:1 137:1 149:1 165:1 
-14 9:1 33:1 46:1 74:1 81:1 106:1 126:1 144:1 161:1 
-0.73365944856245002281269762534066 6:1 24:1 58:1 63:1 98:1 104:1 134:1 147:1 177:1 
13.393374898755418200835265452042 9:1 36:1 48:1 68:1 88:1 116:1 136:1 158:1 168:1 
10.088136588694494477635998919141 6:1 28:1 46:1 72:1 89:1 110:1 122:1 141:1 170:1 
7.5540304875840948994891732581891 5:1 30:1 46:1 66:1 96:1 113:1 138:1 142:1 170:1 
1.958377637509993496323090766964 16:1 35:1 60:1 61:1 99:1 118:1 125:1 141:1 169:1 
-14 16:1 33:1 55:1 80:1 88:1 105:1 137:1 151:1 170:1 
-14 1:1 28:1 41:1 69:1 81:1 101:1 121:1 141:1 180:1 
22.400000000000002131628207280301 5:1 40:1 44:1 65:1 87:1 112:1 136:1 146:1 177:1 
-14 12:1 28:1 48:1 66:1 97:1 103:1 132:1 156:1 178:1 
-14 6:1 24:1 47:1 66:1 90:1 108:1 128:1 155:1 178:1 
-14 5:1 29:1 43:1 80:1 96:1 103:1 129:1 149:1 161:1 
-14 1:1 21:1 41:1 61:1 100:1 101:1 121:1 141:1 180:1 
-14 1:1 21:1 43:1 61:1 89:1 101:1 121:1 141:1 180:1 
-14 1:1 21:1 41:1 69:1 81:1 101:1 121:1 141:1 165:1 
-14 13:1 33:1 44:1 77:1 92:1 118:1 124:1 150:1 166:1 
-14 5:1 30:1 50:1 77:1 95:1 108:1 130:1 157:1 168:1 
16.012431915783018609999999171123 16:1 30:1 60:1 61:1 83:1 116:1 133:1 156:1 178:1 
22.400000000000002131628207280301 1:1 21:1 41:1 61:1 81:1 101:1 123:1 141:1 180:1 
22.400000000000002131628207280301 5:1 30:1 48:1 64:1 84:1 108:1 124:1 155:1 170:1 
22.400000000000002131628207280301 18:1 30:1 54:1 61:1 86:1 105:1 125:1 150:1 170:1 
19.075674846089430758411253918894 18:1 30:1 50:1 63:1 100:1 114:1 126:1 151:1 170:1 
-14 1:1 30:1 41:1 69:1 81:1 101:1 124:1 141:1 178:1 
-8.0181286032896927906676864949986 1:1 30:1 41:1 69:1 81:1 101:1 121:1 141:1 172:1 
-13.545622848815025207613871316426 15:1 33:1 54:1 71:1 86:1 111:1 130:1 146:1 177:1 
-14 4:1 23:1 50:1 75:1 98:1 110:1 136:1 145:1 168:1 
-14 1:1 30:1 51:1 73:1 90:1 120:1 121:1 142:1 168:1 
-14 1:1 21:1 41:1 61:1 81:1 101:1 121:1 143:1 180:1 
22.400000000000002131628207280301 15:1 26:1 54:1 78:1 95:1 118:1 132:1 155:1 167:1 
-10.536554846578233934906165814027 5:1 35:1 60:1 72:1 86:1 110:1 128:1 147:1 175:1 
-14 8:1 28:1 56:1 62:1 97:1 102:1 133:1 157:1 178:1 
22.400000000000002131628207280301 20:1 38:1 45:1 61:1 81:1 106:1 133:1 153:1 163:1 
-14 10:1 30:1 46:1 76:1 81:1 101:1 132:1 159:1 168:1 
-12.943137420001166404404102650005 16:1 35:1 59:1 61:1 98:1 118:1 139:1 141:1 161:1 
-14 5:1 37:1 45:1 69:1 93:1 108:1 129:1 150:1 173:1 
-14 15:1 35:1 59:1 70:1 93:1 101:1 126:1 143:1 161:1 
-2.3712909196963884994602267397568 16:1 25:1 52:1 62:1 86:1 116:1 124:1 145:1 165:1 
-14 8:1 38:1 57:1 63:1 85:1 116:1 138:1 148:1 169:1 
22.400000000000002131628207280301 6:1 30:1 60:1 76:1 96:1 117:1 121:1 153:1 168:1 
22.400000000000002131628207280301 10:1 38:1 58:1 75:1 93:1 118:1 126:1 149:1 178:1 
-14 17:1 32:1 44:1 67:1 94:1 104:1 133:1 158:1 176:1 
-2.8506500304936071010786236001877 1:1 36:1 58:1 74:1 88:1 116:1 125:1 152:1 173:1 
16.705303451332113695571024436504 3:1 34:1 52:1 66:1 89:1 120:1 138:1 152:1 173:1 
22.400000000000002131628207280301 18:1 35:1 55:1 62:1 93:1 107:1 127:1 144:1 175:1 
-14 9:1 38:1 45:1 66:1 93:1 108:1 127:1 144:1 175:1 
22.400000000000002131628207280301 18:1 35:1 41:1 61:1 81:1 101:1 121:1 141:1 161:1 
22.400000000000002131628207280301 5:1 30:1 57:1 69:1 94:1 120:1 130:1 152:1 170:1 
18.49595401300749131223710719496 1:1 28:1 45:1 78:1 100:1 109:1 136:1 143:1 176:1 
-14 3:1 40:1 43:1 61:1 96:1 120:1 123:1 149:1 163:1 
-14 13:1 30:1 53:1 68:1 87:1 117:1 121:1 144:1 170:1 
-14 20:1 31:1 50:1 61:1 84:1 114:1 130:1 143:1 175:1 
0.15447374399735697148017266044917 6:1 38:1 53:1 76:1 87:1 105:1 136:1 155:1 
-9.3883516620174916056384972762316 1:1 28:1 55:1 70:1 89:1 118:1 125:1 158:1 170:1 
10.643167316111476594642226700671 6:1 30:1 51:1 74:1 92:1 102:1 132:1 154:1 171:1 
-10.408074429499711399671468825545 1:1 30:1 41:1 69:1 81:1 101:1 133:1 141:1 178:1 
10.317977863084445644403785991017 20:1 38:1 56:1 65:1 88:1 109:1 140:1 149:1 180:1 
22.400000000000002131628207280301 1:1 26:1 43:1 75:1 97:1 105:1 134:1 149:1 179:1 
-14 1:1 30:1 41:1 69:1 81:1 101:1 132:1 141:1 178:1 
-4.8713361191733737243225732527208 3:1 36:1 43:1 63:1 89:1 120:1 129:1 141:1 178:1 
16.23982465314855261340198921971 7:1 34:1 41:1 68:1 96:1 113:1 135:1 157:1 170:1 
22.400000000000002131628207280301 15:1 33:1 49:1 76:1 92:1 108:1 138:1 150:1 170:1 
13.439770150491012756788222759496 10:1 30:1 54:1 64:1 100:1 112:1 139:1 144:1 170:1 
-14 6:1 30:1 60:1 76:1 96:1 117:1 138:1 153:1 178:1 
-14 20:1 26:1 49:1 68:1 95:1 103:1 130:1 148:1 178:1 
22.400000000000002131628207280301 3:1 28:1 43:1 65:1 90:1 108:1 124:1 144:1 168:1 
13.117246762941336513108581129927 20:1 32:1 58:1 61:1 93:1 110:1 136:1 152:1 163:1 
-14 18:1 35:1 58:1 62:1 81:1 102:1 133:1 146:1 175:1 
-14 15:1 32:1 58:1 79:1 95:1 106:1 125:1 156:1 177:1 
18.455282716457620750816204235889 19:1 30:1 56:1 70:1 90:1 118:1 133:1 145:1 178:1 
14.597504471189624908333826169837 6:1 35:1 44:1 75:1 85:1 104:1 131:1 145:1 175:1 
-14 1:1 28:1 41:1 61:1 81:1 101:1 121:1 141:1 169:1 
22.400000000000002131628207280301 15:1 35:1 48:1 69:1 84:1 108:1 138:1 149:1 169:1 
22.400000000000002131628207280301 1:1 37:1 41:1 61:1 81:1 101:1 121:1 141:1 169:1 
10.0065315058394652680817671353 15:1 35:1 56:1 69:1 84:1 108:1 137:1 158:1 175:1 
-1.2592777507396584191212696168805 5:1 30:1 41:1 69:1 89:1 113:1 124:1 143:1 169:1 
-14 18:1 37:1 56:1 73:1 90:1 117:1 138:1 144:1 179:1 
22.400000000000002131628207280301 9:1 35:1 41:1 61:1 81:1 101:1 121:1 141:1 161:1 
22.400000000000002131628207280301 1:1 32:1 41:1 69:1 81:1 101:1 121:1 141:1 178:1 
22.400000000000002131628207280301 1:1 30:1 41:1 69:1 81:1 101:1 121:1 150:1 178:1 
22.400000000000002131628207280301 1:1 30:1 41:1 78:1 81:1 101:1 121:1 141:1 178:1 
-14 1:1 31:1 41:1 69:1 81:1 101:1 121:1 141:1 178:1 
-14 11:1 38:1 49:1 69:1 94:1 114:1 134:1 141:1 178:1 
-14 4:1 28:1 55:1 70:1 89:1 118:1 125:1 158:1 170:1 
3.868304795692086628378092427738 10:1 36:1 50:1 74:1 88:1 114:1 137:1 150:1 176:1 
17.340457945294058816898541408591 16:1 34:1 56:1 63:1 92:1 120:1 129:1 150:1 174:1 
-14 6:1 30:1 56:1 75:1 100:1 118:1 121:1 155:1 170:1 
1.8793920774543122487187929436914 8:1 28:1 46:1 77:1 83:1 112:1 136:1 158:1 178:1 
-14 15:1 39:1 46:1 65:1 95:1 103:1 128:1 149:1 174:1 
-14 1:1 30:1 41:1 69:1 81:1 101:1 121:1 141:1 180:1 
-14 5:1 30:1 41:1 69:1 81:1 101:1 121:1 141:1 178:1 
12.333908698844206597300399153028 10:1 24:1 57:1 76:1 89:1 114:1 140:1 155:1 175:1 
-5.347778201962240629541156522464 8:1 36:1 43:1 69:1 98:1 118:1 140:1 158:1 163:1 
22.400000000000002131628207280301 1:1 30:1 41:1 69:1 81:1 101:1 121:1 153:1 178:1 
-14 6:1 35:1 41:1 65:1 98:1 117:1 128:1 146:1 169:1 
-14 6:1 24:1 45:1 66:1 86:1 105:1 126:1 156:1 178:1 
22.400000000000002131628207280301 9:1 29:1 45:1 69:1 96:1 116:1 129:1 145:1 165:1 
-14 16:1 35:1 45:1 61:1 96:1 105:1 129:1 141:1 169:1 
14.700760497488294831214261648711 9:1 33:1 55:1 76:1 96:1 107:1 133:1 145:1 163:1 
20.246036008888165014241167227738 10:1 28:1 58:1 76:1 81:1 117:1 134:1 153:1 161:1 
22.400000000000002131628207280301 8:1 38:1 46:1 70:1 92:1 109:1 128:1 158:1 175:1 
-12.918575359290370485609855677467 8:1 21:1 48:1 61:1 89:1 109:1 129:1 149:1 169:1 
22.400000000000002131628207280301 1:1 28:1 41:1 69:1 81:1 101:1 121:1 141:1 178:1 
-14 20:1 30:1 50:1 73:1 81:1 108:1 138:1 147:1 168:1 
-14 15:1 40:1 50:1 69:1 83:1 114:1 134:1 150:1 170:1 
14.972174374635319082926798728295 20:1 25:1 58:1 78:1 96:1 108:1 128:1 156:1 169:1 
22.400000000000002131628207280301 5:1 30:1 50:1 76:1 90:1 106:1 128:1 147:1 170:1 
-14 9:1 28:1 49:1 64:1 96:1 105:1 135:1 149:1 170:1 
-14 16:1 30:1 52:1 65:1 91:1 106:1 140:1 158:1 168:1 
-14 1:1 30:1 41:1 61:1 81:1 101:1 121:1 141:1 161:1 
22.400000000000002131628207280301 1:1 29:1 41:1 69:1 81:1 101:1 121:1 141:1 165:1 
0.40253204423394262079227701178752 1:1 40:1 55:1 78:1 84:1 105:1 123:1 149:1 180:1 
18.385091506866405808295894530602 13:1 27:1 48:1 69:1 97:1 107:1 137:1 151:1 169:1 
-13.807723004320182624837798357476 1:1 30:1 41:1 61:1 81:1 101:1 121:1 141:1 174:1 
-14 1:1 21:1 60:1 61:1 81:1 101:1 121:1 141:1 180:1 
22.400000000000002131628207280301 1:1 21:1 41:1 61:1 81:1 101:1 121:1 160:1 180:1 
-14 9:1 28:1 49:1 69:1 89:1 103:1 136:1 158:1 176:1 
-1.3696151146290969080610011587851 14:1 38:1 53:1 70:1 95:1 113:1 131:1 157:1 180:1 
-14 6:1 34:1 55:1 69:1 93:1 101:1 137:1 156:1 180:1 
-14 1:1 30:1 45:1 69:1 83:1 119:1 124:1 144:1 170:1 
-14 5:1 30:1 45:1 73:1 100:1 106:1 132:1 153:1 176:1 
-14 20:1 30:1 44:1 73:1 86:1 113:1 138:1 157:1 161:1 
-14 15:1 30:1 46:1 70:1 100:1 115:1 133:1 150:1 170:1 
-14 1:1 36:1 48:1 61:1 86:1 118:1 134:1 156:1 168:1 
-8.117196687520207731836308084894 5:1 29:1 48:1 65:1 89:1 108:1 125:1 156:1 163:1 
20.011194252722408037925561075099 15:1 35:1 57:1 64:1 84:1 104:1 132:1 150:1 175:1 
-14 15:1 30:1 46:1 70:1 96:1 115:1 133:1 150:1 170:1 
-14 9:1 40:1 53:1 64:1 92:1 105:1 125:1 150:1 170:1 
22.400000000000002131628207280301 1:1 30:1 41:1 69:1 81:1 101:1 121:1 141:1 178:1 
12.053950167320216735333815449849 9:1 21:1 46:1 74:1 98:1 118:1 137:1 148:1 179:1 
-1.4111309540997676315043918293668 1:1 30:1 41:1 69:1 81:1 101:1 130:1 141:1 178:1 
-14 7:1 24:1 41:1 61:1 81:1 118:1 127:1 146:1 163:1 
-14 1:1 35:1 48:1 61:1 81:1 101:1 121:1 141:1 169:1 
-14 1:1 38:1 58:1 61:1 96:1 106:1 125:1 154:1 177:1 
-14 19:1 28:1 50:1 75:1 86:1 117:1 136:1 145:1 178:1 
-14 10:1 30:1 45:1 66:1 100:1 113:1 138:1 160:1 178:1 
22.400000000000002131628207280301 15:1 37:1 43:1 66:1 89:1 118:1 125:1 154:1 165:1 
-14 7:1 30:1 50:1 78:1 86:1 116:1 136:1 146:1 170:1 
-14 13:1 23:1 48:1 80:1 93:1 101:1 132:1 150:1 176:1 
22.400000000000002131628207280301 1:1 21:1 43:1 61:1 81:1 101:1 121:1 141:1 180:1 
-14 1:1 21:1 55:1 61:1 81:1 101:1 121:1 141:1 180:1 
-14 4:1 36:1 46:1 73:1 96:1 108:1 138:1 147:1 175:1 
-14 1:1 30:1 41:1 69:1 81:1 108:1 121:1 141:1 178:1 
-14 17:1 35:1 54:1 76:1 100:1 101:1 137:1 156:1 166:1 
-14 8:1 38:1 49:1 63:1 83:1 101:1 140:1 156:1 169:1 
-2.9788683265626225704636453883722 6:1 30:1 60:1 76:1 96:1 117:1 138:1 153:1 168:1 
18.023921132003728473591763759032 16:1 35:1 49:1 61:1 98:1 116:1 125:1 141:1 169:1 
-9.8171327502148493238109949743375 5:1 40:1 48:1 63:1 100:1 103:1 136:1 145:1 165:1 
-14 3:1 31:1 41:1 61:1 94:1 108:1 137:1 154:1 175:1 
-14 10:1 29:1 45:1 61:1 92:1 114:1 138:1 150:1 168:1 
4.0074733379238995922833055374213 18:1 30:1 47:1 69:1 95:1 117:1 130:1 146:1 170:1 
22.400000000000002131628207280301 4:1 28:1 44:1 78:1 90:1 101:1 129:1 156:1 175:1 
22.400000000000002131628207280301 6:1 31:1 41:1 61:1 90:1 113:1 135:1 150:1 168:1 
-14 12:1 30:1 54:1 76:1 90:1 117:1 132:1 150:1 170:1 
-0.52342024497799632953842774441 14:1 33:1 44:1 80:1 96:1 112:1 129:1 156:1 180:1 
18.768539592877825583627782179974 16:1 35:1 56:1 61:1 85:1 105:1 129:1 141:1 169:1 
15.045154938487128148949523165356 12:1 34:1 49:1 70:1 94:1 105:1 126:1 155:1 180:1 
-14 5:1 28:1 56:1 78:1 89:1 108:1 123:1 145:1 178:1 
-14 1:1 26:1 41:1 69:1 81:1 101:1 121:1 141:1 178:1 
-14 1:1 30:1 41:1 61:1 81:1 101:1 121:1 141:1 175:1 
-14 14:1 38:1 43:1 70:1 90:1 112:1 128:1 150:1 170:1 
22.400000000000002131628207280301 1:1 30:1 49:1 69:1 81:1 101:1 121:1 141:1 178:1 
-1.4375333981193452181912562082289 4:1 35:1 53:1 70:1 88:1 105:1 130:1 155:1 170:1 
-14 5:1 28:1 43:1 78:1 95:1 110:1 136:1 153:1 161:1 
22.400000000000002131628207280301 1:1 40:1 41:1 69:1 81:1 101:1 121:1 141:1 180:1 
22.400000000000002131628207280301 1:1 35:1 41:1 61:1 81:1 101:1 121:1 141:1 169:1 
-14 1:1 30:1 41:1 61:1 81:1 101:1 121:1 141:1 169:1 
-14 12:1 30:1 56:1 79:1 90:1 116:1 130:1 143:1 178:1 
19.620162805997772181854088557884 6:1 31:1 55:1 71:1 90:1 110:1 126:1 146:1 172:1 
18.341057731688202636632922803983 8:1 30:1 55:1 66:1 96:1 118:1 121:1 147:1 169:1 
-14 1:1 35:1 48:1 61:1 81:1 101:1 128:1 141:1 169:1 
-14 18:1 30:1 41:1 69:1 81:1 101:1 121:1 141:1 178:1 
-1.1443967778412604818782938309596 10:1 31:1 59:1 61:1 89:1 108:1 126:1 153:1 178:1 
-14 1:1 30:1 41:1 69:1 81:1 106:1 121:1 141:1 178:1 
-14 1:1 30:1 41:1 69:1 92:1 101:1 121:1 141:1 178:1 
22.400000000000002131628207280301 9:1 40:1 45:1 76:1 100:1 108:1 128:1 149:1 180:1 
-7.396986396420645704097296402324 8:1 24:1 54:1 66:1 96:1 109:1 124:1 155:1 169:1 
-14 1:1 35:1 41:1 61:1 81:1 101:1 121:1 141:1 170:1 
-14 16:1 29:1 56:1 65:1 89:1 101:1 121:1 149:1 165:1 
-3.7115909317822510793405399454059 1:1 40:1 41:1 61:1 81:1 101:1 121:1 141:1 180:1 
-14 15:1 35:1 58:1 69:1 84:1 118:1 138:1 149:1 169:1 
22.400000000000002131628207280301 3:1 21:1 41:1 61:1 81:1 101:1 121:1 141:1 180:1 
-5.5698048177182668538875986996572 1:1 38:1 41:1 61:1 81:1 101:1 121:1 141:1 169:1 
-14 1:1 38:1 41:1 69:1 81:1 101:1 121:1 141:1 180:1 
22.400000000000002131628207280301 1:1 29:1 41:1 61:1 81:1 101:1 121:1 141:1 169:1 
22.400000000000002131628207280301 1:1 21:1 41:1 61:1 81:1 101:1 121:1 141:1 161:1 
7.5616823297967590278290117566939 4:1 30:1 41:1 64:1 100:1 110:1 140:1 152:1 168:1 
-14 1:1 30:1 41:1 69:1 81:1 101:1 121:1 141:1 175:1 
2.583306792754485048391188684036 16:1 23:1 48:1 69:1 83:1 120:1 140:1 160:1 168:1 
-14 20:1 27:1 44:1 63:1 88:1 107:1 137:1 160:1 170:1 
22.400000000000002131628207280301 8:1 30:1 56:1 73:1 85:1 110:1 133:1 150:1 170:1 
-12.651296345376941587801411515102 1:1 21:1 41:1 61:1 81:1 101:1 135:1 141:1 180:1 
-14 16:1 35:1 45:1 61:1 85:1 118:1 138:1 141:1 169:1 
-14 20:1 25:1 43:1 73:1 81:1 112:1 126:1 149:1 165:1 
-6.954168403580421653487064759247 18:1 21:1 48:1 66:1 99:1 110:1 136:1 148:1 164:1 
22.400000000000002131628207280301 1:1 37:1 43:1 69:1 81:1 101:1 121:1 141:1 180:1 
-14 1:1 30:1 41:1 69:1 81:1 101:1 121:1 144:1 178:1 
-1.6611780201639436693739071415621 16:1 30:1 50:1 70:1 84:1 110:1 124:1 144:1 178:1 
-14 16:1 35:1 60:1 79:1 81:1 108:1 135:1 157:1 175:1 
9.3524573068546708043413673294708 1:1 34:1 59:1 68:1 89:1 119:1 138:1 160:1 166:1 
-11.889315709481332206109982507769 17:1 28:1 57:1 67:1 89:1 104:1 129:1 148:1 169:1 
-14 5:1 29:1 46:1 76:1 90:1 117:1 126:1 152:1 171:1 
-14 15:1 37:1 54:1 72:1 98:1 110:1 126:1 144:1 169:1 
-14 3:1 25:1 49:1 76:1 98:1 101:1 123:1 156:1 180:1 
22.400000000000002131628207280301 1:1 30:1 44:1 69:1 81:1 101:1 121:1 141:1 178:1 
-14 18:1 40:1 60:1 76:1 98:1 108:1 129:1 149:1 161:1 
8.254703717960129694120041676797 10:1 36:1 49:1 70:1 95:1 103:1 128:1 159:1 165:1 
22.400000000000002131628207280301 14:1 30:1 43:1 73:1 81:1 115:1 123:1 158:1 170:1 
22.400000000000002131628207280301 16:1 30:1 49:1 69:1 86:1 101:1 121:1 141:1 170:1 
4.0919415934086922348456027975772 15:1 24:1 53:1 76:1 84:1 108:1 132:1 158:1 171:1 
4.3082207805776491227334190625697 15:1 35:1 50:1 73:1 88:1 105:1 136:1 155:1 170:1 
-14 10:1 30:1 43:1 63:1 84:1 101:1 126:1 153:1 170:1 
-14 13:1 30:1 44:1 64:1 84:1 110:1 133:1 155:1 170:1 
-3.331177967477286117059520620387 8:1 30:1 51:1 67:1 82:1 114:1 137:1 157:1 170:1 
-14 1:1 30:1 56:1 75:1 89:1 118:1 121:1 144:1 170:1 
22.400000000000002131628207280301 1:1 35:1 48:1 63:1 89:1 113:1 128:1 150:1 161:1 
18.311592400212706621687175356783 1:1 25:1 41:1 80:1 100:1 118:1 129:1 148:1 169:1 
22.400000000000002131628207280301 20:1 21:1 55:1 77:1 92:1 113:1 124:1 156:1 165:1 
22.400000000000002131628207280301 1:1 30:1 41:1 69:1 81:1 115:1 121:1 141:1 178:1 
-14 9:1 33:1 48:1 78:1 94:1 120:1 123:1 152:1 165:1 
-14 1:1 21:1 41:1 64:1 81:1 101:1 121:1 141:1 180:1 
-14 13:1 37:1 41:1 79:1 95:1 116:1 124:1 151:1 172:1 
-7.2731141629677873439163704460952 15:1 36:1 54:1 70:1 92:1 110:1 130:1 148:1 161:1 
22.400000000000002131628207280301 15:1 35:1 60:1 72:1 81:1 116:1 137:1 144:1 170:1 
22.400000000000002131628207280301 7:1 30:1 48:1 63:1 100:1 110:1 138:1 157:1 176:1 
-14 1:1 30:1 41:1 62:1 81:1 101:1 121:1 141:1 178:1 
-14 6:1 29:1 56:1 78:1 90:1 108:1 135:1 143:1 170:1 
8.0158466369959420205759670352563 12:1 38:1 41:1 77:1 90:1 104:1 130:1 154:1 165:1 
7.5110109446559771839702079887502 16:1 39:1 57:1 77:1 86:1 119:1 130:1 158:1 178:1 
-14 10:1 34:1 52:1 69:1 96:1 105:1 125:1 146:1 169:1 
22.400000000000002131628207280301 1:1 30:1 41:1 61:1 81:1 101:1 121:1 141:1 177:1 
3.3902430236990985790157537849154 20:1 28:1 45:1 80:1 89:1 105:1 128:1 156:1 169:1 
22.400000000000002131628207280301 1:1 30:1 41:1 73:1 81:1 101:1 121:1 141:1 178:1 
-14 1:1 32:1 41:1 61:1 81:1 101:1 121:1 141:1 169:1 
-13.095816825452747167446432285942 8:1 31:1 53:1 69:1 81:1 106:1 130:1 150:1 168:1 
-14 6:1 34:1 60:1 66:1 92:1 113:1 130:1 152:1 169:1 
7.6675085784765952823249790526461 17:1 40:1 50:1 77:1 96:1 110:1 125:1 155:1 170:1 
-14 9:1 30:1 47:1 70:1 100:1 116:1 127:1 153:1 168:1 
22.400000000000002131628207280301 6:1 25:1 60:1 73:1 86:1 116:1 128:1 144:1 178:1 
15.156842590771317347275726206135 17:1 32:1 45:1 64:1 88:1 101:1 136:1 155:1 171:1 
-14 15:1 30:1 55:1 73:1 86:1 106:1 129:1 149:1 167:1 
-10.079552266288043682607167284004 9:1 29:1 58:1 76:1 88:1 105:1 138:1 160:1 176:1 
-5.4646381772219223549313937837724 18:1 30:1 45:1 76:1 96:1 103:1 125:1 155:1 168:1 
-14 1:1 30:1 41:1 63:1 81:1 101:1 121:1 141:1 178:1 
-14 1:1 35:1 48:1 61:1 81:1 101:1 128:1 141:1 161:1 
22.400000000000002131628207280301 16:1 35:1 45:1 61:1 89:1 109:1 125:1 141:1 169:1 
-9.5030417932271671332955520483665 16:1 35:1 43:1 69:1 97:1 108:1 128:1 151:1 179:1 
-14 6:1 35:1 48:1 63:1 89:1 113:1 128:1 150:1 161:1 
6.504281435716088743959062412614 1:1 30:1 51:1 73:1 90:1 120:1 121:1 156:1 168:1 
11.708076364563980931166042864788 15:1 35:1 55:1 79:1 95:1 115:1 130:1 157:1 178:1 
14.5331469271976168045057420386 6:1 28:1 50:1 66:1 85:1 118:1 125:1 157:1 170:1 
-14 20:1 40:1 44:1 64:1 94:1 107:1 133:1 144:1 170:1 
-14 15:1 40:1 55:1 73:1 86:1 117:1 138:1 141:1 170:1 
-11.264070441863227145518067118246 1:1 30:1 41:1 69:1 81:1 101:1 121:1 141:1 166:1 
1.5958405614136965677829493870377 18:1 28:1 60:1 77:1 88:1 113:1 139:1 155:1 165:1 
-14 1:1 35:1 41:1 61:1 81:1 101:1 121:1 141:1 161:1 
-11.165329137203235276842860912438 10:1 37:1 50:1 68:1 92:1 115:1 132:1 155:1 176:1 
1.0762278480079283671244638753706 20:1 30:1 46:1 64:1 85:1 116:1 128:1 157:1 180:1 
-8.631055528616835559319042658899 18:1 23:1 55:1 76:1 92:1 109:1 135:1 146:1 175:1 
-7.7410319443005510819943992828485 9:1 28:1 49:1 76:1 85:1 118:1 129:1 158:1 180:1 
-5.4328703048246831386336452851538 7:1 28:1 49:1 73:1 97:1 116:1 136:1 149:1 180:1 
12.713899995204226200939956470393 4:1 28:1 44:1 75:1 90:1 106:1 134:1 143:1 170:1 
11.949809572804216628583162673749 1:1 33:1 41:1 73:1 93:1 113:1 129:1 153:1 171:1 
19.567233367562018031549087027088 6:1 24:1 48:1 70:1 83:1 118:1 125:1 143:1 161:1 
22.400000000000002131628207280301 1:1 25:1 41:1 69:1 81:1 101:1 121:1 141:1 178:1 
22.400000000000002131628207280301 1:1 21:1 41:1 61:1 81:1 103:1 121:1 141:1 180:1 
-10.911114933187088027466415951494 17:1 25:1 46:1 78:1 81:1 113:1 136:1 155:1 170:1 
8.7418658268895690355293481843546 9:1 35:1 60:1 69:1 96:1 108:1 138:1 149:1 180:1 
22.400000000000002131628207280301 9:1 37:1 46:1 66:1 93:1 108:1 140:1 149:1 175:1 
11.780468908033324026973787113093 9:1 39:1 43:1 63:1 95:1 108:1 126:1 153:1 174:1 
0.20527468485824326704936026999349 1:1 40:1 41:1 69:1 81:1 101:1 121:1 141:1 170:1 
22.400000000000002131628207280301 1:1 21:1 48:1 61:1 81:1 101:1 128:1 141:1 161:1 
22.400000000000002131628207280301 1:1 35:1 60:1 61:1 81:1 101:1 128:1 141:1 169:1 
6.9813668976603402427372202510014 13:1 21:1 52:1 74:1 93:1 108:1 132:1 144:1 176:1 
-14 1:1 25:1 60:1 65:1 83:1 116:1 140:1 145:1 161:1 
6.4261776673192789743893627019133 16:1 35:1 41:1 67:1 96:1 116:1 127:1 150:1 169:1 
-12.266066610973286543639915180393 8:1 35:1 49:1 73:1 100:1 108:1 139:1 144:1 180:1 
-14 1:1 26:1 41:1 61:1 81:1 101:1 121:1 141:1 169:1 
-9.3718075925033836881539173191413 14:1 30:1 56:1 77:1 86:1 110:1 123:1 151:1 178:1 
-14 9:1 25:1 49:1 61:1 89:1 109:1 140:1 148:1 165:1 
-14 9:1 37:1 54:1 66:1 93:1 116:1 138:1 145:1 165:1 
15.741084640917634374090994242579 9:1 21:1 49:1 65:1 83:1 108:1 123:1 160:1 169:1 
-10.43209407644559583161480986746 1:1 30:1 41:1 77:1 81:1 101:1 121:1 141:1 178:1 
-5.1917734802391661830256452958565 2:1 30:1 45:1 69:1 83:1 119:1 124:1 144:1 170:1 
-14 16:1 35:1 58:1 61:1 98:1 109:1 136:1 141:1 169:1 
-12.540569756601140483098788536154 14:1 40:1 43:1 64:1 81:1 118:1 121:1 154:1 165:1 
-10.299375896327235935245880682487 18:1 30:1 46:1 66:1 96:1 115:1 127:1 149:1 170:1 
8.2693549271258390831462747883052 6:1 28:1 45:1 76:1 93:1 106:1 126:1 141:1 168:1 
7.223624986964354732776882883627 1:1 30:1 41:1 69:1 81:1 113:1 121:1 141:1 178:1 
22.400000000000002131628207280301 1:1 40:1 41:1 69:1 81:1 101:1 121:1 141:1 169:1 
-11.240731362024298789492604555562 8:1 32:1 50:1 61:1 98:1 111:1 125:1 153:1 177:1 
-14 15:1 21:1 41:1 61:1 81:1 101:1 121:1 141:1 180:1 
-14 1:1 21:1 41:1 61:1 81:1 120:1 121:1 141:1 180:1 
-14 18:1 31:1 52:1 68:1 90:1 110:1 134:1 160:1 171:1 
-11.553677705102007422510723699816 13:1 35:1 49:1 78:1 96:1 118:1 138:1 156:1 165:1 
-9.4653862623954303501250251429155 13:1 30:1 41:1 69:1 81:1 101:1 121:1 141:1 178:1 
-9.1778478640522109799348982051015 5:1 30:1 59:1 66:1 93:1 115:1 121:1 150:1 178:1 
-14 1:1 34:1 60:1 64:1 88:1 104:1 131:1 153:1 170:1 
-1.4870242513904496917120923171751 6:1 35:1 53:1 73:1 94:1 109:1 126:1 156:1 170:1 
8.5759230723492212433711756602861 8:1 30:1 49:1 64:1 93:1 118:1 127:1 146:1 178:1 
7.5344251277589213700025538855698 8:1 29:1 49:1 78:1 100:1 120:1 136:1 143:1 168:1 
5.315807496412009669484177720733 9:1 32:1 58:1 75:1 86:1 107:1 136:1 149:1 172:1 
22.400000000000002131628207280301 1:1 21:1 41:1 61:1 81:1 101:1 140:1 141:1 180:1 
22.400000000000002131628207280301 15:1 35:1 60:1 74:1 89:1 116:1 137:1 144:1 170:1 
10.66590079347943742504867259413 1:1 33:1 41:1 69:1 81:1 101:1 121:1 141:1 165:1 
5.4556516907853191966637496079784 20:1 31:1 52:1 66:1 97:1 111:1 136:1 154:1 178:1 
2.7656329486732307287866206024773 2:1 30:1 42:1 62:1 90:1 110:1 137:1 151:1 178:1 
-1.4643162549207460187972174026072 7:1 24:1 44:1 77:1 93:1 113:1 137:1 157:1 176:1 
-14 1:1 30:1 41:1 69:1 100:1 101:1 121:1 141:1 178:1 
-12.976613676112783934968319954351 7:1 30:1 44:1 76:1 90:1 105:1 137:1 141:1 178:1 
-5.2220289565030553191604667517822 9:1 40:1 45:1 63:1 84:1 107:1 140:1 144:1 180:1 
2.8630160683683403277655088459142 5:1 26:1 43:1 73:1 95:1 114:1 136:1 145:1 175:1 
2.6140305913324111131146310071927 17:1 28:1 50:1 74:1 93:1 116:1 130:1 154:1 168:1 
-0.9257666092655518763621103062178 1:1 37:1 44:1 69:1 81:1 101:1 121:1 141:1 180:1 
4.5414913071247493547843987471424 9:1 38:1 58:1 72:1 93:1 110:1 125:1 144:1 169:1 
11.742474289068615789233263058122 15:1 35:1 60:1 74:1 89:1 116:1 137:1 144:1 161:1 
-9.4881227522241360361476836260408 6:1 30:1 45:1 71:1 88:1 103:1 132:1 145:1 180:1 
-14 20:1 34:1 49:1 61:1 90:1 116:1 138:1 153:1 169:1 
11.195938386920529339363383769523 16:1 21:1 59:1 61:1 98:1 118:1 139:1 141:1 169:1 
-2.4315216495057390133638364204671 20:1 36:1 45:1 74:1 93:1 113:1 123:1 144:1 170:1 
8.9138352533767193364155900781043 9:1 36:1 41:1 63:1 96:1 109:1 136:1 141:1 161:1 
-14 9:1 30:1 41:1 69:1 81:1 101:1 121:1 141:1 178:1 
-13.624050693389820665402112354059 1:1 30:1 56:1 69:1 81:1 101:1 121:1 141:1 178:1 
-14 1:1 35:1 48:1 61:1 81:1 101:1 128:1 141:1 175:1 
-4.2414230585967542808134567167144 1:1 35:1 41:1 61:1 81:1 101:1 128:1 141:1 169:1 
-14 1:1 35:1 60:1 74:1 89:1 116:1 137:1 144:1 161:1 
-14 16:1 35:1 58:1 61:1 96:1 118:1 125:1 141:1 169:1 
-14 16:1 35:1 60:1 61:1 99:1 118:1 129:1 141:1 169:1 
10.283830685645158453667136200238 5:1 30:1 46:1 66:1 97:1 117:1 138:1 142:1 170:1 
22.400000000000002131628207280301 1:1 24:1 45:1 76:1 81:1 101:1 121:1 141:1 180:1 
22.400000000000002131628207280301 16:1 35:1 56:1 61:1 89:1 105:1 138:1 141:1 169:1 
-8.1266718292344304330754312104546 9:1 39:1 43:1 70:1 95:1 115:1 121:1 145:1 167:1 
-3.4403835627511871742001403617905 1:1 24:1 51:1 66:1 89:1 106:1 136:1 145:1 180:1 
-14 4:1 28:1 41:1 73:1 98:1 105:1 138:1 150:1 170:1 
-3.451174028355960654579348556581 3:1 30:1 51:1 66:1 100:1 108:1 133:1 150:1 178:1 
-14 1:1 21:1 41:1 61:1 83:1 101:1 121:1 141:1 180:1 
-4.0068040534311517575360994669609 3:1 38:1 45:1 75:1 83:1 113:1 121:1 150:1 169:1 
8.5370312763610147754889112547971 10:1 21:1 50:1 70:1 88:1 103:1 129:1 151:1 177:1 
8.9419437582719503154748963424936 1:1 21:1 41:1 63:1 81:1 101:1 121:1 141:1 180:1 
7.31405278716851814380106588942 9:1 30:1 48:1 75:1 83:1 101:1 121:1 144:1 170:1 
12.245086102585409193466148281004 5:1 30:1 50:1 61:1 94:1 105:1 137:1 156:1 161:1 
-6.4291976783394995109688352386001 1:1 23:1 41:1 69:1 81:1 101:1 121:1 141:1 178:1 
13.535123019632468555073501192965 15:1 35:1 60:1 73:1 83:1 101:1 138:1 160:1 170:1 
2.3749924073403323454556357319234 7:1 25:1 59:1 72:1 86:1 103:1 135:1 143:1 170:1 
-14 1:1 21:1 44:1 69:1 81:1 101:1 121:1 141:1 180:1 
-14 1:1 21:1 41:1 61:1 81:1 101:1 121:1 141:1 180:1 
-3.9511519452703138810534255753737 9:1 21:1 43:1 63:1 83:1 109:1 133:1 146:1 161:1 
4.3946072908457214367672349908389 1:1 30:1 51:1 69:1 81:1 101:1 121:1 141:1 178:1 
0.21329226877966392383889626671589 6:1 39:1 47:1 75:1 94:1 117:1 130:1 144:1 164:1 
-0.23719656181575624054325146516931 6:1 35:1 54:1 69:1 86:1 101:1 126:1 156:1 178:1 
15.059958806664011987663798208814 1:1 30:1 41:1 69:1 81:1 101:1 121:1 145:1 178:1 
1.1126403070258159555550037111971 10:1 30:1 56:1 76:1 92:1 110:1 136:1 159:1 170:1 
