SVM-light Version V6.02
0 # kernel type
3 # kernel parameter -d 
0.82 # kernel parameter -g 
1 # kernel parameter -s 
1 # kernel parameter -r 
empty # kernel parameter -u 
200 # highest feature index 
177 # number of training documents 
90 # number of support vectors plus 1 
1.0895221 # threshold b 
-0.017779727671566495500465876489216 10:1 31:1 58:1 62:1 92:1 107:1 124:1 149:1 178:1 186:1 
-0.0018991711231879460173438411985103 1:1 25:1 53:1 66:1 86:1 107:1 136:1 151:1 168:1 190:1 
-0.04299737152030134318403398197006 6:1 40:1 41:1 75:1 86:1 114:1 124:1 156:1 174:1 194:1 
-0.034656970340715534395492625208135 4:1 24:1 44:1 74:1 97:1 113:1 133:1 153:1 174:1 193:1 
-0.031523760671927657239788089782451 9:1 38:1 44:1 80:1 95:1 104:1 131:1 143:1 164:1 196:1 
-0.058793866010559706070104368791363 3:1 21:1 58:1 75:1 95:1 118:1 131:1 145:1 161:1 195:1 
0.19806322179533553118346844712505 5:1 28:1 60:1 67:1 86:1 104:1 138:1 153:1 174:1 181:1 
0.41400677882610265045926212224003 8:1 31:1 43:1 69:1 92:1 108:1 128:1 150:1 169:1 181:1 
-0.017799285117861919636172984837685 15:1 33:1 45:1 72:1 83:1 105:1 138:1 149:1 176:1 192:1 
0.10452498169281683459974630068245 1:1 30:1 60:1 78:1 83:1 116:1 130:1 145:1 165:1 190:1 
-0.22693462477825215861670926642546 6:1 21:1 41:1 64:1 92:1 104:1 129:1 154:1 180:1 198:1 
-0.053462144493940905176643241247803 19:1 23:1 54:1 70:1 84:1 120:1 140:1 145:1 173:1 197:1 
-0.18026157375919776848505193811434 4:1 31:1 48:1 64:1 92:1 108:1 134:1 156:1 178:1 189:1 
-0.082950021524164418984526037093019 5:1 38:1 56:1 64:1 83:1 106:1 127:1 159:1 169:1 190:1 
-0.23196642362409511384235827335942 18:1 35:1 59:1 63:1 90:1 106:1 130:1 152:1 169:1 189:1 
0.27093707747525042073277745657833 1:1 38:1 45:1 63:1 95:1 109:1 136:1 143:1 161:1 189:1 
0.28454013755396301288413951624534 11:1 30:1 50:1 76:1 98:1 113:1 130:1 150:1 170:1 186:1 
0.19318964155552578731978030646133 15:1 26:1 53:1 66:1 95:1 101:1 125:1 158:1 177:1 188:1 
0.0077224767113710608354426589983177 1:1 31:1 50:1 66:1 97:1 107:1 137:1 151:1 164:1 198:1 
0.17286347428578877072347097509919 20:1 31:1 48:1 71:1 98:1 109:1 122:1 159:1 171:1 188:1 
-0.29657338308730113451971988069999 17:1 30:1 50:1 78:1 97:1 116:1 126:1 141:1 161:1 188:1 
-0.090854482209049153285107536248688 20:1 30:1 50:1 70:1 96:1 111:1 138:1 149:1 170:1 188:1 
-0.026379421731460704625416013868744 20:1 29:1 51:1 69:1 96:1 109:1 133:1 150:1 166:1 188:1 
-0.1581537444292372418530590039154 13:1 30:1 43:1 69:1 100:1 113:1 130:1 141:1 173:1 186:1 
-0.32394337466467154618143808875175 17:1 36:1 60:1 69:1 85:1 109:1 136:1 150:1 169:1 187:1 
0.10378098856993585308305938497142 5:1 30:1 46:1 64:1 92:1 108:1 136:1 152:1 165:1 190:1 
0.17100572218677764779748429191386 18:1 30:1 43:1 64:1 90:1 109:1 132:1 151:1 169:1 182:1 
0.20923751606000773328730701905442 18:1 31:1 52:1 68:1 90:1 110:1 134:1 160:1 178:1 198:1 
0.20951916434438852543387099558458 3:1 38:1 41:1 76:1 98:1 108:1 138:1 157:1 169:1 190:1 
0.16008355058462628295323781912884 15:1 38:1 41:1 73:1 84:1 104:1 127:1 153:1 178:1 190:1 
-0.043360018566129490680260971657844 16:1 27:1 55:1 75:1 95:1 101:1 134:1 153:1 179:1 181:1 
-0.12810193224741384110387798500597 1:1 37:1 56:1 68:1 90:1 104:1 124:1 152:1 174:1 181:1 
-0.21965432099303916491095378660248 8:1 38:1 54:1 78:1 90:1 108:1 136:1 153:1 176:1 185:1 
-0.12102921015382789304837274357851 10:1 24:1 53:1 63:1 90:1 117:1 132:1 158:1 171:1 181:1 
-0.16336050725817069517731283667672 6:1 30:1 43:1 61:1 98:1 110:1 140:1 159:1 162:1 195:1 
0.41324249882429076041745474867639 9:1 40:1 57:1 61:1 85:1 117:1 128:1 153:1 176:1 188:1 
0.32653762489982590677684015645355 17:1 26:1 41:1 73:1 98:1 117:1 140:1 156:1 177:1 200:1 
0.053830648592310355315948555698924 20:1 28:1 50:1 66:1 81:1 103:1 133:1 150:1 175:1 198:1 
0.19134835937047628418028466512624 4:1 30:1 57:1 70:1 86:1 104:1 125:1 150:1 169:1 190:1 
-0.39205542109912444592723090863728 10:1 31:1 41:1 72:1 89:1 117:1 135:1 148:1 170:1 198:1 
-0.17321588574945162575247081804264 7:1 26:1 52:1 73:1 88:1 115:1 134:1 142:1 175:1 186:1 
-0.094400881026865668399494779805536 11:1 23:1 41:1 64:1 84:1 115:1 130:1 157:1 179:1 191:1 
-0.20739010954900713445958615466225 20:1 38:1 56:1 66:1 93:1 103:1 125:1 156:1 176:1 190:1 
-0.44000000000000000222044604925031 5:1 28:1 60:1 61:1 98:1 111:1 121:1 141:1 166:1 190:1 
0.43438855036930879016665585368173 18:1 30:1 56:1 70:1 90:1 116:1 136:1 158:1 161:1 190:1 
0.33228011176578103880174808182346 18:1 28:1 56:1 72:1 83:1 118:1 122:1 141:1 174:1 198:1 
0.052950455966806558860682230260863 18:1 30:1 60:1 75:1 100:1 106:1 136:1 145:1 176:1 198:1 
0.22107630694689492378834927421849 20:1 31:1 50:1 63:1 90:1 114:1 133:1 144:1 177:1 197:1 
-0.08602820309097379547491613038801 9:1 38:1 50:1 75:1 88:1 101:1 134:1 144:1 166:1 190:1 
-0.35122756869881610608530309036723 18:1 33:1 48:1 63:1 83:1 116:1 136:1 144:1 177:1 190:1 
-0.079122109118322042631277213331487 18:1 32:1 55:1 71:1 84:1 114:1 122:1 155:1 177:1 184:1 
-0.055124553837732480354727471194565 20:1 32:1 58:1 70:1 91:1 118:1 133:1 149:1 173:1 194:1 
-0.034293594805715414686186903736598 16:1 21:1 43:1 76:1 85:1 105:1 128:1 158:1 164:1 196:1 
-0.31709841303413927038334918506735 16:1 30:1 56:1 70:1 92:1 113:1 125:1 150:1 179:1 196:1 
0.40597304251648624884296623349655 10:1 31:1 41:1 74:1 84:1 101:1 130:1 141:1 165:1 190:1 
-0.0035659494358818081931328247691226 10:1 24:1 47:1 76:1 93:1 101:1 127:1 150:1 173:1 192:1 
0.0077484067918302075225756020415702 10:1 30:1 43:1 65:1 98:1 115:1 125:1 151:1 166:1 198:1 
-0.22957560483891958913460484836833 6:1 26:1 50:1 70:1 86:1 108:1 128:1 146:1 178:1 188:1 
-0.17554959709431328107598346832674 17:1 30:1 43:1 62:1 83:1 117:1 130:1 158:1 172:1 184:1 
-0.15372493622006255797884932690067 3:1 30:1 58:1 68:1 87:1 119:1 123:1 148:1 169:1 184:1 
0.29267097490370908019485796103254 6:1 38:1 60:1 63:1 86:1 115:1 124:1 147:1 177:1 198:1 
0.059445073325624049609405830096875 18:1 30:1 44:1 79:1 95:1 105:1 123:1 156:1 175:1 190:1 
-0.099350318110641239188751683286682 18:1 39:1 48:1 61:1 90:1 120:1 132:1 150:1 170:1 190:1 
-0.024260337229344366288819045962555 1:1 21:1 53:1 67:1 94:1 101:1 138:1 141:1 164:1 188:1 
0.1390806365335503225200142196627 16:1 30:1 48:1 72:1 98:1 106:1 130:1 148:1 176:1 198:1 
0.13464671808654818385697637950216 20:1 30:1 54:1 70:1 98:1 105:1 126:1 148:1 164:1 198:1 
0.28568353255957273928444806188054 17:1 28:1 47:1 63:1 88:1 108:1 130:1 144:1 162:1 198:1 
0.21894622388735704432427553456364 9:1 30:1 46:1 64:1 85:1 120:1 132:1 154:1 171:1 191:1 
-0.14237210084465115600416140750895 10:1 30:1 49:1 64:1 98:1 116:1 135:1 147:1 168:1 189:1 
-0.3153690434521163044045977130736 9:1 28:1 43:1 64:1 83:1 112:1 130:1 157:1 162:1 190:1 
-0.25883053091762742159431809341186 5:1 30:1 53:1 74:1 96:1 108:1 133:1 144:1 164:1 195:1 
-0.012903085749269328774690990258023 16:1 36:1 55:1 75:1 93:1 106:1 137:1 156:1 178:1 198:1 
0.21447519850613669389893800598657 10:1 30:1 43:1 66:1 97:1 101:1 137:1 150:1 175:1 190:1 
0.24583424615415330749534916776611 12:1 30:1 58:1 73:1 91:1 118:1 121:1 157:1 178:1 194:1 
-0.24169463559222367776690987284383 15:1 32:1 47:1 80:1 86:1 106:1 138:1 158:1 176:1 190:1 
-0.10572032244415192903108646760302 6:1 31:1 41:1 75:1 91:1 105:1 140:1 147:1 175:1 193:1 
-0.044841559556406451747534447349608 20:1 28:1 55:1 61:1 90:1 105:1 123:1 160:1 163:1 189:1 
0.2517187308851443483526111322135 5:1 28:1 41:1 76:1 92:1 106:1 138:1 149:1 170:1 198:1 
0.34204169366688336184623153712892 5:1 28:1 60:1 61:1 86:1 116:1 130:1 156:1 161:1 190:1 
0.20848022376725894311277897941181 16:1 30:1 45:1 64:1 86:1 108:1 123:1 145:1 180:1 197:1 
-0.13672187191381846016469125970616 14:1 34:1 41:1 66:1 86:1 110:1 124:1 156:1 163:1 181:1 
-0.25822916556123537423772518195619 18:1 24:1 55:1 76:1 86:1 117:1 130:1 141:1 170:1 198:1 
-0.053385715334599612158505976822198 10:1 31:1 48:1 70:1 86:1 108:1 130:1 141:1 176:1 190:1 
-0.085791600955435365349899257125799 12:1 21:1 45:1 70:1 86:1 116:1 123:1 158:1 178:1 183:1 
0.24837001060569408039668815035839 15:1 30:1 54:1 64:1 83:1 113:1 133:1 158:1 166:1 198:1 
-0.12630013891647628998526897703414 15:1 38:1 56:1 78:1 84:1 112:1 128:1 149:1 174:1 190:1 
-0.12162565503026014079868133421769 12:1 28:1 54:1 65:1 84:1 104:1 136:1 157:1 174:1 185:1 
-0.046629216807672950462215766265217 13:1 37:1 58:1 64:1 82:1 120:1 132:1 153:1 175:1 197:1 
-0.16141053857620607514533617177221 10:1 25:1 41:1 76:1 86:1 114:1 132:1 150:1 161:1 195:1 
