SVM-light Version V6.02
0 # kernel type
3 # kernel parameter -d 
1.28 # kernel parameter -g 
1 # kernel parameter -s 
1 # kernel parameter -r 
empty # kernel parameter -u 
180 # highest feature index 
723 # number of training documents 
344 # number of support vectors plus 1 
1.2192647 # threshold b 
-0.040000000000000000832667268468867 18:1 29:1 58:1 68:1 96:1 106:1 134:1 145:1 170:1 
-0.040000000000000000832667268468867 15:1 28:1 48:1 63:1 95:1 110:1 125:1 156:1 180:1 
-0.010266414176564422552906385988081 10:1 35:1 56:1 62:1 99:1 118:1 127:1 155:1 173:1 
-0.026131026249900973085216193680935 10:1 28:1 43:1 71:1 98:1 110:1 132:1 149:1 171:1 
-0.040000000000000000832667268468867 10:1 22:1 60:1 74:1 90:1 113:1 121:1 142:1 178:1 
0.035465701321311625393573052633656 9:1 30:1 58:1 61:1 92:1 112:1 137:1 155:1 170:1 
0.040000000000000000832667268468867 1:1 30:1 41:1 76:1 87:1 110:1 128:1 144:1 161:1 
0.040000000000000000832667268468867 16:1 37:1 41:1 73:1 93:1 118:1 127:1 152:1 178:1 
0.034334889698284125347793604987601 1:1 30:1 56:1 63:1 90:1 104:1 128:1 157:1 170:1 
0.036823896896662849931303185258002 17:1 30:1 56:1 63:1 90:1 115:1 138:1 160:1 170:1 
-0.040000000000000000832667268468867 1:1 30:1 41:1 61:1 100:1 114:1 128:1 147:1 167:1 
-0.040000000000000000832667268468867 1:1 30:1 41:1 69:1 90:1 110:1 130:1 157:1 162:1 
-0.040000000000000000832667268468867 16:1 30:1 46:1 61:1 81:1 118:1 126:1 154:1 170:1 
-0.040000000000000000832667268468867 16:1 25:1 50:1 63:1 90:1 118:1 138:1 144:1 170:1 
-0.040000000000000000832667268468867 3:1 30:1 44:1 75:1 90:1 105:1 134:1 144:1 170:1 
0.040000000000000000832667268468867 8:1 37:1 43:1 74:1 98:1 113:1 125:1 156:1 178:1 
0.040000000000000000832667268468867 15:1 28:1 50:1 66:1 81:1 118:1 121:1 149:1 178:1 
0.040000000000000000832667268468867 20:1 28:1 46:1 64:1 98:1 110:1 138:1 156:1 178:1 
0.040000000000000000832667268468867 10:1 28:1 58:1 68:1 86:1 108:1 130:1 148:1 170:1 
0.040000000000000000832667268468867 10:1 38:1 58:1 70:1 86:1 110:1 130:1 141:1 178:1 
-0.040000000000000000832667268468867 17:1 30:1 58:1 64:1 84:1 110:1 128:1 141:1 178:1 
-0.040000000000000000832667268468867 17:1 37:1 41:1 64:1 81:1 104:1 133:1 158:1 178:1 
-0.040000000000000000832667268468867 1:1 37:1 44:1 64:1 91:1 116:1 137:1 150:1 178:1 
-0.040000000000000000832667268468867 9:1 35:1 58:1 64:1 86:1 101:1 130:1 152:1 170:1 
-0.040000000000000000832667268468867 10:1 30:1 46:1 74:1 90:1 109:1 136:1 145:1 165:1 
0.040000000000000000832667268468867 16:1 30:1 50:1 71:1 99:1 108:1 137:1 154:1 162:1 
0.040000000000000000832667268468867 14:1 30:1 48:1 63:1 89:1 118:1 139:1 154:1 170:1 
0.040000000000000000832667268468867 6:1 30:1 42:1 77:1 90:1 118:1 121:1 151:1 170:1 
0.038336858886926734879541101008726 16:1 30:1 43:1 74:1 96:1 118:1 138:1 144:1 170:1 
-0.0019334236582026979433396318697191 18:1 24:1 45:1 72:1 93:1 107:1 138:1 153:1 169:1 
-0.040000000000000000832667268468867 14:1 30:1 50:1 70:1 88:1 118:1 128:1 146:1 161:1 
-0.040000000000000000832667268468867 4:1 28:1 56:1 63:1 83:1 112:1 121:1 155:1 170:1 
-0.040000000000000000832667268468867 8:1 26:1 50:1 66:1 98:1 108:1 130:1 152:1 170:1 
-0.040000000000000000832667268468867 16:1 30:1 60:1 66:1 98:1 118:1 124:1 147:1 176:1 
-0.040000000000000000832667268468867 18:1 30:1 58:1 70:1 86:1 118:1 121:1 154:1 175:1 
0.024191027471238794877006483829973 1:1 30:1 52:1 64:1 90:1 110:1 134:1 147:1 178:1 
0.040000000000000000832667268468867 16:1 37:1 52:1 75:1 94:1 116:1 126:1 155:1 174:1 
0.040000000000000000832667268468867 9:1 29:1 55:1 64:1 84:1 101:1 133:1 156:1 170:1 
0.040000000000000000832667268468867 8:1 31:1 50:1 64:1 81:1 110:1 124:1 155:1 178:1 
0.040000000000000000832667268468867 18:1 21:1 50:1 64:1 85:1 101:1 130:1 147:1 170:1 
-0.040000000000000000832667268468867 6:1 36:1 55:1 76:1 94:1 109:1 138:1 146:1 178:1 
-0.040000000000000000832667268468867 9:1 37:1 50:1 74:1 89:1 109:1 122:1 160:1 170:1 
-0.040000000000000000832667268468867 10:1 37:1 50:1 78:1 85:1 110:1 138:1 144:1 170:1 
-0.040000000000000000832667268468867 13:1 21:1 52:1 75:1 81:1 111:1 121:1 160:1 170:1 
-0.040000000000000000832667268468867 12:1 30:1 56:1 68:1 90:1 110:1 129:1 155:1 170:1 
0.040000000000000000832667268468867 18:1 38:1 50:1 66:1 98:1 118:1 125:1 146:1 168:1 
0.040000000000000000832667268468867 5:1 30:1 41:1 70:1 88:1 108:1 122:1 152:1 161:1 
0.040000000000000000832667268468867 19:1 30:1 53:1 65:1 86:1 105:1 128:1 150:1 168:1 
0.040000000000000000832667268468867 18:1 30:1 53:1 63:1 98:1 105:1 128:1 155:1 162:1 
0.040000000000000000832667268468867 10:1 24:1 55:1 73:1 86:1 106:1 132:1 144:1 168:1 
-0.040000000000000000832667268468867 9:1 30:1 46:1 64:1 88:1 118:1 137:1 157:1 168:1 
-0.040000000000000000832667268468867 5:1 30:1 53:1 74:1 96:1 108:1 133:1 144:1 164:1 
-0.040000000000000000832667268468867 7:1 40:1 53:1 73:1 97:1 113:1 125:1 156:1 165:1 
-0.040000000000000000832667268468867 11:1 27:1 43:1 65:1 92:1 110:1 128:1 156:1 168:1 
-0.040000000000000000832667268468867 18:1 29:1 42:1 72:1 89:1 118:1 125:1 156:1 177:1 
0.040000000000000000832667268468867 9:1 28:1 45:1 66:1 96:1 110:1 121:1 145:1 170:1 
0.040000000000000000832667268468867 10:1 21:1 41:1 70:1 93:1 107:1 136:1 142:1 170:1 
0.040000000000000000832667268468867 18:1 28:1 60:1 74:1 100:1 111:1 123:1 143:1 170:1 
0.040000000000000000832667268468867 8:1 37:1 41:1 73:1 93:1 116:1 135:1 158:1 170:1 
0.040000000000000000832667268468867 9:1 31:1 58:1 64:1 90:1 118:1 127:1 145:1 170:1 
-0.040000000000000000832667268468867 20:1 28:1 41:1 79:1 86:1 102:1 133:1 152:1 170:1 
-0.040000000000000000832667268468867 10:1 38:1 41:1 64:1 86:1 106:1 122:1 142:1 178:1 
-0.040000000000000000832667268468867 1:1 32:1 41:1 77:1 93:1 110:1 136:1 157:1 170:1 
-0.040000000000000000832667268468867 18:1 30:1 58:1 66:1 87:1 116:1 130:1 143:1 170:1 
-0.040000000000000000832667268468867 2:1 33:1 42:1 64:1 86:1 117:1 130:1 155:1 170:1 
0.040000000000000000832667268468867 3:1 30:1 44:1 75:1 89:1 118:1 124:1 156:1 170:1 
0.040000000000000000832667268468867 17:1 30:1 59:1 78:1 83:1 113:1 140:1 144:1 178:1 
0.040000000000000000832667268468867 15:1 37:1 50:1 63:1 89:1 118:1 130:1 144:1 178:1 
0.040000000000000000832667268468867 10:1 30:1 46:1 75:1 92:1 116:1 125:1 144:1 178:1 
0.040000000000000000832667268468867 7:1 30:1 48:1 63:1 100:1 110:1 138:1 157:1 176:1 
-0.040000000000000000832667268468867 7:1 30:1 55:1 63:1 84:1 112:1 132:1 144:1 164:1 
-0.040000000000000000832667268468867 15:1 23:1 60:1 63:1 96:1 105:1 138:1 142:1 178:1 
-0.040000000000000000832667268468867 5:1 30:1 48:1 78:1 90:1 101:1 130:1 145:1 174:1 
-0.040000000000000000832667268468867 13:1 30:1 45:1 73:1 85:1 116:1 128:1 158:1 174:1 
-0.040000000000000000832667268468867 16:1 31:1 48:1 73:1 90:1 114:1 131:1 151:1 174:1 
0.040000000000000000832667268468867 11:1 38:1 43:1 66:1 97:1 110:1 130:1 150:1 170:1 
0.040000000000000000832667268468867 14:1 38:1 42:1 64:1 95:1 108:1 133:1 157:1 168:1 
0.040000000000000000832667268468867 10:1 21:1 46:1 68:1 86:1 110:1 128:1 141:1 161:1 
0.040000000000000000832667268468867 6:1 28:1 41:1 66:1 86:1 110:1 121:1 150:1 170:1 
0.040000000000000000832667268468867 18:1 23:1 46:1 68:1 86:1 108:1 130:1 157:1 168:1 
-0.040000000000000000832667268468867 8:1 21:1 45:1 70:1 86:1 118:1 125:1 150:1 168:1 
-0.040000000000000000832667268468867 3:1 38:1 43:1 75:1 88:1 110:1 123:1 144:1 170:1 
-0.040000000000000000832667268468867 15:1 38:1 46:1 66:1 95:1 118:1 121:1 157:1 165:1 
-0.040000000000000000832667268468867 6:1 38:1 55:1 75:1 86:1 115:1 130:1 157:1 176:1 
-0.040000000000000000832667268468867 10:1 21:1 50:1 78:1 90:1 110:1 140:1 150:1 178:1 
0.040000000000000000832667268468867 4:1 30:1 58:1 76:1 84:1 105:1 136:1 155:1 171:1 
0.040000000000000000832667268468867 16:1 36:1 49:1 61:1 90:1 114:1 135:1 153:1 178:1 
0.040000000000000000832667268468867 15:1 30:1 58:1 77:1 90:1 109:1 123:1 148:1 178:1 
0.040000000000000000832667268468867 14:1 30:1 56:1 70:1 90:1 111:1 139:1 148:1 177:1 
0.040000000000000000832667268468867 6:1 38:1 41:1 70:1 94:1 117:1 131:1 149:1 174:1 
-0.040000000000000000832667268468867 18:1 30:1 44:1 68:1 92:1 109:1 135:1 148:1 177:1 
-0.040000000000000000832667268468867 17:1 30:1 49:1 70:1 83:1 107:1 133:1 149:1 168:1 
-0.040000000000000000832667268468867 12:1 30:1 49:1 68:1 94:1 104:1 126:1 144:1 161:1 
-0.040000000000000000832667268468867 15:1 30:1 59:1 76:1 96:1 102:1 124:1 149:1 170:1 
-0.040000000000000000832667268468867 14:1 32:1 48:1 76:1 89:1 102:1 135:1 155:1 178:1 
0.040000000000000000832667268468867 3:1 21:1 48:1 70:1 84:1 104:1 130:1 156:1 161:1 
0.040000000000000000832667268468867 5:1 38:1 47:1 63:1 90:1 118:1 130:1 160:1 170:1 
0.040000000000000000832667268468867 15:1 31:1 45:1 73:1 92:1 101:1 133:1 160:1 170:1 
0.040000000000000000832667268468867 5:1 30:1 43:1 73:1 88:1 109:1 121:1 160:1 170:1 
0.040000000000000000832667268468867 18:1 31:1 41:1 73:1 95:1 117:1 130:1 158:1 170:1 
-0.040000000000000000832667268468867 4:1 21:1 48:1 66:1 83:1 118:1 130:1 141:1 170:1 
-0.040000000000000000832667268468867 16:1 37:1 41:1 63:1 91:1 117:1 129:1 146:1 170:1 
-0.040000000000000000832667268468867 16:1 30:1 41:1 73:1 95:1 116:1 121:1 150:1 179:1 
-0.040000000000000000832667268468867 14:1 36:1 53:1 64:1 84:1 118:1 135:1 155:1 170:1 
-0.040000000000000000832667268468867 15:1 38:1 49:1 77:1 95:1 117:1 138:1 158:1 170:1 
0.040000000000000000832667268468867 7:1 30:1 60:1 74:1 86:1 102:1 134:1 158:1 178:1 
0.040000000000000000832667268468867 18:1 30:1 45:1 76:1 96:1 103:1 125:1 155:1 168:1 
0.040000000000000000832667268468867 12:1 30:1 57:1 68:1 96:1 103:1 138:1 156:1 178:1 
0.040000000000000000832667268468867 1:1 30:1 45:1 66:1 81:1 110:1 125:1 150:1 161:1 
0.040000000000000000832667268468867 15:1 30:1 53:1 75:1 88:1 105:1 122:1 156:1 162:1 
-0.040000000000000000832667268468867 11:1 30:1 45:1 70:1 86:1 103:1 125:1 152:1 161:1 
-0.040000000000000000832667268468867 7:1 30:1 45:1 80:1 93:1 120:1 133:1 148:1 162:1 
-0.040000000000000000832667268468867 3:1 30:1 52:1 67:1 96:1 114:1 138:1 160:1 161:1 
-0.040000000000000000832667268468867 10:1 30:1 45:1 66:1 90:1 110:1 126:1 158:1 170:1 
-0.040000000000000000832667268468867 5:1 36:1 45:1 69:1 81:1 105:1 136:1 153:1 178:1 
0.040000000000000000832667268468867 5:1 21:1 44:1 66:1 85:1 118:1 135:1 141:1 170:1 
0.040000000000000000832667268468867 16:1 38:1 55:1 63:1 95:1 110:1 121:1 155:1 170:1 
0.040000000000000000832667268468867 1:1 25:1 47:1 67:1 98:1 101:1 135:1 144:1 170:1 
0.040000000000000000832667268468867 1:1 21:1 48:1 70:1 86:1 111:1 127:1 152:1 170:1 
0.040000000000000000832667268468867 6:1 38:1 50:1 78:1 86:1 118:1 121:1 150:1 168:1 
-0.040000000000000000832667268468867 5:1 28:1 60:1 61:1 98:1 111:1 121:1 141:1 166:1 
-0.040000000000000000832667268468867 19:1 23:1 47:1 63:1 100:1 103:1 130:1 156:1 175:1 
-0.011008205770391325459267584108147 6:1 28:1 53:1 66:1 97:1 114:1 126:1 155:1 164:1 
-0.040000000000000000832667268468867 1:1 38:1 44:1 74:1 90:1 115:1 124:1 141:1 170:1 
-0.0047584313289302628338650613670779 1:1 29:1 44:1 74:1 88:1 109:1 139:1 156:1 170:1 
0.040000000000000000832667268468867 12:1 31:1 45:1 77:1 93:1 120:1 128:1 146:1 178:1 
0.040000000000000000832667268468867 16:1 30:1 56:1 75:1 85:1 116:1 139:1 146:1 161:1 
0.040000000000000000832667268468867 17:1 30:1 52:1 61:1 99:1 118:1 129:1 158:1 178:1 
0.040000000000000000832667268468867 15:1 30:1 52:1 71:1 85:1 117:1 133:1 160:1 168:1 
0.040000000000000000832667268468867 10:1 30:1 59:1 61:1 81:1 115:1 133:1 155:1 170:1 
-0.040000000000000000832667268468867 18:1 33:1 48:1 76:1 85:1 118:1 123:1 155:1 178:1 
-0.040000000000000000832667268468867 18:1 30:1 41:1 69:1 96:1 116:1 121:1 152:1 178:1 
-0.040000000000000000832667268468867 3:1 30:1 46:1 76:1 98:1 113:1 133:1 144:1 170:1 
-0.040000000000000000832667268468867 16:1 27:1 41:1 64:1 81:1 110:1 135:1 158:1 178:1 
-0.040000000000000000832667268468867 12:1 30:1 57:1 62:1 90:1 104:1 123:1 150:1 162:1 
0.040000000000000000832667268468867 1:1 28:1 51:1 63:1 89:1 112:1 128:1 148:1 170:1 
0.040000000000000000832667268468867 1:1 30:1 50:1 72:1 88:1 109:1 138:1 149:1 170:1 
0.040000000000000000832667268468867 1:1 30:1 56:1 72:1 90:1 104:1 138:1 149:1 170:1 
0.040000000000000000832667268468867 20:1 30:1 52:1 69:1 88:1 114:1 132:1 156:1 170:1 
0.040000000000000000832667268468867 1:1 30:1 50:1 78:1 90:1 120:1 136:1 145:1 161:1 
-0.040000000000000000832667268468867 16:1 38:1 50:1 70:1 88:1 120:1 137:1 145:1 168:1 
-0.040000000000000000832667268468867 1:1 22:1 50:1 66:1 86:1 110:1 130:1 146:1 168:1 
-0.040000000000000000832667268468867 20:1 30:1 50:1 64:1 91:1 109:1 136:1 150:1 168:1 
-0.040000000000000000832667268468867 14:1 30:1 50:1 77:1 85:1 114:1 133:1 145:1 171:1 
-0.040000000000000000832667268468867 1:1 21:1 58:1 61:1 81:1 101:1 130:1 142:1 170:1 
0.040000000000000000832667268468867 18:1 30:1 54:1 79:1 81:1 116:1 130:1 141:1 178:1 
0.040000000000000000832667268468867 18:1 30:1 58:1 69:1 96:1 113:1 132:1 147:1 178:1 
0.040000000000000000832667268468867 10:1 31:1 48:1 68:1 93:1 110:1 128:1 152:1 178:1 
0.040000000000000000832667268468867 16:1 37:1 53:1 73:1 93:1 106:1 137:1 155:1 178:1 
0.040000000000000000832667268468867 13:1 30:1 49:1 74:1 87:1 105:1 134:1 148:1 178:1 
-0.040000000000000000832667268468867 8:1 35:1 43:1 68:1 94:1 101:1 132:1 156:1 178:1 
-0.040000000000000000832667268468867 18:1 30:1 53:1 80:1 81:1 110:1 128:1 149:1 166:1 
-0.040000000000000000832667268468867 16:1 30:1 56:1 68:1 95:1 103:1 139:1 143:1 174:1 
-0.040000000000000000832667268468867 10:1 28:1 47:1 65:1 94:1 106:1 125:1 145:1 178:1 
-0.040000000000000000832667268468867 9:1 29:1 52:1 73:1 89:1 110:1 128:1 152:1 161:1 
0.040000000000000000832667268468867 16:1 30:1 50:1 64:1 92:1 110:1 124:1 149:1 168:1 
0.040000000000000000832667268468867 11:1 30:1 50:1 61:1 98:1 110:1 140:1 142:1 170:1 
0.040000000000000000832667268468867 5:1 30:1 60:1 66:1 81:1 110:1 130:1 150:1 161:1 
0.040000000000000000832667268468867 5:1 30:1 50:1 79:1 81:1 117:1 121:1 144:1 161:1 
0.040000000000000000832667268468867 6:1 21:1 46:1 68:1 86:1 118:1 130:1 157:1 161:1 
-0.040000000000000000832667268468867 6:1 30:1 50:1 69:1 81:1 106:1 130:1 148:1 175:1 
-0.040000000000000000832667268468867 10:1 30:1 60:1 62:1 82:1 113:1 138:1 142:1 170:1 
-0.040000000000000000832667268468867 5:1 30:1 52:1 77:1 90:1 117:1 133:1 149:1 165:1 
-0.040000000000000000832667268468867 12:1 30:1 49:1 64:1 90:1 111:1 129:1 147:1 161:1 
-0.040000000000000000832667268468867 6:1 23:1 52:1 68:1 88:1 117:1 121:1 154:1 161:1 
0.040000000000000000832667268468867 1:1 28:1 58:1 63:1 89:1 118:1 133:1 156:1 178:1 
0.040000000000000000832667268468867 16:1 37:1 41:1 73:1 93:1 101:1 127:1 146:1 178:1 
0.040000000000000000832667268468867 16:1 38:1 45:1 61:1 86:1 118:1 138:1 146:1 178:1 
0.040000000000000000832667268468867 16:1 38:1 60:1 63:1 85:1 105:1 138:1 159:1 170:1 
0.040000000000000000832667268468867 10:1 30:1 41:1 64:1 95:1 103:1 130:1 160:1 170:1 
-0.040000000000000000832667268468867 10:1 26:1 57:1 63:1 84:1 110:1 135:1 150:1 170:1 
-0.040000000000000000832667268468867 9:1 21:1 46:1 72:1 85:1 120:1 138:1 153:1 161:1 
-0.040000000000000000832667268468867 16:1 37:1 57:1 61:1 96:1 115:1 126:1 144:1 170:1 
-0.040000000000000000832667268468867 15:1 37:1 42:1 62:1 86:1 118:1 130:1 157:1 161:1 
-0.040000000000000000832667268468867 12:1 40:1 53:1 63:1 84:1 105:1 137:1 149:1 170:1 
0.040000000000000000832667268468867 5:1 30:1 43:1 68:1 90:1 112:1 137:1 150:1 168:1 
0.040000000000000000832667268468867 10:1 30:1 51:1 63:1 82:1 116:1 126:1 156:1 168:1 
0.040000000000000000832667268468867 8:1 30:1 57:1 78:1 88:1 110:1 126:1 158:1 170:1 
0.040000000000000000832667268468867 1:1 21:1 46:1 68:1 86:1 108:1 128:1 154:1 168:1 
0.040000000000000000832667268468867 18:1 30:1 44:1 64:1 97:1 116:1 138:1 151:1 170:1 
-0.040000000000000000832667268468867 1:1 30:1 46:1 73:1 95:1 106:1 133:1 156:1 173:1 
-0.040000000000000000832667268468867 13:1 31:1 41:1 78:1 98:1 116:1 129:1 154:1 178:1 
-0.040000000000000000832667268468867 1:1 30:1 43:1 69:1 82:1 111:1 134:1 143:1 167:1 
-0.040000000000000000832667268468867 2:1 30:1 54:1 71:1 88:1 110:1 129:1 159:1 169:1 
-0.040000000000000000832667268468867 1:1 30:1 44:1 68:1 92:1 104:1 122:1 141:1 177:1 
0.040000000000000000832667268468867 6:1 28:1 50:1 66:1 85:1 118:1 125:1 157:1 170:1 
0.040000000000000000832667268468867 18:1 31:1 41:1 73:1 95:1 117:1 130:1 150:1 170:1 
0.040000000000000000832667268468867 13:1 30:1 43:1 66:1 84:1 120:1 125:1 157:1 170:1 
0.040000000000000000832667268468867 18:1 31:1 41:1 73:1 95:1 117:1 138:1 150:1 170:1 
0.026273624441731969342272989820231 20:1 30:1 56:1 66:1 81:1 112:1 130:1 152:1 170:1 
-0.040000000000000000832667268468867 6:1 38:1 48:1 69:1 97:1 118:1 140:1 152:1 170:1 
-0.040000000000000000832667268468867 11:1 33:1 50:1 75:1 88:1 107:1 138:1 150:1 170:1 
-0.040000000000000000832667268468867 17:1 36:1 53:1 66:1 81:1 110:1 139:1 146:1 170:1 
-0.035664955811290574572147704657255 14:1 24:1 54:1 70:1 89:1 109:1 138:1 148:1 170:1 
-0.040000000000000000832667268468867 5:1 31:1 42:1 67:1 86:1 116:1 130:1 150:1 163:1 
0.040000000000000000832667268468867 19:1 30:1 56:1 70:1 90:1 118:1 133:1 145:1 178:1 
0.040000000000000000832667268468867 10:1 30:1 46:1 61:1 97:1 102:1 131:1 145:1 178:1 
0.033058589498392181027508485158251 15:1 30:1 51:1 69:1 94:1 103:1 125:1 156:1 178:1 
0.0086584023103953959565881604021342 11:1 30:1 46:1 77:1 87:1 117:1 131:1 144:1 178:1 
0.040000000000000000832667268468867 20:1 30:1 58:1 77:1 95:1 107:1 121:1 143:1 178:1 
-0.026707354340593934122205510561798 4:1 30:1 58:1 75:1 95:1 103:1 133:1 158:1 176:1 
-0.040000000000000000832667268468867 10:1 36:1 58:1 73:1 83:1 106:1 125:1 149:1 178:1 
-0.040000000000000000832667268468867 13:1 30:1 56:1 78:1 100:1 101:1 133:1 141:1 176:1 
-0.040000000000000000832667268468867 8:1 30:1 42:1 62:1 99:1 118:1 130:1 153:1 164:1 
-0.040000000000000000832667268468867 10:1 33:1 41:1 66:1 84:1 101:1 133:1 143:1 178:1 
-0.040000000000000000832667268468867 18:1 30:1 50:1 76:1 83:1 116:1 132:1 150:1 167:1 
-0.040000000000000000832667268468867 6:1 34:1 50:1 76:1 89:1 118:1 131:1 148:1 168:1 
-0.040000000000000000832667268468867 16:1 30:1 56:1 70:1 81:1 114:1 133:1 150:1 175:1 
-0.039265910256818969958914067319711 16:1 38:1 56:1 77:1 93:1 109:1 127:1 150:1 167:1 
-0.040000000000000000832667268468867 14:1 23:1 41:1 72:1 98:1 102:1 130:1 145:1 178:1 
0.040000000000000000832667268468867 16:1 28:1 57:1 64:1 98:1 104:1 122:1 145:1 170:1 
0.040000000000000000832667268468867 14:1 21:1 46:1 68:1 86:1 108:1 130:1 150:1 161:1 
0.040000000000000000832667268468867 6:1 28:1 46:1 68:1 86:1 118:1 130:1 141:1 161:1 
0.040000000000000000832667268468867 9:1 37:1 59:1 66:1 94:1 120:1 139:1 154:1 178:1 
0.040000000000000000832667268468867 9:1 38:1 41:1 64:1 90:1 118:1 127:1 145:1 170:1 
-0.040000000000000000832667268468867 6:1 33:1 46:1 72:1 94:1 116:1 128:1 144:1 170:1 
-0.040000000000000000832667268468867 1:1 28:1 46:1 65:1 90:1 108:1 140:1 145:1 176:1 
-0.040000000000000000832667268468867 20:1 21:1 49:1 75:1 86:1 117:1 121:1 146:1 162:1 
-0.040000000000000000832667268468867 4:1 37:1 43:1 64:1 98:1 104:1 124:1 145:1 170:1 
-0.025494867532725437597740381079348 1:1 37:1 46:1 80:1 100:1 120:1 123:1 153:1 170:1 
0.040000000000000000832667268468867 15:1 30:1 41:1 76:1 100:1 110:1 123:1 149:1 178:1 
0.040000000000000000832667268468867 1:1 30:1 42:1 75:1 99:1 106:1 130:1 150:1 170:1 
0.025524363173482562949789809181311 18:1 30:1 50:1 62:1 84:1 116:1 137:1 141:1 178:1 
0.040000000000000000832667268468867 18:1 30:1 47:1 63:1 83:1 110:1 130:1 144:1 161:1 
0.040000000000000000832667268468867 6:1 30:1 47:1 62:1 100:1 104:1 134:1 150:1 178:1 
-0.040000000000000000832667268468867 10:1 22:1 41:1 61:1 81:1 110:1 135:1 154:1 178:1 
-0.040000000000000000832667268468867 4:1 30:1 46:1 69:1 85:1 110:1 135:1 156:1 174:1 
-0.040000000000000000832667268468867 7:1 36:1 47:1 61:1 86:1 104:1 130:1 144:1 161:1 
0.040000000000000000832667268468867 20:1 38:1 43:1 73:1 98:1 108:1 137:1 156:1 168:1 
0.040000000000000000832667268468867 8:1 28:1 56:1 61:1 98:1 118:1 126:1 148:1 170:1 
0.040000000000000000832667268468867 17:1 28:1 50:1 70:1 86:1 108:1 125:1 145:1 170:1 
0.040000000000000000832667268468867 8:1 31:1 55:1 61:1 86:1 111:1 136:1 156:1 170:1 
0.040000000000000000832667268468867 5:1 28:1 43:1 76:1 100:1 108:1 122:1 154:1 178:1 
-0.040000000000000000832667268468867 17:1 25:1 44:1 61:1 97:1 110:1 134:1 154:1 170:1 
-0.035699623332945712439467911281099 18:1 35:1 47:1 74:1 94:1 110:1 136:1 143:1 170:1 
-0.040000000000000000832667268468867 20:1 32:1 56:1 70:1 82:1 113:1 126:1 157:1 170:1 
-0.040000000000000000832667268468867 9:1 28:1 50:1 61:1 98:1 112:1 136:1 158:1 166:1 
0.040000000000000000832667268468867 15:1 38:1 41:1 73:1 84:1 104:1 127:1 153:1 178:1 
0.040000000000000000832667268468867 7:1 30:1 46:1 72:1 98:1 109:1 140:1 150:1 178:1 
0.040000000000000000832667268468867 16:1 30:1 59:1 66:1 94:1 113:1 121:1 144:1 161:1 
0.040000000000000000832667268468867 10:1 30:1 46:1 73:1 95:1 110:1 138:1 150:1 161:1 
0.040000000000000000832667268468867 10:1 31:1 43:1 67:1 97:1 108:1 133:1 144:1 178:1 
-0.040000000000000000832667268468867 15:1 38:1 56:1 69:1 95:1 114:1 136:1 153:1 178:1 
-0.040000000000000000832667268468867 6:1 30:1 47:1 73:1 83:1 114:1 129:1 144:1 180:1 
-0.040000000000000000832667268468867 9:1 30:1 55:1 74:1 84:1 115:1 129:1 155:1 173:1 
0.040000000000000000832667268468867 6:1 21:1 46:1 68:1 86:1 118:1 121:1 158:1 170:1 
0.040000000000000000832667268468867 8:1 21:1 51:1 61:1 97:1 118:1 137:1 141:1 170:1 
0.01020149512600190128130961397801 20:1 30:1 50:1 64:1 91:1 110:1 139:1 155:1 170:1 
-0.040000000000000000832667268468867 13:1 28:1 58:1 70:1 97:1 118:1 121:1 149:1 162:1 
-0.016886550334821982810584728440517 18:1 22:1 57:1 72:1 93:1 118:1 123:1 155:1 169:1 
-0.040000000000000000832667268468867 1:1 38:1 43:1 63:1 96:1 118:1 121:1 149:1 177:1 
-0.040000000000000000832667268468867 16:1 31:1 51:1 73:1 83:1 111:1 132:1 158:1 177:1 
0.040000000000000000832667268468867 2:1 28:1 52:1 66:1 98:1 102:1 139:1 157:1 178:1 
0.040000000000000000832667268468867 18:1 30:1 48:1 73:1 89:1 110:1 133:1 154:1 170:1 
0.040000000000000000832667268468867 9:1 38:1 50:1 64:1 100:1 118:1 128:1 149:1 178:1 
0.040000000000000000832667268468867 20:1 30:1 43:1 73:1 81:1 114:1 134:1 152:1 170:1 
0.040000000000000000832667268468867 9:1 30:1 56:1 64:1 88:1 103:1 138:1 141:1 170:1 
-0.040000000000000000832667268468867 6:1 29:1 42:1 73:1 100:1 103:1 133:1 149:1 170:1 
-0.040000000000000000832667268468867 10:1 40:1 50:1 76:1 94:1 110:1 128:1 148:1 170:1 
-0.040000000000000000832667268468867 14:1 30:1 46:1 80:1 90:1 106:1 140:1 156:1 176:1 
-0.040000000000000000832667268468867 8:1 33:1 48:1 67:1 89:1 103:1 123:1 150:1 170:1 
0.040000000000000000832667268468867 16:1 31:1 58:1 66:1 92:1 119:1 121:1 149:1 178:1 
0.040000000000000000832667268468867 10:1 31:1 59:1 61:1 89:1 108:1 126:1 153:1 178:1 
0.040000000000000000832667268468867 16:1 38:1 41:1 76:1 97:1 108:1 137:1 146:1 178:1 
0.040000000000000000832667268468867 20:1 31:1 52:1 66:1 97:1 111:1 136:1 154:1 178:1 
-0.040000000000000000832667268468867 3:1 21:1 53:1 62:1 93:1 109:1 123:1 142:1 178:1 
-0.040000000000000000832667268468867 5:1 38:1 52:1 64:1 98:1 103:1 138:1 155:1 164:1 
-0.037248808805087497975083721257761 4:1 26:1 50:1 72:1 95:1 106:1 133:1 160:1 178:1 
-0.022161864980729587687457993183671 16:1 31:1 46:1 74:1 94:1 109:1 133:1 157:1 161:1 
0.040000000000000000832667268468867 1:1 30:1 45:1 63:1 86:1 103:1 133:1 147:1 170:1 
0.040000000000000000832667268468867 8:1 30:1 41:1 69:1 85:1 110:1 127:1 159:1 170:1 
0.040000000000000000832667268468867 18:1 31:1 50:1 63:1 98:1 113:1 128:1 155:1 170:1 
0.027077195163111241610343071783973 6:1 30:1 56:1 64:1 85:1 117:1 124:1 160:1 170:1 
-0.040000000000000000832667268468867 13:1 30:1 55:1 64:1 88:1 113:1 136:1 146:1 177:1 
-0.040000000000000000832667268468867 15:1 27:1 52:1 70:1 89:1 120:1 140:1 158:1 170:1 
-0.040000000000000000832667268468867 11:1 23:1 46:1 76:1 87:1 116:1 121:1 141:1 170:1 
-0.040000000000000000832667268468867 4:1 30:1 41:1 76:1 97:1 116:1 135:1 145:1 164:1 
-0.040000000000000000832667268468867 10:1 35:1 43:1 71:1 84:1 101:1 132:1 150:1 170:1 
0.040000000000000000832667268468867 8:1 21:1 46:1 68:1 86:1 108:1 130:1 141:1 168:1 
0.040000000000000000832667268468867 20:1 30:1 44:1 73:1 86:1 113:1 138:1 157:1 161:1 
0.040000000000000000832667268468867 17:1 30:1 43:1 76:1 94:1 118:1 131:1 156:1 170:1 
0.040000000000000000832667268468867 16:1 30:1 50:1 74:1 87:1 110:1 128:1 146:1 170:1 
0.023698729959919392212830402399959 16:1 30:1 50:1 63:1 84:1 105:1 140:1 149:1 170:1 
0.040000000000000000832667268468867 6:1 30:1 48:1 64:1 89:1 112:1 128:1 144:1 170:1 
-0.040000000000000000832667268468867 12:1 38:1 50:1 75:1 86:1 111:1 126:1 146:1 161:1 
-0.040000000000000000832667268468867 5:1 30:1 49:1 76:1 81:1 115:1 130:1 154:1 175:1 
-0.018764395523915112368174007428934 16:1 26:1 41:1 69:1 87:1 118:1 130:1 143:1 161:1 
-0.0082424601155825418657974168468172 15:1 21:1 49:1 66:1 81:1 114:1 126:1 141:1 161:1 
-0.040000000000000000832667268468867 16:1 26:1 44:1 69:1 98:1 110:1 124:1 157:1 170:1 
-0.040000000000000000832667268468867 14:1 28:1 48:1 61:1 94:1 106:1 124:1 154:1 170:1 
0.040000000000000000832667268468867 17:1 30:1 50:1 73:1 90:1 115:1 138:1 145:1 170:1 
0.040000000000000000832667268468867 8:1 28:1 51:1 73:1 87:1 112:1 128:1 160:1 170:1 
0.038100575478930524819798364433154 20:1 30:1 48:1 73:1 90:1 110:1 124:1 155:1 170:1 
0.040000000000000000832667268468867 5:1 30:1 59:1 66:1 93:1 115:1 121:1 160:1 161:1 
0.040000000000000000832667268468867 6:1 30:1 53:1 78:1 84:1 120:1 130:1 154:1 178:1 
0.040000000000000000832667268468867 1:1 38:1 46:1 68:1 86:1 108:1 121:1 158:1 178:1 
0.013822380617376417780151065528571 8:1 31:1 48:1 66:1 98:1 110:1 138:1 146:1 178:1 
-0.036305289569356948009559715728756 10:1 22:1 43:1 68:1 82:1 111:1 122:1 156:1 168:1 
-0.040000000000000000832667268468867 15:1 29:1 44:1 70:1 86:1 109:1 130:1 153:1 170:1 
0.025305708528680779384467669501646 8:1 30:1 47:1 72:1 86:1 101:1 140:1 156:1 170:1 
-0.027910214389096396625511431466293 6:1 37:1 48:1 68:1 91:1 116:1 124:1 152:1 170:1 
-0.040000000000000000832667268468867 1:1 30:1 50:1 76:1 96:1 120:1 136:1 148:1 167:1 
-0.026271433000556933257119140989744 16:1 32:1 51:1 78:1 86:1 110:1 136:1 160:1 173:1 
0.040000000000000000832667268468867 15:1 30:1 43:1 76:1 100:1 118:1 135:1 156:1 170:1 
0.035162789622381188103794613653008 15:1 30:1 57:1 75:1 85:1 110:1 136:1 155:1 178:1 
0.040000000000000000832667268468867 20:1 31:1 43:1 66:1 97:1 111:1 136:1 154:1 178:1 
-0.022063618140309205345461762703962 9:1 37:1 43:1 64:1 87:1 113:1 121:1 155:1 180:1 
-0.035270687201774904295792367747708 2:1 37:1 53:1 80:1 82:1 118:1 139:1 158:1 170:1 
-0.024311020189572075944628437582651 4:1 24:1 53:1 68:1 100:1 108:1 138:1 157:1 164:1 
-0.030636526374522007887257757374755 4:1 29:1 43:1 66:1 90:1 110:1 129:1 149:1 170:1 
-0.030463257772825384078752009031632 17:1 34:1 54:1 68:1 88:1 108:1 134:1 154:1 173:1 
0.040000000000000000832667268468867 19:1 30:1 52:1 64:1 98:1 104:1 125:1 149:1 170:1 
0.040000000000000000832667268468867 5:1 30:1 50:1 77:1 95:1 108:1 130:1 157:1 168:1 
0.021502875631320233357213211888848 10:1 30:1 50:1 70:1 96:1 108:1 138:1 148:1 170:1 
0.040000000000000000832667268468867 6:1 30:1 41:1 63:1 97:1 118:1 138:1 141:1 162:1 
-0.017641003506649616944246261596163 18:1 36:1 58:1 66:1 93:1 104:1 126:1 141:1 166:1 
-0.030020063912808495065753788821894 14:1 30:1 50:1 76:1 93:1 106:1 132:1 153:1 174:1 
-0.017395806130218217921967749362011 18:1 38:1 49:1 71:1 85:1 110:1 138:1 157:1 165:1 
-0.014512668206807769963329057816281 10:1 30:1 41:1 69:1 90:1 114:1 136:1 159:1 164:1 
-0.00522659515981603942091915371293 17:1 29:1 43:1 62:1 86:1 105:1 130:1 156:1 174:1 
0.019956367962252721109939201937777 9:1 21:1 56:1 64:1 89:1 108:1 125:1 160:1 178:1 
0.011048662376272638807606085720181 15:1 30:1 50:1 74:1 84:1 117:1 124:1 150:1 178:1 
0.01836672832095454302447912198204 5:1 28:1 59:1 64:1 92:1 108:1 127:1 157:1 170:1 
0.02576262952273213752141245436178 16:1 30:1 50:1 70:1 84:1 110:1 124:1 144:1 178:1 
-0.013975889044901082872152109359831 17:1 22:1 59:1 63:1 86:1 109:1 130:1 144:1 180:1 
-0.011669519286191188528478690500378 6:1 25:1 48:1 63:1 86:1 103:1 130:1 148:1 164:1 
-0.0043517725650238500353927939556797 8:1 34:1 50:1 66:1 90:1 114:1 122:1 141:1 166:1 
-0.0093194323894473761471513029164271 13:1 28:1 54:1 73:1 88:1 103:1 133:1 141:1 161:1 
-0.0065729810064394629878781195486681 18:1 23:1 50:1 73:1 85:1 116:1 126:1 160:1 175:1 
-0.015563836135818397490848674635799 20:1 26:1 58:1 78:1 95:1 110:1 121:1 160:1 172:1 
-0.0072428591557215380239420632335623 17:1 27:1 54:1 73:1 98:1 101:1 128:1 147:1 173:1 
0.015931496404694111407307488548213 16:1 30:1 48:1 66:1 87:1 110:1 134:1 157:1 170:1 
0.022336447362118296011690432578689 15:1 30:1 50:1 63:1 98:1 110:1 121:1 153:1 170:1 
0.010735395788931357749507178311887 7:1 30:1 56:1 77:1 81:1 105:1 121:1 155:1 178:1 
-0.006283539551561807823265581873784 13:1 35:1 43:1 63:1 86:1 117:1 136:1 155:1 169:1 
-0.00096016910105250965080242453453252 17:1 32:1 56:1 78:1 81:1 117:1 138:1 144:1 168:1 
0.0054838882767242825080900026080144 1:1 21:1 46:1 68:1 86:1 108:1 130:1 157:1 178:1 
0.005815048734146171550973836161802 6:1 30:1 60:1 63:1 86:1 111:1 124:1 147:1 170:1 
-0.0036495045252267345296803835452693 13:1 36:1 43:1 77:1 81:1 110:1 130:1 152:1 170:1 
0.0051748911778636795533170555927427 6:1 30:1 43:1 78:1 90:1 117:1 121:1 149:1 178:1 
-0.002748422303650740767394511365751 6:1 39:1 56:1 63:1 90:1 113:1 128:1 142:1 180:1 
0.0015669918561865192521004308545685 9:1 30:1 57:1 73:1 90:1 102:1 138:1 157:1 170:1 
0.00088274922882522596691984295702582 15:1 30:1 50:1 63:1 100:1 118:1 138:1 152:1 168:1 
