SVM-light Version V6.02
0 # kernel type
3 # kernel parameter -d 
0.54 # kernel parameter -g 
1 # kernel parameter -s 
1 # kernel parameter -r 
empty # kernel parameter -u 
180 # highest feature index 
90 # number of training documents 
62 # number of support vectors plus 1 
0.82016395 # threshold b 
-0.23999999999999999111821580299875 16:1 22:1 45:1 74:1 85:1 110:1 129:1 145:1 169:1 
-0.049997085135200770855679053283893 14:1 37:1 58:1 64:1 84:1 104:1 121:1 150:1 168:1 
-0.090266019058980698219762928147247 16:1 28:1 60:1 70:1 96:1 106:1 138:1 156:1 164:1 
-0.078678322388223587147138005093439 4:1 21:1 41:1 68:1 89:1 116:1 130:1 154:1 166:1 
-0.04828489425012651853341694163646 4:1 23:1 44:1 65:1 97:1 109:1 132:1 146:1 168:1 
0.077547295141149275021774656124762 6:1 38:1 45:1 66:1 85:1 113:1 130:1 146:1 175:1 
0.030742594295327829723163404196384 6:1 37:1 51:1 77:1 86:1 111:1 130:1 160:1 169:1 
0.1017634233513029645701308822936 16:1 36:1 50:1 73:1 97:1 114:1 130:1 145:1 169:1 
0.003226832064969285818190058989785 1:1 38:1 41:1 61:1 98:1 101:1 121:1 155:1 175:1 
-0.013828107390011709632027248062514 6:1 30:1 46:1 61:1 90:1 116:1 126:1 156:1 173:1 
-0.096354438887966131765949739929056 13:1 25:1 53:1 61:1 86:1 113:1 130:1 141:1 178:1 
-0.052165204477789411940946706636169 6:1 28:1 50:1 66:1 90:1 101:1 140:1 153:1 176:1 
-0.17129914291410022753048281174415 1:1 36:1 54:1 61:1 86:1 103:1 136:1 146:1 172:1 
-0.095504981637612840206230657713604 10:1 37:1 50:1 71:1 91:1 113:1 140:1 160:1 170:1 
-0.14831342896590632429720812979212 17:1 33:1 56:1 63:1 98:1 111:1 139:1 152:1 177:1 
0.060077560921746694932998877902719 6:1 37:1 60:1 78:1 96:1 116:1 138:1 153:1 175:1 
0.16654295504484192824712351921335 8:1 38:1 57:1 63:1 85:1 116:1 138:1 148:1 169:1 
0.23999999999999999111821580299875 17:1 30:1 60:1 62:1 98:1 107:1 134:1 155:1 168:1 
0.09998214181424790181207384875961 15:1 37:1 54:1 72:1 98:1 110:1 126:1 144:1 169:1 
0.1645326369460708704206552965843 1:1 30:1 52:1 65:1 93:1 106:1 136:1 154:1 169:1 
-0.23999999999999999111821580299875 3:1 30:1 57:1 74:1 90:1 116:1 130:1 150:1 169:1 
-0.11606474312289531691799737700421 17:1 38:1 54:1 70:1 94:1 112:1 126:1 144:1 168:1 
-0.052056583874321417371167086685091 18:1 24:1 46:1 65:1 93:1 104:1 135:1 155:1 164:1 
-0.10285616309239402343944647100216 7:1 30:1 53:1 73:1 92:1 117:1 127:1 142:1 179:1 
-0.051482858384820084918231941628619 11:1 37:1 51:1 76:1 90:1 116:1 125:1 148:1 168:1 
0.16657070385583766514159265170747 1:1 36:1 45:1 63:1 89:1 101:1 129:1 150:1 169:1 
0.23808693884674547724955573357875 16:1 37:1 41:1 73:1 93:1 101:1 127:1 146:1 178:1 
0.20066942535508588973947041722568 15:1 25:1 49:1 71:1 85:1 113:1 124:1 158:1 169:1 
0.14664269705422378065051702833443 16:1 37:1 41:1 61:1 85:1 105:1 130:1 150:1 175:1 
0.22704808309685448053372169852082 6:1 36:1 53:1 61:1 97:1 119:1 137:1 157:1 175:1 
-0.14274081243824351949989193144575 8:1 25:1 48:1 80:1 85:1 101:1 121:1 150:1 176:1 
-0.052868453800661845132236038580231 10:1 36:1 60:1 78:1 88:1 106:1 137:1 156:1 176:1 
-0.072757440828685765454864053936035 10:1 35:1 52:1 71:1 85:1 106:1 124:1 157:1 170:1 
-0.14964788816522625602978280312527 16:1 27:1 53:1 66:1 97:1 107:1 129:1 158:1 180:1 
0.064938820354175225135762161698949 16:1 38:1 50:1 72:1 90:1 118:1 128:1 158:1 169:1 
0.092412144337643567504336772344686 6:1 33:1 48:1 76:1 86:1 107:1 138:1 150:1 169:1 
0.091680053633357641573731200423936 16:1 30:1 51:1 67:1 96:1 105:1 128:1 150:1 169:1 
0.073121153759079321465819134573394 6:1 34:1 60:1 66:1 92:1 113:1 130:1 152:1 169:1 
-0.051594960800769584796654498859425 1:1 26:1 41:1 64:1 95:1 104:1 125:1 155:1 166:1 
-0.040709682359149297614653306709442 15:1 30:1 60:1 66:1 91:1 120:1 133:1 142:1 172:1 
0.094034282372309388464692858633498 1:1 38:1 54:1 75:1 97:1 110:1 130:1 144:1 169:1 
0.086949756162048585927948352036765 20:1 38:1 52:1 78:1 92:1 111:1 126:1 150:1 169:1 
-0.076550054814114559809112847688084 16:1 24:1 54:1 76:1 97:1 105:1 136:1 148:1 173:1 
-0.067411788718869797287780443184602 16:1 31:1 49:1 64:1 92:1 110:1 124:1 157:1 165:1 
-0.024953327807386307957138171786937 1:1 23:1 55:1 78:1 89:1 109:1 126:1 145:1 163:1 
-0.040629716986636719988634780520442 13:1 23:1 46:1 77:1 100:1 101:1 137:1 157:1 163:1 
-0.034820054561223078015697041109888 7:1 29:1 41:1 78:1 94:1 106:1 122:1 146:1 161:1 
-0.02202908866235825033341733103498 4:1 35:1 45:1 72:1 92:1 104:1 134:1 155:1 170:1 
-0.025218498744346534712335028416419 13:1 30:1 53:1 73:1 89:1 113:1 133:1 145:1 173:1 
-0.018554784236411683145950846096639 15:1 24:1 46:1 61:1 95:1 110:1 126:1 148:1 174:1 
-0.019021295658065585226781379901695 3:1 25:1 57:1 78:1 98:1 105:1 123:1 157:1 166:1 
-0.011022984095020969819156420044237 9:1 24:1 50:1 64:1 89:1 110:1 130:1 143:1 178:1 
0.024277650503907947932002997504242 1:1 31:1 50:1 63:1 97:1 118:1 138:1 145:1 169:1 
0.017520540205940075134671829459876 9:1 38:1 58:1 72:1 93:1 110:1 125:1 144:1 169:1 
0.03174283403488628585442654639337 16:1 38:1 56:1 73:1 98:1 118:1 127:1 158:1 175:1 
-0.015853705222333452917737872667203 17:1 36:1 44:1 71:1 88:1 104:1 132:1 148:1 174:1 
0.0024397251638637999261727262734212 6:1 38:1 51:1 73:1 96:1 107:1 125:1 156:1 175:1 
0.012307289326281485239422686106536 1:1 37:1 48:1 66:1 97:1 101:1 131:1 160:1 169:1 
-0.0056195695639553984793157503929706 1:1 26:1 55:1 77:1 86:1 115:1 133:1 144:1 164:1 
0.0071572038258936017743327973050782 6:1 36:1 56:1 63:1 98:1 108:1 128:1 147:1 175:1 
-0.0028586604239834063900804750346651 10:1 37:1 56:1 61:1 86:1 112:1 135:1 157:1 167:1 
