SVM-light Version V6.02
0 # kernel type
3 # kernel parameter -d 
0.38 # kernel parameter -g 
1 # kernel parameter -s 
1 # kernel parameter -r 
empty # kernel parameter -u 
200 # highest feature index 
45 # number of training documents 
39 # number of support vectors plus 1 
0.66521208 # threshold b 
-0.035722838046191252026062556979014 15:1 31:1 50:1 76:1 84:1 110:1 133:1 141:1 170:1 186:1 
-0.16469386244181755118987098285288 8:1 37:1 56:1 77:1 89:1 113:1 129:1 155:1 177:1 184:1 
-0.17762335483763364019083041966951 1:1 38:1 60:1 62:1 87:1 116:1 138:1 144:1 170:1 195:1 
0.021234126919242687914213263411511 16:1 37:1 45:1 74:1 94:1 111:1 139:1 148:1 176:1 189:1 
-0.0077215467429758355075164466541082 13:1 25:1 52:1 70:1 81:1 104:1 121:1 154:1 175:1 194:1 
0.06203951034263231051335552024284 1:1 21:1 51:1 70:1 83:1 117:1 138:1 158:1 165:1 189:1 
0.031307586814097482230678792802792 16:1 36:1 42:1 76:1 96:1 102:1 133:1 150:1 176:1 189:1 
0.046826494458216377791970330690674 1:1 37:1 46:1 76:1 99:1 103:1 136:1 145:1 170:1 189:1 
0.033880308480515139435418348057283 16:1 21:1 45:1 70:1 90:1 110:1 126:1 150:1 165:1 189:1 
0.095610341871817577930059428581444 14:1 38:1 53:1 70:1 95:1 113:1 131:1 157:1 180:1 189:1 
-0.030931155374459447932045108586863 18:1 35:1 41:1 71:1 83:1 117:1 123:1 157:1 170:1 197:1 
-0.023283184352644419046196588851672 14:1 28:1 47:1 67:1 96:1 110:1 135:1 153:1 166:1 185:1 
-0.070019261531719709235055404406012 18:1 38:1 48:1 72:1 98:1 113:1 128:1 145:1 169:1 183:1 
-0.045561332368701752681960925883686 6:1 36:1 56:1 78:1 83:1 101:1 121:1 158:1 161:1 181:1 
-0.065996918809943821981889300332114 16:1 29:1 49:1 67:1 89:1 114:1 126:1 145:1 170:1 192:1 
0.23999999999999999111821580299875 16:1 37:1 60:1 80:1 86:1 116:1 125:1 158:1 177:1 195:1 
0.23999999999999999111821580299875 8:1 40:1 54:1 64:1 93:1 105:1 129:1 152:1 170:1 189:1 
0.08168628321102246181428796489854 1:1 36:1 45:1 63:1 89:1 101:1 129:1 150:1 169:1 189:1 
0.11597906693805752620374249772794 1:1 38:1 50:1 80:1 94:1 113:1 130:1 145:1 163:1 189:1 
-0.018116716151193097694704903233287 9:1 26:1 50:1 79:1 97:1 110:1 135:1 141:1 165:1 186:1 
-0.089982619455460849389183408675308 11:1 37:1 58:1 70:1 93:1 116:1 124:1 148:1 163:1 198:1 
-0.085235095971659624591865167531068 6:1 24:1 50:1 80:1 93:1 113:1 130:1 148:1 172:1 190:1 
-0.11222944981498700345312613535498 8:1 25:1 59:1 64:1 93:1 105:1 121:1 152:1 178:1 197:1 
-0.029397931819363634642350291414914 17:1 34:1 58:1 75:1 90:1 101:1 129:1 149:1 172:1 185:1 
-0.047289928513990026059943261316221 9:1 28:1 54:1 69:1 100:1 109:1 134:1 156:1 178:1 194:1 
0.12336971017229619862476397429418 1:1 37:1 53:1 77:1 96:1 113:1 128:1 155:1 178:1 189:1 
-0.01773121385109760472786888385599 10:1 30:1 50:1 76:1 98:1 118:1 121:1 150:1 165:1 198:1 
-0.04374816298095525468614397368583 10:1 28:1 57:1 67:1 96:1 115:1 129:1 147:1 177:1 186:1 
-0.019066789940192584162925726332105 14:1 32:1 55:1 65:1 84:1 116:1 130:1 144:1 164:1 182:1 
0.030089344080017114968494951199318 6:1 37:1 50:1 76:1 86:1 119:1 128:1 150:1 176:1 189:1 
0.033130970079222957225262291558465 1:1 38:1 45:1 63:1 95:1 109:1 136:1 143:1 161:1 189:1 
-0.020491702725008959645736084098644 3:1 33:1 43:1 72:1 98:1 114:1 136:1 152:1 167:1 190:1 
-0.017293677310046752515493295732085 12:1 30:1 41:1 78:1 81:1 110:1 132:1 155:1 176:1 200:1 
-0.020841120254197955524722019049477 17:1 30:1 54:1 78:1 98:1 118:1 134:1 146:1 174:1 193:1 
-0.0029785557200284413018054330279938 7:1 30:1 58:1 64:1 98:1 118:1 133:1 152:1 166:1 184:1 
-0.0044400578247583925156627415731236 15:1 38:1 50:1 78:1 97:1 109:1 131:1 155:1 164:1 197:1 
-0.0038578048534165798599815389025025 6:1 30:1 53:1 77:1 93:1 117:1 121:1 156:1 161:1 194:1 
-0.00089946167469371544715694977156772 17:1 23:1 55:1 75:1 98:1 110:1 130:1 151:1 165:1 190:1 
