SVM-light Version V6.02
2 # kernel type
3 # kernel parameter -d 
0.041 # kernel parameter -g 
1 # kernel parameter -s 
1 # kernel parameter -r 
empty # kernel parameter -u 
180 # highest feature index 
84 # number of training documents 
72 # number of support vectors plus 1 
0.55725896 # threshold b 
-0.26765443728857096772344448254444 3:1 24:1 50:1 70:1 96:1 109:1 134:1 148:1 166:1 
-0.49990490178890856221016747440444 16:1 25:1 43:1 69:1 90:1 109:1 130:1 157:1 172:1 
0.68252079189957637339603024884127 1:1 40:1 48:1 63:1 85:1 104:1 131:1 149:1 168:1 
-0.26016013842519469800862452757428 18:1 25:1 50:1 75:1 98:1 110:1 123:1 143:1 164:1 
-0.30139423700985856768852499953937 7:1 33:1 45:1 70:1 81:1 101:1 127:1 146:1 173:1 
1.3865465200160664860362658146187 9:1 40:1 57:1 76:1 85:1 113:1 139:1 150:1 170:1 
2.7081690114379024514335014828248 3:1 25:1 51:1 68:1 94:1 106:1 126:1 143:1 165:1 
1.5428307172344450926004810753511 17:1 40:1 50:1 73:1 97:1 112:1 121:1 156:1 170:1 
0.36292448800444909728923903458053 1:1 40:1 56:1 74:1 94:1 117:1 135:1 146:1 170:1 
2.7241562200349291877898849634221 17:1 25:1 43:1 80:1 90:1 115:1 136:1 158:1 170:1 
-1.1986662339533640242450474033831 3:1 38:1 58:1 78:1 90:1 104:1 123:1 153:1 170:1 
-2.7524349138826935678991958411643 12:1 40:1 54:1 71:1 91:1 113:1 140:1 151:1 174:1 
-2.2623117562132164515276144811651 17:1 25:1 57:1 76:1 81:1 106:1 130:1 143:1 173:1 
1.617574969597439960011797666084 15:1 39:1 53:1 76:1 82:1 114:1 129:1 149:1 165:1 
4.0499943421764124096284831466619 9:1 25:1 47:1 75:1 98:1 108:1 129:1 143:1 165:1 
0.15278963835002701276977177258232 17:1 40:1 46:1 64:1 88:1 105:1 124:1 149:1 165:1 
-0.1703323611733382758615107377409 17:1 36:1 46:1 76:1 88:1 117:1 122:1 146:1 169:1 
-0.23011026577242096879949428966938 9:1 35:1 44:1 64:1 86:1 114:1 124:1 156:1 175:1 
-0.64446588237185364889114680408966 5:1 29:1 43:1 66:1 89:1 112:1 129:1 157:1 163:1 
1.9017752447657372272260545287281 7:1 40:1 57:1 72:1 81:1 116:1 123:1 146:1 170:1 
2.7304140514347223778202078392496 3:1 40:1 50:1 74:1 100:1 118:1 130:1 154:1 168:1 
2.4813763522805567518503266910557 4:1 40:1 50:1 78:1 96:1 105:1 126:1 158:1 179:1 
-1.3619347722462105121365993909421 18:1 38:1 50:1 74:1 86:1 105:1 123:1 154:1 170:1 
-3.3432174541240402554365118703572 3:1 25:1 50:1 79:1 96:1 111:1 123:1 143:1 170:1 
-1.3373612458755417264910647645593 16:1 26:1 42:1 78:1 98:1 108:1 138:1 151:1 170:1 
4.1481702370395705514738438068889 1:1 28:1 60:1 69:1 94:1 116:1 134:1 147:1 171:1 
2.9974013575404270248725424607983 14:1 25:1 54:1 76:1 88:1 120:1 121:1 149:1 165:1 
3.4391681400968789894534438644769 2:1 31:1 57:1 79:1 92:1 114:1 131:1 152:1 170:1 
-1.9744898018854872834282332405564 13:1 28:1 48:1 69:1 94:1 116:1 137:1 148:1 178:1 
-1.4101025514654965675731546070892 16:1 30:1 41:1 73:1 95:1 116:1 121:1 150:1 179:1 
-2.1261152967109273603796282259282 18:1 31:1 47:1 69:1 84:1 120:1 122:1 158:1 172:1 
2.2447753054659820293181837769225 18:1 40:1 41:1 70:1 93:1 110:1 129:1 151:1 170:1 
1.6314509106444847752470650448231 18:1 40:1 41:1 64:1 97:1 109:1 127:1 145:1 170:1 
-2.7402268077037006399621077434858 14:1 30:1 50:1 74:1 88:1 110:1 134:1 156:1 170:1 
-1.1755100951827757160828014093568 15:1 34:1 41:1 73:1 92:1 109:1 130:1 158:1 166:1 
-0.90597037459139295734189545328263 13:1 28:1 44:1 75:1 98:1 109:1 130:1 150:1 170:1 
1.4848529019279497198624540033052 3:1 40:1 56:1 61:1 95:1 119:1 132:1 144:1 168:1 
1.8604807270233574278961441450519 17:1 25:1 53:1 63:1 90:1 104:1 136:1 144:1 165:1 
1.2421882530973245017946737789316 18:1 40:1 46:1 65:1 98:1 115:1 121:1 142:1 170:1 
-2.6516781945840577350281819235533 1:1 25:1 46:1 76:1 98:1 106:1 129:1 144:1 169:1 
-1.7346951979324511938784780795686 9:1 23:1 46:1 75:1 90:1 114:1 128:1 146:1 163:1 
-1.418742049973876540036599180894 18:1 23:1 44:1 64:1 85:1 102:1 121:1 143:1 168:1 
0.88663823659848073344136309970054 10:1 40:1 41:1 79:1 84:1 113:1 136:1 145:1 170:1 
1.6830420689054284011376694252249 4:1 40:1 50:1 74:1 90:1 118:1 125:1 146:1 168:1 
-0.68283218742115447952301110490225 6:1 27:1 52:1 64:1 84:1 101:1 136:1 146:1 167:1 
-0.43153990066642977652122681320179 6:1 39:1 57:1 73:1 90:1 111:1 140:1 141:1 161:1 
-1.4300232642078078981739963637665 8:1 21:1 45:1 70:1 86:1 118:1 125:1 150:1 168:1 
0.83302376422539381461973562181811 14:1 40:1 43:1 73:1 98:1 101:1 121:1 150:1 165:1 
-1.276006765254127595099475911411 4:1 25:1 45:1 75:1 94:1 106:1 123:1 155:1 164:1 
-1.1638296181105574067515817660023 17:1 24:1 42:1 66:1 92:1 101:1 131:1 144:1 175:1 
-0.64128493354751825439308277054806 9:1 29:1 49:1 78:1 99:1 103:1 140:1 152:1 180:1 
0.92968388462538920080646676069591 18:1 40:1 56:1 63:1 81:1 103:1 128:1 145:1 170:1 
0.25615017029364028910976003317046 1:1 40:1 58:1 73:1 94:1 114:1 121:1 159:1 168:1 
-1.2619115188539229421849086065777 11:1 36:1 41:1 64:1 98:1 108:1 127:1 154:1 178:1 
-0.79428392472960407388882231316529 12:1 24:1 43:1 69:1 98:1 112:1 129:1 141:1 161:1 
-1.0051504159458246601133168951492 17:1 30:1 54:1 74:1 90:1 104:1 121:1 153:1 180:1 
-0.81499488701537414758746535881073 3:1 33:1 44:1 63:1 86:1 103:1 136:1 157:1 161:1 
-0.81285389866780288770087281591259 19:1 29:1 57:1 65:1 85:1 101:1 130:1 146:1 175:1 
-0.80249857443805439061179640702903 6:1 35:1 54:1 63:1 93:1 117:1 124:1 146:1 163:1 
-0.54872237317247685162158177263336 16:1 30:1 43:1 75:1 89:1 103:1 129:1 145:1 176:1 
-0.69279126396356327521885987152928 18:1 30:1 44:1 76:1 89:1 113:1 129:1 149:1 166:1 
-0.43745284381757221225939247233327 8:1 34:1 49:1 74:1 90:1 110:1 121:1 143:1 178:1 
-0.70125677851523504635622430214426 15:1 38:1 50:1 78:1 97:1 109:1 131:1 155:1 164:1 
-0.4041915369515966527380612660636 13:1 38:1 52:1 70:1 97:1 106:1 130:1 143:1 170:1 
-0.4142366227726951843912672757142 7:1 26:1 58:1 70:1 90:1 117:1 124:1 143:1 166:1 
-0.52010055097555307757062337259413 10:1 21:1 56:1 78:1 84:1 120:1 140:1 152:1 173:1 
-0.27807316355743594282756703250925 6:1 30:1 56:1 66:1 81:1 103:1 136:1 160:1 169:1 
-0.24016178944181038046323806156579 16:1 26:1 50:1 70:1 99:1 101:1 126:1 150:1 161:1 
-0.047032136508655474071982638406553 16:1 23:1 60:1 73:1 86:1 103:1 129:1 156:1 161:1 
0.21357581300830713599836485627748 1:1 40:1 43:1 65:1 90:1 120:1 132:1 160:1 170:1 
-0.022966199034725541527901526706046 10:1 27:1 58:1 78:1 90:1 110:1 138:1 157:1 166:1 
