SVM-light Version V6.02
2 # kernel type
3 # kernel parameter -d 
0.001 # kernel parameter -g 
1 # kernel parameter -s 
1 # kernel parameter -r 
empty # kernel parameter -u 
180 # highest feature index 
186 # number of training documents 
94 # number of support vectors plus 1 
0.98011718 # threshold b 
-43.312741467088265778784261783585 7:1 26:1 46:1 76:1 95:1 114:1 130:1 157:1 164:1 
34.811914674160163940541679039598 7:1 26:1 48:1 63:1 93:1 117:1 126:1 157:1 180:1 
47.171079296496024824136839015409 3:1 30:1 48:1 66:1 87:1 108:1 138:1 144:1 165:1 
-71.970577770110153892346716020256 9:1 25:1 49:1 76:1 85:1 106:1 136:1 141:1 174:1 
-2.7148888077529806928112066088943 13:1 22:1 53:1 66:1 83:1 102:1 140:1 150:1 169:1 
80 6:1 34:1 53:1 79:1 98:1 116:1 138:1 157:1 178:1 
36.705254386996763571460178354755 6:1 34:1 45:1 73:1 86:1 107:1 132:1 144:1 165:1 
20.328936571056367199616943253204 15:1 38:1 54:1 73:1 90:1 118:1 137:1 158:1 180:1 
2.3828534848587166194988640199881 8:1 38:1 41:1 63:1 87:1 118:1 121:1 156:1 180:1 
12.738546958825244459490022563841 20:1 38:1 60:1 64:1 100:1 113:1 136:1 155:1 180:1 
-80 8:1 34:1 53:1 76:1 98:1 116:1 128:1 144:1 161:1 
-77.643859839060780814179452136159 1:1 34:1 57:1 79:1 96:1 112:1 128:1 160:1 163:1 
-80 6:1 34:1 49:1 70:1 90:1 105:1 130:1 157:1 175:1 
80 16:1 25:1 52:1 62:1 86:1 106:1 124:1 145:1 165:1 
80 1:1 31:1 49:1 66:1 90:1 113:1 128:1 155:1 180:1 
80 10:1 24:1 49:1 61:1 95:1 106:1 136:1 157:1 180:1 
-80 6:1 24:1 60:1 66:1 86:1 103:1 136:1 143:1 180:1 
-80 10:1 35:1 41:1 65:1 86:1 115:1 134:1 153:1 180:1 
-80 16:1 25:1 49:1 75:1 86:1 103:1 138:1 148:1 180:1 
80 8:1 34:1 49:1 64:1 96:1 117:1 130:1 147:1 170:1 
80 6:1 34:1 46:1 66:1 96:1 113:1 137:1 141:1 171:1 
27.013547462826004164071491686627 1:1 34:1 53:1 66:1 85:1 105:1 123:1 155:1 165:1 
-67.400609051707291996535786893219 15:1 34:1 56:1 67:1 95:1 109:1 129:1 158:1 170:1 
-79.845024027309335679092328064144 6:1 30:1 49:1 73:1 87:1 113:1 132:1 152:1 166:1 
1.4292192206373299789845532359323 17:1 30:1 48:1 63:1 88:1 111:1 137:1 155:1 165:1 
64.314562648732305660814745351672 1:1 21:1 45:1 73:1 86:1 101:1 136:1 150:1 180:1 
80 9:1 28:1 49:1 76:1 85:1 118:1 129:1 158:1 180:1 
22.995854168362672709235994261689 16:1 38:1 49:1 69:1 83:1 110:1 128:1 156:1 180:1 
-57.530650265785304497967445058748 13:1 34:1 53:1 61:1 83:1 118:1 135:1 150:1 171:1 
-80 17:1 24:1 54:1 78:1 96:1 116:1 133:1 158:1 180:1 
-80 4:1 21:1 56:1 69:1 85:1 118:1 124:1 144:1 180:1 
80 18:1 26:1 60:1 78:1 83:1 103:1 137:1 154:1 165:1 
80 15:1 30:1 54:1 64:1 81:1 110:1 132:1 150:1 165:1 
32.320512233289818482262489851564 5:1 30:1 53:1 67:1 91:1 101:1 140:1 157:1 180:1 
-80 10:1 28:1 45:1 64:1 88:1 110:1 134:1 155:1 170:1 
-1.8403558060929803286143169316347 1:1 30:1 43:1 68:1 92:1 113:1 134:1 156:1 176:1 
-29.862800089032248251896817237139 12:1 36:1 58:1 74:1 84:1 110:1 138:1 154:1 167:1 
39.734391231814178979675489244983 6:1 34:1 44:1 65:1 88:1 115:1 138:1 146:1 180:1 
20.401849504866440554451401112601 7:1 34:1 48:1 77:1 98:1 110:1 127:1 158:1 180:1 
31.030534789459263578237369074486 7:1 38:1 48:1 63:1 98:1 109:1 125:1 150:1 180:1 
-80 16:1 30:1 60:1 66:1 98:1 118:1 124:1 147:1 176:1 
-59.331545002593713888927595689893 18:1 38:1 44:1 73:1 92:1 105:1 121:1 152:1 169:1 
-25.11597254118123601074330508709 7:1 26:1 48:1 66:1 87:1 108:1 124:1 141:1 168:1 
78.871594969582545786579430568963 9:1 28:1 49:1 76:1 85:1 104:1 138:1 158:1 165:1 
39.723493381769756638277613092214 16:1 30:1 45:1 78:1 96:1 112:1 127:1 141:1 180:1 
-54.939266653586940947207040153444 1:1 30:1 55:1 61:1 81:1 106:1 126:1 141:1 173:1 
-36.473010880038472691921924706548 13:1 36:1 50:1 69:1 99:1 119:1 125:1 143:1 165:1 
-21.124577180345838200992147903889 9:1 33:1 43:1 67:1 89:1 104:1 137:1 141:1 177:1 
25.581252516321907108931554830633 12:1 38:1 57:1 74:1 98:1 115:1 121:1 145:1 180:1 
64.371211349369986010060529224575 18:1 30:1 60:1 63:1 95:1 118:1 130:1 149:1 180:1 
-34.002233961460106570484640542418 5:1 28:1 49:1 77:1 94:1 108:1 129:1 158:1 168:1 
-20.813483648976067286184843396768 18:1 40:1 54:1 64:1 81:1 114:1 129:1 150:1 177:1 
-36.523263482235456933722161920741 18:1 36:1 44:1 67:1 84:1 120:1 136:1 145:1 178:1 
76.590649226644956115706008858979 20:1 28:1 45:1 69:1 84:1 115:1 124:1 156:1 165:1 
58.224202341921348136111191706732 16:1 28:1 56:1 66:1 98:1 117:1 121:1 141:1 180:1 
41.708428504379270407298463396728 10:1 34:1 47:1 73:1 83:1 118:1 121:1 141:1 180:1 
-41.587707425905570346458262065426 8:1 38:1 60:1 74:1 93:1 118:1 132:1 141:1 163:1 
-5.8512391028907595469377156405244 11:1 29:1 60:1 75:1 83:1 115:1 121:1 141:1 164:1 
-10.839371751418513056819392659236 10:1 28:1 44:1 62:1 96:1 104:1 130:1 155:1 166:1 
31.300758068360174490862846141681 6:1 34:1 47:1 67:1 88:1 105:1 136:1 145:1 165:1 
80 18:1 30:1 55:1 64:1 88:1 101:1 124:1 144:1 180:1 
41.820850526908856181762530468404 8:1 30:1 46:1 73:1 93:1 106:1 136:1 158:1 180:1 
-57.795766240185628248582361266017 13:1 30:1 55:1 64:1 88:1 113:1 136:1 146:1 177:1 
-52.315337706982049326143169309944 6:1 23:1 42:1 70:1 90:1 117:1 137:1 157:1 170:1 
-58.100878228291200855437637073919 11:1 24:1 58:1 73:1 82:1 103:1 129:1 153:1 165:1 
40.287157320701695084608218166977 6:1 38:1 48:1 75:1 96:1 110:1 131:1 141:1 165:1 
13.168447726697172228682575223502 15:1 38:1 60:1 73:1 84:1 118:1 137:1 158:1 180:1 
23.994061285157552987357121310197 8:1 34:1 53:1 66:1 81:1 118:1 129:1 158:1 180:1 
-4.1600814685299782880179009225685 15:1 37:1 54:1 65:1 99:1 110:1 140:1 145:1 161:1 
-10.089459639551321856743015814573 10:1 21:1 41:1 73:1 96:1 106:1 127:1 158:1 164:1 
26.483008122215281332501035649329 1:1 30:1 55:1 63:1 98:1 115:1 134:1 154:1 180:1 
53.674207665631548991314048180357 17:1 34:1 51:1 73:1 83:1 113:1 129:1 157:1 165:1 
-65.053470801824602176566259004176 17:1 28:1 48:1 77:1 83:1 117:1 124:1 150:1 173:1 
-17.629405995591387323884191573597 7:1 40:1 43:1 63:1 98:1 113:1 122:1 148:1 172:1 
-33.059123084931229641370009630919 18:1 26:1 49:1 62:1 85:1 109:1 124:1 141:1 172:1 
23.238668744444311187180574052036 14:1 38:1 41:1 64:1 88:1 118:1 136:1 149:1 180:1 
49.91786729782494802520886878483 6:1 38:1 42:1 67:1 88:1 105:1 121:1 156:1 165:1 
-9.1735456215546342662037204718217 14:1 39:1 50:1 80:1 84:1 101:1 121:1 153:1 164:1 
13.064273128336967744189678342082 7:1 38:1 52:1 63:1 90:1 105:1 130:1 154:1 180:1 
-32.590507351163573446228838292882 20:1 30:1 53:1 69:1 88:1 114:1 130:1 158:1 168:1 
-18.460614019604200564117491012439 20:1 37:1 52:1 61:1 89:1 106:1 124:1 156:1 166:1 
-16.052102457595264439760285313241 13:1 30:1 47:1 61:1 81:1 113:1 127:1 154:1 161:1 
14.694355236924197427583749231417 14:1 34:1 49:1 70:1 96:1 115:1 130:1 154:1 180:1 
-12.723698747180751666974174440838 7:1 33:1 45:1 62:1 95:1 119:1 135:1 142:1 179:1 
12.628920518375572612512769410387 20:1 30:1 46:1 64:1 85:1 116:1 128:1 157:1 180:1 
18.523028007106940862058763741516 20:1 34:1 45:1 77:1 86:1 108:1 129:1 149:1 180:1 
-8.970287683737138806350230879616 10:1 23:1 45:1 70:1 88:1 113:1 130:1 156:1 169:1 
-17.484800215092690223173121921718 5:1 36:1 55:1 63:1 93:1 104:1 121:1 144:1 164:1 
-7.6341599297286641956361563643441 6:1 25:1 59:1 70:1 88:1 110:1 130:1 158:1 178:1 
-11.212220786278683348768936411943 7:1 30:1 60:1 73:1 90:1 108:1 124:1 157:1 174:1 
-3.4225615063186678455053879588377 15:1 35:1 41:1 66:1 96:1 118:1 129:1 155:1 166:1 
-8.6330896666074625755982197006233 11:1 21:1 41:1 64:1 92:1 104:1 121:1 156:1 174:1 
2.038797334264889293820033344673 9:1 30:1 45:1 68:1 86:1 106:1 130:1 156:1 165:1 
