SVM-light Version V6.02
0 # kernel type
3 # kernel parameter -d 
0.62 # kernel parameter -g 
1 # kernel parameter -s 
1 # kernel parameter -r 
empty # kernel parameter -u 
200 # highest feature index 
66 # number of training documents 
54 # number of support vectors plus 1 
0.62915323 # threshold b 
-0.083021737176603327412749422364868 13:1 28:1 48:1 74:1 89:1 120:1 126:1 156:1 169:1 189:1 
-0.10471446767564338009570690246619 15:1 37:1 50:1 77:1 100:1 111:1 136:1 147:1 175:1 192:1 
-0.15777239668910161829451510584477 9:1 33:1 47:1 66:1 95:1 106:1 138:1 150:1 169:1 199:1 
-0.050305871759056548786492868430287 13:1 36:1 51:1 76:1 83:1 105:1 130:1 159:1 166:1 190:1 
-0.01207920179930313184235579626602 10:1 30:1 45:1 78:1 90:1 117:1 133:1 157:1 165:1 198:1 
-0.061474446290831367967211207314904 15:1 35:1 45:1 77:1 95:1 108:1 121:1 158:1 163:1 184:1 
0.13094787964025556004088457484613 14:1 32:1 46:1 61:1 90:1 101:1 128:1 152:1 177:1 185:1 
0.12141670978431826077859057022579 15:1 30:1 55:1 73:1 86:1 106:1 129:1 149:1 169:1 200:1 
0.011407972528211983431756237905574 18:1 30:1 49:1 73:1 86:1 111:1 138:1 158:1 177:1 185:1 
0.11544867220064386481581664156693 17:1 38:1 41:1 65:1 98:1 113:1 128:1 156:1 166:1 199:1 
-0.080914184979258493846110411595873 16:1 21:1 56:1 68:1 86:1 106:1 137:1 141:1 177:1 190:1 
-0.023424918717427183068036100621612 3:1 38:1 57:1 77:1 96:1 113:1 140:1 141:1 163:1 197:1 
-0.054238763736871253851035135085112 11:1 24:1 56:1 69:1 86:1 114:1 139:1 145:1 176:1 181:1 
-0.014466027161391519298416774574889 4:1 32:1 49:1 63:1 97:1 113:1 122:1 143:1 162:1 181:1 
-0.13582073531717595016310440314555 5:1 26:1 43:1 73:1 94:1 108:1 125:1 154:1 174:1 186:1 
0.2398990427158452787281817109033 10:1 26:1 50:1 72:1 89:1 108:1 138:1 155:1 171:1 200:1 
0.20405732037191243177787214335694 13:1 37:1 54:1 64:1 90:1 106:1 130:1 153:1 161:1 200:1 
0.055312845364072840692593047151604 8:1 34:1 53:1 66:1 95:1 106:1 125:1 158:1 170:1 200:1 
0.19007517301079690508203157151002 7:1 28:1 48:1 76:1 86:1 117:1 122:1 141:1 176:1 199:1 
0.20588050571832783308678926914581 15:1 30:1 60:1 66:1 93:1 116:1 136:1 158:1 176:1 185:1 
-0.10672381871450414836388631556474 17:1 30:1 44:1 66:1 96:1 113:1 136:1 158:1 173:1 182:1 
-0.14326729480319427834089651696559 4:1 37:1 58:1 64:1 90:1 110:1 135:1 160:1 161:1 191:1 
-0.057044958296003353548364600555942 16:1 29:1 53:1 62:1 81:1 112:1 122:1 149:1 176:1 193:1 
-0.053427007618406560651713732568169 10:1 25:1 54:1 70:1 81:1 103:1 130:1 160:1 164:1 193:1 
-0.13150140994001041638838955805113 15:1 37:1 53:1 75:1 97:1 117:1 135:1 156:1 176:1 198:1 
0.085674677327600742837709901777998 20:1 38:1 43:1 66:1 97:1 114:1 125:1 158:1 175:1 185:1 
0.20793343358636176554377072989155 16:1 38:1 53:1 80:1 85:1 110:1 125:1 154:1 167:1 199:1 
0.16640610498994487520540985769912 15:1 37:1 46:1 73:1 93:1 111:1 126:1 156:1 175:1 185:1 
0.19331109781157190807832080281514 7:1 38:1 58:1 63:1 95:1 103:1 137:1 144:1 161:1 199:1 
0.065911452467964287693646951993287 17:1 38:1 58:1 64:1 95:1 111:1 130:1 156:1 172:1 199:1 
-0.13972580170909457142336407287075 13:1 38:1 57:1 61:1 93:1 104:1 132:1 146:1 169:1 188:1 
-0.14183856297716784800044820258336 6:1 26:1 58:1 63:1 89:1 115:1 137:1 154:1 165:1 199:1 
-0.088055626123974675700800673894264 12:1 31:1 46:1 80:1 84:1 120:1 136:1 144:1 175:1 186:1 
-0.0043694269858243553472654241431883 6:1 33:1 41:1 63:1 95:1 104:1 123:1 144:1 164:1 184:1 
0.090680864053602802665743354282313 8:1 30:1 49:1 64:1 93:1 118:1 127:1 146:1 178:1 200:1 
0.043097584766276675338758650468662 15:1 34:1 50:1 64:1 83:1 108:1 130:1 156:1 177:1 200:1 
0.065154555757767421142467867412051 6:1 34:1 55:1 69:1 86:1 101:1 126:1 156:1 178:1 185:1 
-0.1153834444572445216969924786099 15:1 21:1 49:1 78:1 93:1 109:1 126:1 152:1 171:1 193:1 
-0.025844202955654198283763633980925 1:1 35:1 49:1 64:1 95:1 117:1 121:1 145:1 177:1 189:1 
-0.054745819974539186580919647440169 12:1 21:1 52:1 64:1 93:1 113:1 130:1 158:1 165:1 198:1 
-0.081359673698819384712876967569173 16:1 36:1 42:1 70:1 96:1 105:1 133:1 156:1 176:1 199:1 
-0.07993105580376817786980581104217 2:1 30:1 50:1 66:1 90:1 115:1 137:1 145:1 178:1 181:1 
-0.037951461411964440562094580400299 13:1 32:1 50:1 70:1 92:1 106:1 134:1 150:1 176:1 196:1 
0.023358223297494835196674856092613 20:1 31:1 48:1 63:1 93:1 116:1 126:1 158:1 176:1 200:1 
-0.043642946207500997457540137247634 10:1 36:1 52:1 72:1 90:1 112:1 129:1 145:1 163:1 184:1 
-0.03788295646246857273364838647467 15:1 34:1 58:1 74:1 95:1 113:1 138:1 157:1 164:1 190:1 
-0.0029877913699229859643968776339307 5:1 37:1 58:1 70:1 84:1 109:1 125:1 155:1 180:1 190:1 
-0.036832026713664089978550464365981 13:1 37:1 54:1 63:1 87:1 110:1 133:1 141:1 177:1 193:1 
-0.016170589309214486450905212677753 15:1 33:1 50:1 69:1 98:1 113:1 136:1 144:1 170:1 186:1 
-0.020527968760466010211818144171048 16:1 35:1 56:1 73:1 96:1 118:1 136:1 153:1 176:1 189:1 
-0.015231553454575072134580260296843 11:1 30:1 53:1 68:1 81:1 112:1 121:1 148:1 170:1 189:1 
-0.0025213988580195883203172169118034 1:1 34:1 57:1 61:1 84:1 106:1 134:1 157:1 168:1 198:1 
-0.00077456748430454003349204805672912 17:1 24:1 43:1 66:1 84:1 118:1 140:1 156:1 165:1 186:1 
