SVM-light Version V6.02
0 # kernel type
3 # kernel parameter -d 
0.96 # kernel parameter -g 
1 # kernel parameter -s 
1 # kernel parameter -r 
empty # kernel parameter -u 
160 # highest feature index 
147 # number of training documents 
97 # number of support vectors plus 1 
0.87188881 # threshold b 
-0.040000000000000000832667268468867 7:1 28:1 58:1 76:1 88:1 113:1 130:1 155:1 
-0.040000000000000000832667268468867 3:1 23:1 51:1 70:1 85:1 110:1 126:1 143:1 
0.022928306717971448647208632110051 12:1 24:1 58:1 78:1 97:1 115:1 124:1 160:1 
-0.02759889390729251129608101678059 13:1 21:1 58:1 70:1 93:1 113:1 122:1 141:1 
-0.017129180788005196611756275615335 2:1 23:1 55:1 66:1 82:1 110:1 121:1 141:1 
0.040000000000000000832667268468867 3:1 24:1 49:1 76:1 88:1 108:1 137:1 160:1 
0.040000000000000000832667268468867 3:1 24:1 47:1 64:1 86:1 113:1 121:1 150:1 
0.040000000000000000832667268468867 10:1 23:1 41:1 64:1 88:1 103:1 130:1 150:1 
0.040000000000000000832667268468867 9:1 30:1 44:1 63:1 86:1 113:1 129:1 145:1 
0.040000000000000000832667268468867 7:1 24:1 45:1 66:1 81:1 108:1 137:1 145:1 
-0.040000000000000000832667268468867 3:1 36:1 54:1 63:1 86:1 116:1 136:1 160:1 
-0.040000000000000000832667268468867 4:1 24:1 49:1 71:1 94:1 104:1 134:1 150:1 
-0.040000000000000000832667268468867 9:1 37:1 47:1 80:1 93:1 103:1 138:1 145:1 
-0.040000000000000000832667268468867 4:1 24:1 46:1 64:1 90:1 112:1 139:1 144:1 
-0.040000000000000000832667268468867 17:1 29:1 45:1 68:1 81:1 110:1 137:1 150:1 
0.040000000000000000832667268468867 5:1 36:1 43:1 70:1 84:1 116:1 123:1 144:1 
0.040000000000000000832667268468867 8:1 24:1 58:1 70:1 94:1 113:1 130:1 148:1 
0.040000000000000000832667268468867 18:1 34:1 58:1 78:1 95:1 106:1 127:1 160:1 
0.040000000000000000832667268468867 16:1 29:1 54:1 61:1 84:1 104:1 124:1 145:1 
0.040000000000000000832667268468867 3:1 24:1 51:1 70:1 96:1 115:1 126:1 145:1 
-0.040000000000000000832667268468867 8:1 24:1 53:1 70:1 100:1 108:1 129:1 141:1 
-0.040000000000000000832667268468867 17:1 24:1 41:1 70:1 98:1 115:1 126:1 145:1 
-0.0059535263840721046324500065338725 18:1 34:1 43:1 78:1 84:1 112:1 130:1 149:1 
-0.040000000000000000832667268468867 18:1 34:1 41:1 63:1 87:1 104:1 130:1 145:1 
-0.040000000000000000832667268468867 3:1 23:1 52:1 70:1 86:1 113:1 129:1 157:1 
0.040000000000000000832667268468867 3:1 24:1 60:1 71:1 92:1 110:1 138:1 150:1 
0.040000000000000000832667268468867 3:1 24:1 51:1 69:1 98:1 110:1 138:1 150:1 
0.040000000000000000832667268468867 12:1 24:1 58:1 64:1 90:1 110:1 138:1 151:1 
0.040000000000000000832667268468867 7:1 24:1 51:1 68:1 88:1 110:1 129:1 150:1 
0.040000000000000000832667268468867 4:1 24:1 47:1 72:1 89:1 111:1 138:1 160:1 
-0.040000000000000000832667268468867 10:1 24:1 47:1 75:1 94:1 110:1 132:1 160:1 
-0.040000000000000000832667268468867 9:1 24:1 51:1 67:1 87:1 110:1 134:1 155:1 
-0.040000000000000000832667268468867 5:1 40:1 52:1 74:1 96:1 114:1 124:1 150:1 
-0.040000000000000000832667268468867 3:1 27:1 49:1 77:1 92:1 114:1 135:1 151:1 
-0.0099622832505369927902361126825781 10:1 26:1 51:1 68:1 100:1 120:1 129:1 154:1 
0.040000000000000000832667268468867 4:1 24:1 55:1 68:1 98:1 104:1 130:1 145:1 
0.040000000000000000832667268468867 18:1 24:1 41:1 68:1 85:1 116:1 129:1 160:1 
0.040000000000000000832667268468867 4:1 24:1 52:1 73:1 81:1 116:1 129:1 145:1 
0.040000000000000000832667268468867 3:1 24:1 55:1 70:1 89:1 103:1 130:1 145:1 
0.040000000000000000832667268468867 17:1 24:1 45:1 69:1 85:1 108:1 139:1 160:1 
-0.032821961351908499060492374610476 14:1 25:1 47:1 65:1 90:1 116:1 139:1 160:1 
-0.036227004737516728394286502634714 1:1 30:1 56:1 74:1 83:1 116:1 137:1 160:1 
-0.040000000000000000832667268468867 15:1 38:1 50:1 73:1 88:1 102:1 130:1 153:1 
-0.019003782179492164500222983747335 6:1 33:1 42:1 64:1 95:1 115:1 129:1 156:1 
-0.040000000000000000832667268468867 16:1 35:1 58:1 77:1 81:1 106:1 129:1 143:1 
0.040000000000000000832667268468867 3:1 23:1 45:1 67:1 88:1 120:1 138:1 160:1 
0.040000000000000000832667268468867 17:1 24:1 58:1 69:1 96:1 118:1 124:1 151:1 
0.040000000000000000832667268468867 5:1 24:1 49:1 64:1 81:1 101:1 124:1 151:1 
0.040000000000000000832667268468867 12:1 24:1 45:1 70:1 97:1 115:1 124:1 150:1 
0.040000000000000000832667268468867 5:1 24:1 48:1 68:1 98:1 107:1 134:1 160:1 
-0.040000000000000000832667268468867 19:1 36:1 49:1 70:1 84:1 101:1 128:1 160:1 
-0.034901026179600287691062732164937 10:1 26:1 45:1 76:1 91:1 101:1 130:1 150:1 
-0.010669079398597937358150744557861 6:1 39:1 49:1 72:1 81:1 101:1 127:1 148:1 
-0.040000000000000000832667268468867 15:1 32:1 56:1 70:1 93:1 109:1 138:1 150:1 
-0.038679740084629932184157041774597 4:1 35:1 45:1 70:1 90:1 120:1 123:1 154:1 
0.040000000000000000832667268468867 3:1 24:1 52:1 65:1 88:1 110:1 129:1 147:1 
0.040000000000000000832667268468867 4:1 24:1 48:1 65:1 92:1 110:1 129:1 145:1 
0.018800410585058078410947146608123 3:1 24:1 45:1 72:1 88:1 114:1 138:1 150:1 
0.040000000000000000832667268468867 16:1 24:1 58:1 70:1 96:1 119:1 134:1 145:1 
0.040000000000000000832667268468867 18:1 24:1 55:1 78:1 88:1 117:1 128:1 151:1 
-0.040000000000000000832667268468867 7:1 25:1 43:1 64:1 98:1 119:1 132:1 156:1 
-0.032083718169041354484338768315865 4:1 30:1 41:1 68:1 95:1 110:1 135:1 158:1 
-0.028045956217137828908603225386287 12:1 26:1 55:1 80:1 89:1 106:1 134:1 156:1 
-0.040000000000000000832667268468867 11:1 36:1 58:1 65:1 92:1 110:1 136:1 152:1 
-0.036528520596555723309872831805478 5:1 33:1 50:1 61:1 85:1 116:1 129:1 144:1 
0.040000000000000000832667268468867 12:1 24:1 58:1 70:1 97:1 109:1 137:1 160:1 
0.040000000000000000832667268468867 4:1 24:1 48:1 64:1 86:1 105:1 135:1 160:1 
0.040000000000000000832667268468867 12:1 24:1 50:1 70:1 88:1 101:1 136:1 145:1 
0.040000000000000000832667268468867 3:1 24:1 45:1 68:1 98:1 104:1 126:1 150:1 
0.031245579422099104688337334323478 3:1 24:1 48:1 71:1 90:1 113:1 136:1 145:1 
-0.035629939551902092831348056733987 10:1 35:1 49:1 68:1 88:1 103:1 125:1 148:1 
-0.040000000000000000832667268468867 3:1 37:1 53:1 70:1 87:1 113:1 130:1 146:1 
-0.0079632893958984495713648854575695 18:1 23:1 46:1 80:1 88:1 120:1 123:1 154:1 
-0.040000000000000000832667268468867 1:1 34:1 48:1 73:1 96:1 113:1 139:1 158:1 
-0.040000000000000000832667268468867 18:1 33:1 46:1 64:1 84:1 104:1 135:1 150:1 
0.040000000000000000832667268468867 3:1 24:1 44:1 64:1 90:1 105:1 129:1 151:1 
0.027944998978804355682648008496471 3:1 24:1 58:1 65:1 96:1 107:1 128:1 150:1 
0.040000000000000000832667268468867 3:1 24:1 48:1 73:1 98:1 110:1 137:1 150:1 
-0.020752728750287611353408934178333 19:1 26:1 49:1 78:1 96:1 110:1 124:1 152:1 
-0.026820427827213003807438340686531 17:1 29:1 41:1 69:1 95:1 114:1 123:1 150:1 
-0.033272219680009984532631506226608 7:1 23:1 57:1 64:1 81:1 117:1 121:1 157:1 
-0.0094494746376846926183556973910527 5:1 26:1 44:1 73:1 100:1 109:1 138:1 141:1 
0.024381358241293903804658427247887 4:1 24:1 58:1 70:1 88:1 113:1 133:1 145:1 
-0.015869743153831845222656582450327 10:1 28:1 57:1 63:1 86:1 115:1 136:1 160:1 
-0.023740211836790373750583071910114 5:1 35:1 49:1 72:1 90:1 103:1 133:1 160:1 
-0.021061437310021139529547795632425 4:1 34:1 50:1 65:1 89:1 109:1 136:1 149:1 
-0.016743186744922856218353857116199 8:1 31:1 60:1 61:1 81:1 115:1 123:1 146:1 
0.021194160441561405577859389381956 4:1 24:1 58:1 68:1 81:1 117:1 128:1 145:1 
-0.015014033723430041111779331686193 20:1 25:1 55:1 69:1 100:1 106:1 137:1 156:1 
-0.012344881370994112423922217658401 16:1 28:1 55:1 67:1 95:1 116:1 130:1 147:1 
-0.0087234101104897068118537717396066 9:1 30:1 54:1 76:1 84:1 108:1 126:1 149:1 
0.0074361612929653257697548696114609 3:1 24:1 48:1 76:1 85:1 118:1 132:1 145:1 
-0.0054862937133639076009439250469768 4:1 26:1 47:1 70:1 95:1 103:1 124:1 152:1 
-0.0035753638778141714170411002982064 13:1 26:1 56:1 73:1 97:1 104:1 124:1 141:1 
-0.0047899134439219927250608321855907 4:1 30:1 44:1 77:1 84:1 110:1 123:1 146:1 
-0.003089747306790477463650512746085 18:1 21:1 52:1 63:1 94:1 116:1 138:1 141:1 
