SVM-light Version V6.02
0 # kernel type
3 # kernel parameter -d 
0.46 # kernel parameter -g 
1 # kernel parameter -s 
1 # kernel parameter -r 
empty # kernel parameter -u 
180 # highest feature index 
210 # number of training documents 
79 # number of support vectors plus 1 
1.1974461 # threshold b 
-0.013423417682159655139884080199408 2:1 37:1 45:1 74:1 89:1 106:1 132:1 146:1 170:1 
-0.16068400217599945745128309226857 5:1 22:1 48:1 70:1 97:1 107:1 126:1 155:1 165:1 
0.16691147643924400534309882004891 11:1 24:1 49:1 68:1 99:1 107:1 127:1 157:1 165:1 
-0.088908361323004933551850115236448 16:1 21:1 44:1 68:1 91:1 110:1 130:1 155:1 169:1 
-0.10729242948109601885064989801322 7:1 33:1 52:1 77:1 96:1 118:1 130:1 144:1 162:1 
0.2176750044379265058847039426837 4:1 24:1 44:1 78:1 85:1 113:1 130:1 141:1 171:1 
0.23999999999999999111821580299875 4:1 32:1 49:1 77:1 83:1 118:1 128:1 150:1 168:1 
0.096996141363321242145900669129333 17:1 24:1 52:1 63:1 88:1 115:1 138:1 151:1 165:1 
0.029962411125957405522157728228194 3:1 24:1 41:1 61:1 85:1 110:1 124:1 155:1 170:1 
0.11341630423713032482790907806702 18:1 24:1 58:1 74:1 90:1 113:1 124:1 150:1 165:1 
-0.1824534821698008402179880249605 4:1 33:1 58:1 78:1 85:1 113:1 124:1 144:1 173:1 
0.016662219924361752754204957227557 3:1 24:1 47:1 73:1 92:1 118:1 128:1 155:1 180:1 
-0.016272112136170958224257176993888 11:1 36:1 45:1 68:1 98:1 107:1 137:1 149:1 174:1 
-0.014549370832812387466237424860083 4:1 29:1 57:1 66:1 85:1 118:1 123:1 144:1 177:1 
-0.055504274404122026786989607671785 4:1 25:1 49:1 74:1 95:1 120:1 134:1 158:1 170:1 
0.23999999999999999111821580299875 5:1 23:1 48:1 72:1 89:1 117:1 125:1 148:1 165:1 
0.23999999999999999111821580299875 9:1 38:1 50:1 64:1 91:1 117:1 130:1 150:1 173:1 
0.23999999999999999111821580299875 16:1 38:1 44:1 70:1 86:1 113:1 126:1 150:1 175:1 
0.23999999999999999111821580299875 8:1 23:1 54:1 77:1 81:1 110:1 121:1 158:1 180:1 
0.23999999999999999111821580299875 6:1 24:1 43:1 68:1 98:1 101:1 123:1 156:1 178:1 
-0.068027118492935856330916521983454 13:1 26:1 49:1 70:1 81:1 101:1 121:1 150:1 161:1 
-0.06327154663160107495034623070751 6:1 38:1 44:1 61:1 89:1 108:1 133:1 150:1 172:1 
-0.14768944656641050383605318074842 6:1 24:1 50:1 72:1 97:1 115:1 131:1 157:1 163:1 
-0.050269706565134616993439919951925 10:1 34:1 53:1 64:1 94:1 108:1 124:1 149:1 168:1 
-0.060048980789657362133748819132961 18:1 25:1 44:1 64:1 81:1 105:1 125:1 156:1 165:1 
0.061485780738468082118330926277849 4:1 24:1 55:1 78:1 88:1 112:1 124:1 144:1 180:1 
0.23999999999999999111821580299875 3:1 26:1 47:1 70:1 85:1 114:1 138:1 144:1 180:1 
-0.01025529747925124808560770617305 7:1 25:1 48:1 66:1 94:1 115:1 124:1 144:1 165:1 
0.23999999999999999111821580299875 20:1 24:1 60:1 69:1 85:1 106:1 125:1 144:1 170:1 
0.080369517119690189743685948542407 3:1 24:1 48:1 78:1 95:1 108:1 132:1 146:1 180:1 
-0.09440154701228523070888343227125 8:1 37:1 55:1 78:1 88:1 114:1 124:1 146:1 170:1 
-0.079830315862519485303749888771563 5:1 24:1 49:1 73:1 97:1 114:1 128:1 160:1 175:1 
-0.23999999999999999111821580299875 9:1 24:1 58:1 69:1 86:1 101:1 138:1 160:1 176:1 
-0.11788668245206419815662712835547 5:1 24:1 48:1 78:1 86:1 105:1 137:1 152:1 167:1 
-0.004570208187838462748908696653416 13:1 30:1 56:1 64:1 81:1 115:1 136:1 143:1 165:1 
0.045380002574256485259329707560028 4:1 24:1 45:1 66:1 95:1 105:1 121:1 156:1 165:1 
0.23999999999999999111821580299875 12:1 21:1 45:1 64:1 84:1 110:1 138:1 141:1 165:1 
0.12599326607045244208471501679014 4:1 24:1 45:1 64:1 97:1 108:1 124:1 155:1 165:1 
-0.18325505105332065558521037473838 3:1 23:1 47:1 74:1 83:1 120:1 121:1 144:1 161:1 
-0.13705436558015635095664208620292 8:1 40:1 44:1 64:1 90:1 113:1 124:1 144:1 164:1 
0.056465574521386251161114699925747 3:1 24:1 46:1 75:1 90:1 118:1 130:1 144:1 165:1 
-0.12838644094051160360336893972999 3:1 25:1 48:1 66:1 84:1 103:1 138:1 150:1 167:1 
-0.0034769006301529166089170352904603 17:1 38:1 54:1 64:1 98:1 114:1 133:1 155:1 161:1 
0.16381216156015354634689629165223 5:1 24:1 41:1 73:1 88:1 109:1 130:1 158:1 165:1 
0.11800693104535631139384577181772 3:1 24:1 58:1 69:1 90:1 113:1 121:1 149:1 170:1 
0.098195468295447910223039400534617 3:1 24:1 48:1 68:1 90:1 113:1 135:1 146:1 170:1 
0.23999999999999999111821580299875 7:1 24:1 41:1 70:1 90:1 120:1 140:1 158:1 170:1 
-0.18553347871040395955510859948845 20:1 24:1 41:1 75:1 97:1 104:1 123:1 143:1 170:1 
-0.23999999999999999111821580299875 18:1 21:1 41:1 68:1 98:1 106:1 125:1 158:1 165:1 
-0.0076723672498326626195686017695152 16:1 38:1 48:1 70:1 92:1 107:1 131:1 141:1 175:1 
-0.13075611154523419932260708264948 15:1 24:1 53:1 73:1 93:1 113:1 133:1 153:1 175:1 
-0.09797358552398248432435678978436 1:1 21:1 47:1 70:1 87:1 113:1 128:1 141:1 168:1 
0.12901745949936910262678679828241 10:1 24:1 43:1 78:1 98:1 108:1 124:1 155:1 180:1 
-0.13368530195538300131552489347087 18:1 28:1 46:1 72:1 85:1 110:1 140:1 158:1 178:1 
-0.047106639220740431639455891854595 1:1 26:1 48:1 72:1 90:1 117:1 124:1 148:1 173:1 
-0.12259785147940169269809018715023 6:1 24:1 44:1 66:1 86:1 108:1 135:1 142:1 173:1 
-0.13686711535467036005009333621274 16:1 23:1 46:1 63:1 89:1 109:1 130:1 141:1 178:1 
-0.10298561753411238084421341909547 14:1 24:1 54:1 75:1 81:1 115:1 130:1 153:1 174:1 
-0.10714574088466093104710097350107 12:1 40:1 41:1 63:1 81:1 101:1 130:1 156:1 165:1 
-0.17065268164696228980758974103082 4:1 38:1 49:1 70:1 90:1 106:1 127:1 146:1 174:1 
0.045688925146430553470011659555894 3:1 24:1 50:1 74:1 94:1 113:1 130:1 144:1 170:1 
-0.15090372904538959519804564024525 1:1 24:1 44:1 78:1 90:1 116:1 136:1 148:1 175:1 
-0.069247520161217324119462546150316 4:1 21:1 54:1 69:1 81:1 114:1 121:1 150:1 175:1 
-0.026560393682118012964599174097202 12:1 37:1 43:1 76:1 96:1 101:1 132:1 151:1 170:1 
-0.095072114717740310863014485676104 10:1 29:1 43:1 64:1 83:1 107:1 123:1 155:1 171:1 
-0.026490223169438758404892197972913 13:1 29:1 50:1 73:1 90:1 102:1 123:1 156:1 170:1 
-0.037387165803068195257807815323758 1:1 30:1 59:1 61:1 96:1 118:1 122:1 150:1 170:1 
-0.015242069492184911333465535676623 2:1 27:1 41:1 76:1 81:1 119:1 123:1 145:1 180:1 
-0.028516330820272193374842473190256 15:1 34:1 56:1 67:1 95:1 109:1 129:1 158:1 170:1 
-0.0039837332936955094711550806607647 8:1 22:1 51:1 65:1 81:1 110:1 126:1 142:1 170:1 
-0.0096155927092711496878552068778845 4:1 38:1 50:1 76:1 96:1 108:1 135:1 157:1 178:1 
0.06402951516656528452298147158217 16:1 24:1 44:1 70:1 90:1 115:1 124:1 147:1 180:1 
-0.030787597399095551625736177925319 4:1 36:1 47:1 70:1 88:1 103:1 125:1 155:1 164:1 
-0.05264499945134085839848481214176 4:1 25:1 44:1 76:1 92:1 116:1 130:1 149:1 180:1 
0.032245218387730756326448045001598 18:1 24:1 43:1 69:1 83:1 101:1 138:1 141:1 165:1 
-0.010560482924826196035605896383913 6:1 30:1 46:1 61:1 89:1 101:1 136:1 141:1 180:1 
0.024933023835468904466639017414309 4:1 24:1 60:1 64:1 81:1 115:1 124:1 152:1 165:1 
-0.019746899264668018453283693247613 13:1 24:1 49:1 73:1 93:1 107:1 134:1 155:1 161:1 
