SVM-light Version V6.02
0 # kernel type
3 # kernel parameter -d 
0.8 # kernel parameter -g 
1 # kernel parameter -s 
1 # kernel parameter -r 
empty # kernel parameter -u 
180 # highest feature index 
135 # number of training documents 
99 # number of support vectors plus 1 
0.83179853 # threshold b 
-0.033162817042310020754225519112879 7:1 26:1 46:1 76:1 95:1 114:1 130:1 157:1 164:1 
-0.023144250718462589661017503317453 4:1 36:1 45:1 66:1 86:1 103:1 136:1 153:1 178:1 
-0.012433750941818479465728053412477 16:1 21:1 50:1 63:1 99:1 119:1 133:1 149:1 168:1 
-0.024635896203921286984339644732245 16:1 25:1 43:1 75:1 91:1 114:1 136:1 141:1 170:1 
-0.027293898179003059367708772242622 12:1 36:1 43:1 77:1 98:1 110:1 138:1 147:1 175:1 
0.040000000000000000832667268468867 5:1 35:1 49:1 61:1 94:1 108:1 134:1 146:1 170:1 
0.040000000000000000832667268468867 1:1 35:1 50:1 65:1 86:1 108:1 135:1 141:1 169:1 
-0.0085181739620003478485887882243333 5:1 34:1 54:1 77:1 90:1 107:1 136:1 157:1 170:1 
0.040000000000000000832667268468867 12:1 35:1 48:1 78:1 100:1 110:1 140:1 157:1 169:1 
0.040000000000000000832667268468867 1:1 35:1 45:1 66:1 90:1 108:1 134:1 156:1 171:1 
-0.040000000000000000832667268468867 1:1 35:1 43:1 66:1 87:1 117:1 134:1 158:1 178:1 
-0.040000000000000000832667268468867 1:1 35:1 50:1 62:1 81:1 110:1 139:1 141:1 161:1 
-0.040000000000000000832667268468867 8:1 38:1 57:1 61:1 90:1 116:1 122:1 146:1 169:1 
-0.040000000000000000832667268468867 6:1 33:1 42:1 71:1 84:1 108:1 131:1 149:1 175:1 
-0.0064546211432970918703277973804688 17:1 29:1 44:1 63:1 84:1 114:1 134:1 154:1 161:1 
0.040000000000000000832667268468867 14:1 35:1 58:1 72:1 98:1 114:1 133:1 144:1 170:1 
0.040000000000000000832667268468867 16:1 35:1 59:1 76:1 86:1 116:1 127:1 154:1 165:1 
0.025716071235618240264919620585715 6:1 35:1 59:1 73:1 86:1 116:1 136:1 150:1 180:1 
0.031707369139173040284429561097568 15:1 35:1 45:1 76:1 95:1 116:1 133:1 148:1 175:1 
0.037666934648221177261984138340267 6:1 35:1 57:1 65:1 88:1 114:1 133:1 152:1 171:1 
-0.040000000000000000832667268468867 14:1 30:1 58:1 78:1 96:1 109:1 124:1 150:1 175:1 
-0.040000000000000000832667268468867 15:1 26:1 48:1 76:1 83:1 113:1 123:1 157:1 170:1 
-0.015593042244237497948033954742186 12:1 25:1 46:1 68:1 100:1 109:1 135:1 148:1 169:1 
0.0024368538991064170318168180529028 15:1 35:1 60:1 74:1 89:1 116:1 137:1 144:1 170:1 
-0.040000000000000000832667268468867 6:1 21:1 52:1 65:1 90:1 117:1 134:1 148:1 170:1 
0.040000000000000000832667268468867 1:1 35:1 50:1 77:1 83:1 120:1 138:1 141:1 165:1 
0.040000000000000000832667268468867 8:1 35:1 52:1 63:1 84:1 104:1 130:1 152:1 169:1 
0.040000000000000000832667268468867 7:1 35:1 42:1 74:1 81:1 108:1 135:1 149:1 169:1 
0.040000000000000000832667268468867 6:1 35:1 50:1 77:1 89:1 107:1 137:1 149:1 165:1 
0.040000000000000000832667268468867 17:1 35:1 60:1 73:1 88:1 110:1 121:1 146:1 167:1 
-0.040000000000000000832667268468867 4:1 35:1 52:1 75:1 93:1 106:1 138:1 160:1 168:1 
-0.040000000000000000832667268468867 6:1 38:1 60:1 77:1 94:1 118:1 130:1 156:1 180:1 
-0.040000000000000000832667268468867 16:1 31:1 44:1 77:1 88:1 114:1 129:1 156:1 169:1 
-0.040000000000000000832667268468867 3:1 26:1 49:1 77:1 88:1 106:1 138:1 143:1 165:1 
-0.014042552742094701473396511914871 18:1 22:1 50:1 74:1 94:1 115:1 136:1 152:1 176:1 
0.040000000000000000832667268468867 15:1 35:1 49:1 61:1 91:1 105:1 124:1 143:1 168:1 
0.040000000000000000832667268468867 15:1 35:1 59:1 70:1 93:1 101:1 126:1 143:1 161:1 
0.040000000000000000832667268468867 11:1 35:1 51:1 61:1 97:1 113:1 130:1 150:1 171:1 
0.040000000000000000832667268468867 6:1 35:1 45:1 66:1 96:1 106:1 131:1 152:1 171:1 
0.0011295203500873009054561446617981 12:1 35:1 45:1 61:1 86:1 105:1 128:1 146:1 170:1 
-0.040000000000000000832667268468867 14:1 30:1 55:1 61:1 86:1 106:1 126:1 146:1 175:1 
-0.040000000000000000832667268468867 12:1 24:1 45:1 70:1 82:1 117:1 130:1 154:1 169:1 
-0.0047827140462879287607922407232763 16:1 34:1 57:1 70:1 97:1 105:1 130:1 143:1 177:1 
-0.030327846983617810783240287264562 18:1 38:1 59:1 66:1 98:1 105:1 135:1 152:1 164:1 
-0.028251222678134388366366636091698 8:1 40:1 59:1 68:1 98:1 101:1 126:1 149:1 161:1 
0.040000000000000000832667268468867 9:1 35:1 45:1 76:1 85:1 109:1 129:1 156:1 165:1 
0.040000000000000000832667268468867 15:1 35:1 60:1 73:1 83:1 101:1 138:1 160:1 170:1 
0.040000000000000000832667268468867 6:1 35:1 48:1 66:1 88:1 118:1 137:1 152:1 175:1 
0.040000000000000000832667268468867 15:1 35:1 58:1 70:1 98:1 114:1 138:1 156:1 180:1 
0.040000000000000000832667268468867 15:1 35:1 58:1 69:1 84:1 118:1 138:1 149:1 169:1 
-0.010602246428244203185764504837607 10:1 28:1 47:1 64:1 88:1 120:1 137:1 158:1 166:1 
-0.040000000000000000832667268468867 1:1 32:1 42:1 69:1 88:1 111:1 121:1 154:1 162:1 
-0.024876594585371884782443174799482 9:1 25:1 49:1 72:1 96:1 116:1 140:1 145:1 173:1 
-0.025584495804168012195178860679334 11:1 36:1 42:1 65:1 89:1 116:1 129:1 157:1 172:1 
-0.040000000000000000832667268468867 14:1 36:1 60:1 66:1 86:1 120:1 129:1 144:1 173:1 
0.040000000000000000832667268468867 6:1 35:1 41:1 65:1 98:1 117:1 128:1 146:1 169:1 
0.040000000000000000832667268468867 16:1 35:1 60:1 79:1 81:1 108:1 135:1 157:1 175:1 
0.040000000000000000832667268468867 6:1 35:1 45:1 64:1 86:1 117:1 136:1 157:1 169:1 
0.040000000000000000832667268468867 8:1 35:1 46:1 61:1 88:1 108:1 130:1 141:1 169:1 
0.040000000000000000832667268468867 7:1 35:1 41:1 74:1 98:1 108:1 140:1 157:1 175:1 
-0.040000000000000000832667268468867 2:1 21:1 45:1 74:1 92:1 108:1 136:1 142:1 166:1 
-0.035033318426475390516827701503644 8:1 33:1 56:1 79:1 90:1 109:1 138:1 152:1 169:1 
-0.016378987872006225273713297951872 5:1 24:1 58:1 64:1 90:1 105:1 124:1 145:1 169:1 
-0.040000000000000000832667268468867 18:1 29:1 50:1 64:1 81:1 103:1 140:1 143:1 169:1 
-0.040000000000000000832667268468867 17:1 34:1 50:1 64:1 90:1 108:1 132:1 149:1 174:1 
0.040000000000000000832667268468867 10:1 35:1 45:1 74:1 96:1 116:1 121:1 158:1 171:1 
0.040000000000000000832667268468867 14:1 35:1 52:1 78:1 92:1 108:1 125:1 149:1 165:1 
0.034428128453436679379251472710166 14:1 35:1 52:1 70:1 100:1 108:1 121:1 146:1 165:1 
0.040000000000000000832667268468867 15:1 35:1 50:1 73:1 88:1 105:1 136:1 155:1 170:1 
0.040000000000000000832667268468867 17:1 35:1 60:1 74:1 86:1 118:1 132:1 150:1 180:1 
-0.040000000000000000832667268468867 20:1 27:1 57:1 74:1 97:1 117:1 133:1 150:1 168:1 
-0.022136901067858101577190410580442 13:1 38:1 51:1 74:1 84:1 104:1 127:1 146:1 176:1 
-0.027316850153106201487540616312799 4:1 38:1 50:1 76:1 96:1 108:1 135:1 157:1 178:1 
-0.039411586213605680206750747629485 3:1 24:1 58:1 73:1 100:1 110:1 135:1 149:1 166:1 
0.040000000000000000832667268468867 5:1 35:1 60:1 72:1 86:1 110:1 128:1 147:1 175:1 
0.024709622798423272471701750419015 8:1 35:1 41:1 61:1 93:1 113:1 133:1 150:1 165:1 
-0.040000000000000000832667268468867 9:1 21:1 59:1 63:1 88:1 101:1 128:1 141:1 177:1 
-0.038676234069419744565632157673463 8:1 28:1 60:1 70:1 89:1 101:1 130:1 156:1 176:1 
-0.0083269166605157256266789289611552 10:1 32:1 58:1 67:1 85:1 106:1 126:1 144:1 175:1 
-0.018583098179335257732480712888901 12:1 23:1 49:1 73:1 96:1 113:1 132:1 156:1 164:1 
0.024821725529083561029297655409209 15:1 35:1 45:1 71:1 94:1 120:1 140:1 158:1 180:1 
-0.014805548076194257473003901282027 6:1 24:1 53:1 80:1 94:1 107:1 132:1 157:1 173:1 
-0.014417339405841533492291794971152 10:1 22:1 52:1 73:1 95:1 109:1 134:1 146:1 173:1 
-0.019781939351929761494730541926401 4:1 37:1 53:1 70:1 82:1 109:1 132:1 146:1 165:1 
-0.0030732918781491247277315448371837 13:1 33:1 53:1 67:1 97:1 106:1 133:1 141:1 170:1 
0.027371965370241644471827058282543 6:1 35:1 48:1 63:1 89:1 113:1 128:1 150:1 169:1 
-0.013780132272496345424706021276506 10:1 21:1 47:1 70:1 94:1 116:1 125:1 150:1 161:1 
-0.012183272229063468045096030323293 10:1 30:1 51:1 66:1 100:1 116:1 133:1 141:1 166:1 
-0.014857552277540379132014791707661 6:1 37:1 41:1 67:1 92:1 106:1 126:1 148:1 173:1 
-0.011508090507265313420792729459663 18:1 37:1 55:1 74:1 83:1 120:1 137:1 160:1 176:1 
-0.0061955854104787308478385909893404 2:1 30:1 41:1 75:1 83:1 113:1 140:1 142:1 161:1 
-0.0087034347743022572041482476379315 10:1 30:1 41:1 71:1 90:1 103:1 136:1 153:1 171:1 
0.0084544662748593270296115775863655 15:1 35:1 48:1 80:1 83:1 110:1 128:1 144:1 170:1 
-0.0033035534937190004500795481590103 1:1 24:1 54:1 74:1 96:1 115:1 130:1 153:1 170:1 
0.0080353500377582237623741434617841 6:1 35:1 45:1 76:1 86:1 110:1 130:1 146:1 175:1 
-0.0041206484032305541742591259435358 17:1 29:1 56:1 80:1 84:1 112:1 130:1 141:1 161:1 
-0.0025085973633428432227887583394477 3:1 30:1 50:1 78:1 94:1 114:1 127:1 145:1 175:1 
-0.0016710059471637169620228391409 13:1 30:1 52:1 79:1 89:1 120:1 135:1 149:1 161:1 
