SVM-light Version V6.02
0 # kernel type
3 # kernel parameter -d 
0.54 # kernel parameter -g 
1 # kernel parameter -s 
1 # kernel parameter -r 
empty # kernel parameter -u 
180 # highest feature index 
51 # number of training documents 
42 # number of support vectors plus 1 
0.70847828 # threshold b 
-0.045609306866393257984260145576627 19:1 35:1 46:1 69:1 95:1 106:1 125:1 154:1 170:1 
-0.062045441792791665436279657797058 9:1 37:1 60:1 70:1 81:1 101:1 126:1 157:1 165:1 
-0.18959185652519094933410315206856 5:1 33:1 53:1 66:1 90:1 120:1 122:1 149:1 177:1 
-0.016359978749111957208040024625006 16:1 24:1 46:1 74:1 90:1 104:1 123:1 156:1 176:1 
-0.10612653395954742274742699237322 7:1 26:1 60:1 68:1 84:1 104:1 121:1 142:1 168:1 
0.083016632332955156425846610090957 16:1 33:1 41:1 68:1 85:1 114:1 136:1 156:1 171:1 
-0.04907324997119775350506998279343 10:1 31:1 58:1 70:1 89:1 114:1 130:1 146:1 168:1 
0.098385107947917951887184528914077 8:1 33:1 50:1 77:1 84:1 104:1 121:1 144:1 170:1 
0.0967086780407066526343839996116 7:1 33:1 52:1 68:1 84:1 104:1 138:1 141:1 170:1 
0.076693631747909885021385889558587 15:1 33:1 55:1 67:1 94:1 106:1 138:1 151:1 178:1 
-0.071951298668448390727370167496701 13:1 29:1 41:1 68:1 95:1 116:1 138:1 144:1 162:1 
-0.019708597946066542389020881387296 1:1 24:1 52:1 75:1 83:1 115:1 138:1 141:1 175:1 
-0.05011261408138058953687377083952 10:1 34:1 55:1 75:1 93:1 110:1 138:1 158:1 175:1 
-0.14316076867184360232876372265309 3:1 33:1 44:1 64:1 95:1 113:1 137:1 145:1 164:1 
-0.090554713316063337180672476733889 16:1 25:1 46:1 76:1 81:1 114:1 134:1 141:1 170:1 
0.074784377616729708071474647113064 4:1 38:1 43:1 73:1 88:1 106:1 127:1 150:1 180:1 
0.22339750291896989797812977940339 17:1 21:1 58:1 73:1 99:1 112:1 121:1 156:1 179:1 
0.23999999999999999111821580299875 33:1 53:1 64:1 95:1 108:1 128:1 149:1 180:1 
0.047725733024993013953185538866819 4:1 33:1 48:1 78:1 86:1 101:1 124:1 157:1 165:1 
-0.1313069891289420643154528534069 12:1 21:1 48:1 77:1 83:1 110:1 128:1 156:1 164:1 
-0.08371964907942398836926400917946 8:1 30:1 58:1 75:1 89:1 118:1 121:1 146:1 174:1 
-0.1128611027149938467184497881135 1:1 36:1 53:1 72:1 91:1 116:1 121:1 156:1 161:1 
-0.064335501446416434867536793262843 9:1 38:1 50:1 67:1 91:1 116:1 130:1 152:1 173:1 
-0.017618300156264872502465124171067 11:1 24:1 53:1 64:1 84:1 117:1 129:1 149:1 163:1 
0.15112768627445830049715880250005 5:1 33:1 58:1 75:1 93:1 114:1 138:1 153:1 170:1 
0.23832006232461466765926161315292 1:1 38:1 50:1 70:1 87:1 104:1 124:1 156:1 171:1 
0.16136986682033702122929241795646 1:1 33:1 55:1 77:1 98:1 101:1 130:1 157:1 161:1 
0.05898798698790713029849186455067 17:1 33:1 44:1 66:1 88:1 108:1 133:1 157:1 170:1 
-0.097429831344237605161850979129667 14:1 26:1 50:1 73:1 83:1 104:1 124:1 154:1 164:1 
-0.10789856656767207732094959737879 1:1 24:1 49:1 74:1 87:1 107:1 129:1 143:1 170:1 
-0.067180524273574751537019267288997 17:1 37:1 55:1 76:1 85:1 102:1 123:1 150:1 177:1 
-0.070766718772196673947760814371577 2:1 21:1 58:1 70:1 96:1 107:1 135:1 155:1 175:1 
0.056942870564632840080232512036673 8:1 33:1 56:1 68:1 92:1 118:1 127:1 147:1 180:1 
0.051440107591315863133640817750347 4:1 21:1 43:1 73:1 97:1 106:1 127:1 156:1 180:1 
0.1126968118972201671201815997847 15:1 33:1 48:1 78:1 96:1 117:1 134:1 150:1 170:1 
-0.042219469846838990345627706801679 8:1 35:1 44:1 64:1 100:1 114:1 132:1 150:1 166:1 
-0.048043904369462139825053270669741 4:1 35:1 50:1 78:1 98:1 110:1 126:1 148:1 175:1 
-0.049185290428426849118626051904357 1:1 30:1 46:1 64:1 93:1 103:1 133:1 149:1 161:1 
-0.023175510430831210845203926851354 13:1 35:1 50:1 65:1 90:1 106:1 130:1 144:1 161:1 
-0.026959739840711646058357686683848 17:1 31:1 44:1 68:1 95:1 106:1 135:1 149:1 175:1 
0.015398402857360354856197659501049 12:1 33:1 43:1 68:1 98:1 108:1 140:1 154:1 180:1 
