SVM-light Version V6.02
0 # kernel type
3 # kernel parameter -d 
0.42 # kernel parameter -g 
1 # kernel parameter -s 
1 # kernel parameter -r 
empty # kernel parameter -u 
180 # highest feature index 
69 # number of training documents 
53 # number of support vectors plus 1 
0.82757418 # threshold b 
-0.071850760085366324747546684648114 7:1 26:1 46:1 76:1 95:1 114:1 130:1 157:1 164:1 
-0.01290439535010804404657758226449 19:1 33:1 49:1 73:1 92:1 108:1 137:1 156:1 176:1 
-0.078499022936058607258225094938098 17:1 26:1 50:1 80:1 84:1 104:1 136:1 147:1 166:1 
-0.080118608200828625443001840267243 8:1 38:1 54:1 78:1 90:1 108:1 136:1 153:1 176:1 
-0.078446060627063191050822865690861 5:1 36:1 55:1 75:1 96:1 110:1 124:1 150:1 163:1 
0.054141136404418060967813630668388 7:1 23:1 45:1 70:1 89:1 120:1 123:1 145:1 165:1 
0.10542298494752527782125639532751 14:1 23:1 50:1 72:1 95:1 108:1 125:1 153:1 170:1 
0.030891794939275372955389542539706 16:1 24:1 50:1 68:1 95:1 112:1 138:1 157:1 170:1 
0.035716452954060944058323201488747 1:1 24:1 50:1 64:1 95:1 101:1 121:1 141:1 170:1 
0.07600394218733259876774610575012 5:1 24:1 50:1 74:1 95:1 112:1 125:1 154:1 170:1 
-0.098024212794205423104898500241688 9:1 37:1 50:1 74:1 89:1 109:1 122:1 160:1 170:1 
-0.19883601094637970430056839177269 15:1 34:1 49:1 70:1 95:1 108:1 125:1 160:1 174:1 
-0.18622473201679820564713452313299 3:1 24:1 50:1 70:1 96:1 109:1 134:1 148:1 166:1 
-0.15382428284172139365537645971926 7:1 23:1 60:1 64:1 87:1 117:1 126:1 157:1 177:1 
-0.054386166999683356604311512683125 13:1 28:1 50:1 70:1 81:1 110:1 138:1 141:1 166:1 
0.23999999999999999111821580299875 17:1 34:1 46:1 80:1 85:1 113:1 123:1 159:1 174:1 
0.19391757168512549491801166823279 15:1 24:1 57:1 72:1 90:1 103:1 136:1 150:1 173:1 
0.23999999999999999111821580299875 15:1 24:1 53:1 78:1 97:1 109:1 121:1 144:1 171:1 
0.13585374137233530156265715049813 9:1 24:1 52:1 73:1 90:1 114:1 125:1 149:1 165:1 
0.18188301676317050747933024013037 4:1 23:1 50:1 75:1 98:1 110:1 136:1 145:1 168:1 
-0.18553530554892241899445082253806 16:1 32:1 53:1 73:1 83:1 113:1 123:1 144:1 173:1 
-0.097287228542186368618338576652604 14:1 34:1 46:1 76:1 98:1 113:1 121:1 153:1 170:1 
-0.11015888169308798993917264397169 20:1 34:1 56:1 72:1 97:1 101:1 136:1 141:1 178:1 
-0.02274763937290869356133704570766 15:1 35:1 55:1 64:1 88:1 115:1 121:1 144:1 163:1 
-0.027533713908002906828320632826035 20:1 25:1 55:1 64:1 90:1 113:1 132:1 153:1 170:1 
0.017458367043794165152093000870082 17:1 24:1 50:1 70:1 95:1 120:1 140:1 151:1 170:1 
0.1538042448593738842355094220693 1:1 23:1 56:1 70:1 95:1 110:1 134:1 154:1 170:1 
0.15942803769138547131944960710825 16:1 23:1 47:1 68:1 87:1 108:1 128:1 141:1 170:1 
0.10683501135057325848176645877174 7:1 23:1 45:1 73:1 95:1 101:1 130:1 148:1 165:1 
0.15202500322514045372201962891268 1:1 23:1 58:1 70:1 89:1 118:1 124:1 158:1 165:1 
-0.10845304059835336740746924988343 6:1 23:1 44:1 68:1 82:1 110:1 135:1 160:1 169:1 
-0.071278514578647006461054047576908 6:1 38:1 48:1 69:1 97:1 118:1 140:1 152:1 170:1 
-0.10810004555702393269633887484815 1:1 35:1 58:1 74:1 98:1 119:1 125:1 154:1 172:1 
-0.048947490211679427207780435082896 3:1 29:1 44:1 72:1 91:1 116:1 135:1 158:1 170:1 
-0.029207605162511002250269598334853 1:1 33:1 46:1 66:1 86:1 106:1 129:1 155:1 180:1 
0.094475111151713142554342539369827 18:1 24:1 50:1 73:1 87:1 108:1 132:1 150:1 170:1 
0.061853028606533133615386077508447 15:1 24:1 50:1 73:1 81:1 119:1 138:1 156:1 165:1 
-0.045636489407290328768063147890643 9:1 29:1 45:1 61:1 94:1 109:1 131:1 150:1 174:1 
-0.053951597544381633964061251163002 9:1 25:1 56:1 73:1 84:1 101:1 121:1 156:1 175:1 
-0.0058654330329150263650950236637982 14:1 30:1 58:1 78:1 96:1 109:1 124:1 150:1 175:1 
0.021380455033747282345135687364746 14:1 23:1 58:1 61:1 95:1 118:1 130:1 146:1 165:1 
-0.029369161526271087003792104042077 20:1 38:1 57:1 78:1 90:1 104:1 126:1 145:1 176:1 
-0.035685641577185456263521246000892 1:1 39:1 58:1 73:1 86:1 113:1 133:1 153:1 180:1 
-0.042542860159232753769487089812174 14:1 29:1 53:1 77:1 81:1 118:1 132:1 146:1 162:1 
0.027793025024890703061908325821605 10:1 23:1 50:1 74:1 95:1 112:1 140:1 148:1 165:1 
-0.041115690563072911090092276253927 18:1 30:1 46:1 66:1 85:1 105:1 140:1 148:1 175:1 
0.060054172324363629120735907918061 16:1 23:1 50:1 64:1 95:1 118:1 137:1 156:1 170:1 
-0.032928157315953679451503433028847 15:1 38:1 50:1 64:1 90:1 104:1 133:1 152:1 172:1 
0.012951772058455209707394928386748 20:1 23:1 50:1 70:1 95:1 112:1 137:1 152:1 165:1 
-0.01465712877785627261950640587429 13:1 26:1 57:1 69:1 98:1 120:1 124:1 158:1 178:1 
-0.031772758186126341672927964054907 13:1 34:1 50:1 74:1 94:1 118:1 137:1 156:1 173:1 
-0.0060002335613922944124176694913331 4:1 26:1 42:1 66:1 93:1 106:1 135:1 154:1 161:1 
