SVM-light Version V6.02
0 # kernel type
3 # kernel parameter -d 
0.86 # kernel parameter -g 
1 # kernel parameter -s 
1 # kernel parameter -r 
empty # kernel parameter -u 
160 # highest feature index 
48 # number of training documents 
34 # number of support vectors plus 1 
0.75476123 # threshold b 
-0.010408808207952780292004923978766 19:1 36:1 52:1 68:1 100:1 103:1 130:1 158:1 
-0.073561360431633610046375792990148 17:1 26:1 56:1 68:1 98:1 102:1 126:1 160:1 
-0.088147462527517331243309683941334 13:1 32:1 49:1 75:1 89:1 110:1 131:1 148:1 
-0.064938686607370441072895062006864 1:1 23:1 50:1 66:1 81:1 111:1 138:1 158:1 
-0.028343848255822260556735514569482 1:1 25:1 57:1 61:1 89:1 117:1 136:1 142:1 
0.050527430527671092497232763207649 20:1 33:1 45:1 69:1 93:1 113:1 129:1 158:1 
0.0018838636642148839928090353623702 17:1 21:1 45:1 77:1 88:1 113:1 136:1 148:1 
0.20493334987609546082865108473925 8:1 33:1 53:1 67:1 98:1 118:1 129:1 158:1 
0.18315364506083700590899354665453 20:1 33:1 50:1 70:1 88:1 116:1 135:1 148:1 
-0.15182344254887047974023062124616 6:1 33:1 43:1 63:1 90:1 114:1 135:1 150:1 
-0.10434113197665306760342218694859 13:1 36:1 43:1 70:1 93:1 118:1 129:1 141:1 
-0.19003722460951841255472061220644 5:1 33:1 54:1 62:1 90:1 110:1 130:1 158:1 
-0.018115515138467826183887865454381 20:1 38:1 50:1 69:1 90:1 120:1 123:1 149:1 
-0.036643442004233924003120392853816 1:1 31:1 56:1 76:1 94:1 118:1 138:1 146:1 
0.12867161162019785658472414979769 3:1 21:1 58:1 78:1 89:1 107:1 138:1 150:1 
0.21464647483726254084679396783031 3:1 21:1 60:1 65:1 96:1 118:1 133:1 150:1 
0.14867841826655134318535544935003 3:1 21:1 53:1 61:1 87:1 107:1 130:1 145:1 
-0.049978975167964151404831341096724 15:1 30:1 53:1 77:1 89:1 115:1 129:1 141:1 
-0.030806865803075064030869256725964 10:1 35:1 48:1 68:1 85:1 109:1 121:1 151:1 
-0.065307327640470716478837687191117 2:1 21:1 58:1 62:1 95:1 103:1 126:1 146:1 
-0.1489620440114043098400742337617 10:1 38:1 45:1 76:1 92:1 118:1 132:1 150:1 
-0.051879082099497320079706241813255 9:1 21:1 50:1 75:1 94:1 115:1 130:1 146:1 
-0.041967655817742997859109976843683 1:1 37:1 53:1 66:1 92:1 116:1 138:1 146:1 
-0.074592388568049339259147245684289 8:1 40:1 50:1 80:1 97:1 101:1 124:1 150:1 
0.16636426867128578654941861714178 17:1 33:1 58:1 75:1 90:1 113:1 136:1 148:1 
0.23999999999999999111821580299875 10:1 33:1 45:1 76:1 93:1 110:1 138:1 148:1 
0.091374750691204931207778372481698 18:1 33:1 60:1 64:1 93:1 113:1 124:1 158:1 
0.11320187453339715377698126985706 8:1 33:1 51:1 68:1 88:1 107:1 134:1 150:1 
-0.063311316634955788762439965466911 4:1 30:1 41:1 73:1 93:1 101:1 133:1 153:1 
-0.055319746858638732533997028895101 8:1 34:1 51:1 73:1 95:1 108:1 121:1 155:1 
-0.063521939562953322333527239607065 10:1 27:1 49:1 74:1 92:1 110:1 124:1 148:1 
-0.080075739390405173412368355911894 9:1 28:1 42:1 61:1 96:1 112:1 135:1 150:1 
-0.051351683885520978123384594482559 1:1 24:1 41:1 65:1 89:1 116:1 129:1 149:1 
