SVM-light Version V6.02
2 # kernel type
3 # kernel parameter -d 
0.001 # kernel parameter -g 
1 # kernel parameter -s 
1 # kernel parameter -r 
empty # kernel parameter -u 
180 # highest feature index 
99 # number of training documents 
59 # number of support vectors plus 1 
0.92797209 # threshold b 
80 10:1 33:1 42:1 75:1 88:1 109:1 134:1 148:1 168:1 
-17.850167478213705862799542956054 13:1 23:1 44:1 68:1 92:1 108:1 124:1 148:1 170:1 
-4.0046182046005496246721122588497 12:1 26:1 58:1 73:1 84:1 104:1 132:1 150:1 173:1 
-15.434524459091710113511908275541 20:1 38:1 55:1 74:1 86:1 110:1 122:1 159:1 170:1 
-34.115143306645144605226960266009 6:1 25:1 56:1 78:1 98:1 101:1 123:1 157:1 173:1 
58.453305589620661919525446137413 18:1 33:1 50:1 63:1 89:1 114:1 128:1 157:1 168:1 
0.18014421106891154167328750190791 3:1 21:1 50:1 70:1 89:1 105:1 136:1 147:1 168:1 
14.300033346707012427145855326671 3:1 33:1 60:1 69:1 98:1 120:1 135:1 148:1 178:1 
55.723665499730152816937334137037 10:1 33:1 52:1 61:1 98:1 108:1 137:1 155:1 168:1 
72.933681487234991891455138102174 3:1 21:1 60:1 78:1 90:1 113:1 129:1 150:1 180:1 
-80 3:1 21:1 54:1 80:1 89:1 108:1 128:1 157:1 169:1 
-80 3:1 21:1 51:1 76:1 96:1 114:1 134:1 152:1 178:1 
-80 3:1 33:1 52:1 66:1 85:1 105:1 130:1 160:1 179:1 
73.242459937515690171494497917593 8:1 33:1 60:1 74:1 83:1 110:1 133:1 147:1 170:1 
80 8:1 33:1 50:1 77:1 84:1 104:1 121:1 144:1 170:1 
80 17:1 26:1 60:1 70:1 92:1 117:1 138:1 157:1 178:1 
-55.75604415745395670001016696915 17:1 36:1 42:1 78:1 92:1 113:1 133:1 157:1 178:1 
-17.805225391778424892663679202087 8:1 36:1 46:1 70:1 90:1 118:1 121:1 158:1 170:1 
-19.063754919461757708631921559572 17:1 22:1 50:1 70:1 93:1 110:1 135:1 150:1 170:1 
63.859328943041901993638020940125 12:1 21:1 41:1 62:1 91:1 101:1 130:1 152:1 168:1 
80 3:1 21:1 44:1 71:1 97:1 117:1 135:1 151:1 178:1 
61.556021086468135194991191383451 3:1 21:1 44:1 72:1 81:1 111:1 135:1 160:1 168:1 
-80 17:1 26:1 49:1 69:1 88:1 117:1 129:1 148:1 168:1 
19.084637968974547561629151459783 3:1 21:1 50:1 75:1 96:1 108:1 130:1 157:1 168:1 
-40.871935736716260123557731276378 17:1 33:1 56:1 63:1 98:1 111:1 139:1 152:1 177:1 
24.019132619390031635475679649971 8:1 33:1 60:1 67:1 88:1 118:1 132:1 148:1 178:1 
48.449752608258620512060588225722 20:1 21:1 45:1 72:1 91:1 109:1 121:1 157:1 178:1 
-80 8:1 29:1 44:1 72:1 88:1 108:1 125:1 146:1 178:1 
-27.165880615596254443744328455068 6:1 33:1 53:1 62:1 83:1 115:1 134:1 159:1 177:1 
-52.377378293056203517608082620427 8:1 34:1 49:1 74:1 90:1 110:1 121:1 143:1 178:1 
49.54181657444928532640915364027 3:1 21:1 43:1 69:1 100:1 101:1 138:1 157:1 178:1 
80 3:1 21:1 50:1 70:1 88:1 108:1 133:1 149:1 178:1 
72.016859437182816350286884699017 11:1 33:1 51:1 72:1 98:1 101:1 123:1 150:1 168:1 
-48.151898930908416218699130695313 10:1 36:1 50:1 70:1 84:1 104:1 135:1 145:1 175:1 
-53.159009627716805823638424044475 3:1 24:1 50:1 70:1 96:1 109:1 134:1 148:1 166:1 
-54.789098569880117395314300665632 7:1 33:1 41:1 69:1 81:1 119:1 123:1 150:1 167:1 
60.330168095464273392281029373407 18:1 33:1 60:1 66:1 96:1 105:1 129:1 147:1 178:1 
55.997061751879897428807453252375 10:1 33:1 55:1 76:1 97:1 118:1 128:1 152:1 168:1 
76.474180634892874763863801490515 3:1 26:1 60:1 64:1 94:1 101:1 121:1 155:1 178:1 
-58.082223931560605478807701729238 2:1 30:1 53:1 78:1 97:1 101:1 133:1 144:1 172:1 
-66.977607782098189659336640033871 1:1 26:1 45:1 66:1 100:1 106:1 130:1 153:1 168:1 
-29.255009629375013702201613341458 4:1 33:1 51:1 74:1 96:1 103:1 136:1 144:1 163:1 
22.224790275806654449297639075667 12:1 21:1 52:1 73:1 83:1 102:1 129:1 157:1 168:1 
-41.725847197917630637675756588578 14:1 33:1 58:1 71:1 94:1 116:1 123:1 155:1 177:1 
-29.046949647001628846965104457922 14:1 32:1 48:1 76:1 89:1 102:1 135:1 155:1 178:1 
-33.299722219161537850595777854323 3:1 38:1 57:1 70:1 90:1 104:1 121:1 155:1 163:1 
5.9809216695868885338427389797289 18:1 33:1 45:1 64:1 95:1 117:1 121:1 158:1 168:1 
18.006378009223830360951978946105 10:1 33:1 53:1 78:1 98:1 101:1 129:1 144:1 168:1 
-39.949398856415669456509931478649 16:1 33:1 56:1 73:1 93:1 104:1 129:1 141:1 174:1 
-1.3089115904785608712757039029384 18:1 25:1 49:1 64:1 92:1 110:1 132:1 156:1 163:1 
-49.692299626771905707300902577117 17:1 36:1 41:1 77:1 94:1 101:1 135:1 151:1 178:1 
-6.6659920234410705575101019348949 3:1 37:1 52:1 75:1 94:1 106:1 134:1 154:1 176:1 
-26.374896859468456966624216875061 11:1 26:1 58:1 65:1 81:1 109:1 121:1 158:1 176:1 
-19.863034132555878130688142846338 9:1 35:1 57:1 61:1 84:1 115:1 124:1 150:1 170:1 
-3.6029344251415373889813054120168 16:1 33:1 41:1 69:1 93:1 103:1 136:1 156:1 165:1 
-5.7454302530819232330827617261093 5:1 38:1 50:1 74:1 83:1 111:1 124:1 156:1 163:1 
-6.0031075921723946464680921053514 20:1 35:1 52:1 75:1 94:1 103:1 137:1 156:1 163:1 
5.7637057112678498072000365937129 3:1 21:1 47:1 68:1 100:1 110:1 132:1 147:1 168:1 
