SVM-light Version V6.02
2 # kernel type
3 # kernel parameter -d 
0.121 # kernel parameter -g 
1 # kernel parameter -s 
1 # kernel parameter -r 
empty # kernel parameter -u 
180 # highest feature index 
162 # number of training documents 
139 # number of support vectors plus 1 
0.77614317 # threshold b 
-0.66624895944129147729029227775754 6:1 25:1 56:1 71:1 81:1 110:1 130:1 146:1 179:1 
-0.40399912206273419501556531940878 20:1 36:1 45:1 65:1 95:1 110:1 137:1 150:1 180:1 
-0.042625605397622633174758988161557 2:1 26:1 56:1 61:1 83:1 104:1 136:1 153:1 161:1 
-0.29905421331531750750443165998149 3:1 24:1 46:1 79:1 97:1 108:1 138:1 150:1 172:1 
0.24760513106675627326147548501467 10:1 25:1 43:1 67:1 81:1 118:1 136:1 149:1 165:1 
0.21090622294215366494540830899496 20:1 25:1 43:1 73:1 94:1 120:1 125:1 144:1 165:1 
0.75459612859611802093695587245747 8:1 25:1 43:1 76:1 89:1 118:1 137:1 144:1 168:1 
0.47599016124510640235456548907678 14:1 40:1 43:1 64:1 81:1 118:1 121:1 154:1 165:1 
0.73118778047063492930845995942946 18:1 40:1 43:1 77:1 92:1 113:1 121:1 149:1 165:1 
0.5851590500494097124573045221041 5:1 25:1 43:1 72:1 88:1 116:1 136:1 144:1 170:1 
-1.1759387094295186138026565458858 3:1 36:1 43:1 76:1 83:1 118:1 133:1 144:1 164:1 
-0.33385492084312828886538682127139 6:1 33:1 46:1 72:1 94:1 116:1 128:1 144:1 170:1 
-1.1918880370483098118938869447447 9:1 33:1 43:1 67:1 89:1 104:1 137:1 141:1 177:1 
1.8520444083316167649400085792877 9:1 39:1 53:1 63:1 95:1 108:1 137:1 150:1 170:1 
1.9840613068660746254323612447479 20:1 30:1 53:1 63:1 85:1 110:1 123:1 160:1 165:1 
2.3573586118907745579065249330597 14:1 21:1 56:1 74:1 84:1 118:1 129:1 152:1 179:1 
-1.03011341956324153912305519043 5:1 40:1 53:1 69:1 100:1 118:1 124:1 150:1 168:1 
-0.66047949602122379975099875082378 1:1 21:1 58:1 73:1 87:1 105:1 124:1 157:1 165:1 
-1.0115002047682650765381140445243 13:1 25:1 50:1 73:1 85:1 110:1 133:1 141:1 165:1 
1.0462968738927318490539164486108 1:1 25:1 43:1 70:1 97:1 104:1 134:1 155:1 180:1 
0.80364346323924107373670722154202 16:1 25:1 43:1 76:1 81:1 110:1 134:1 156:1 178:1 
0.79226939948683094971926266225637 5:1 39:1 43:1 66:1 89:1 108:1 138:1 150:1 178:1 
-1.1247238719356333902510414191056 8:1 35:1 43:1 68:1 94:1 101:1 132:1 156:1 178:1 
-0.66454044547670421128060525006731 14:1 21:1 53:1 76:1 97:1 111:1 134:1 156:1 161:1 
-1.2805121513353454609784876083722 20:1 22:1 43:1 77:1 88:1 108:1 130:1 155:1 172:1 
1.6237535764681738648107511835406 16:1 25:1 52:1 62:1 86:1 106:1 124:1 145:1 165:1 
1.0056569056627597813502461576718 9:1 40:1 43:1 73:1 92:1 118:1 140:1 156:1 168:1 
0.6353098275032706965248507913202 16:1 31:1 43:1 73:1 90:1 113:1 138:1 145:1 170:1 
-0.65597407565809395801892378585762 16:1 25:1 50:1 63:1 88:1 116:1 135:1 153:1 169:1 
-0.69838170640797136989874616119778 4:1 26:1 41:1 63:1 89:1 103:1 123:1 150:1 170:1 
-0.69565843586173203849654100849875 16:1 30:1 47:1 66:1 83:1 108:1 135:1 150:1 170:1 
0.68632455069748676823593314111349 17:1 25:1 43:1 70:1 94:1 115:1 128:1 146:1 165:1 
0.84457348185184688560411814250983 7:1 39:1 43:1 73:1 94:1 104:1 138:1 157:1 170:1 
1.6894762880258100690156197742908 5:1 39:1 53:1 76:1 90:1 113:1 136:1 160:1 170:1 
-0.89620825264650150199230438374798 19:1 40:1 60:1 70:1 90:1 106:1 139:1 146:1 165:1 
-0.97344475105140404469494797012885 6:1 25:1 56:1 70:1 96:1 102:1 131:1 158:1 165:1 
-0.74875867847431754054099428685731 18:1 39:1 48:1 61:1 90:1 120:1 132:1 150:1 170:1 
0.92405409590700382516104127716972 18:1 25:1 43:1 64:1 81:1 108:1 135:1 141:1 178:1 
0.71717536048747854149354452601983 16:1 25:1 43:1 66:1 88:1 108:1 121:1 151:1 171:1 
0.95013321728948763045252690062625 20:1 25:1 43:1 78:1 96:1 107:1 124:1 147:1 170:1 
-0.60675787127317293290218458423624 16:1 25:1 55:1 67:1 98:1 104:1 124:1 146:1 176:1 
-0.40749675610866448183244870051567 20:1 30:1 44:1 72:1 91:1 104:1 138:1 143:1 178:1 
-0.37552850272764126682289997916087 9:1 26:1 59:1 72:1 81:1 118:1 121:1 148:1 167:1 
0.58469561990102181248118995426921 16:1 40:1 43:1 70:1 85:1 118:1 132:1 156:1 165:1 
0.33083013181337195263154171698261 18:1 25:1 43:1 73:1 81:1 110:1 132:1 150:1 165:1 
0.997783985536178530395545749343 5:1 30:1 43:1 70:1 97:1 104:1 126:1 144:1 165:1 
-0.4142937906274525849958934031747 1:1 27:1 49:1 64:1 86:1 113:1 132:1 160:1 174:1 
-0.53415308836288122318336490934598 16:1 27:1 41:1 64:1 81:1 110:1 135:1 158:1 178:1 
-0.53555285981755329505205054374528 10:1 25:1 58:1 65:1 82:1 117:1 129:1 156:1 175:1 
0.53305428754477723884974693646654 20:1 40:1 43:1 66:1 89:1 118:1 131:1 149:1 170:1 
0.6714685848228794107228623033734 8:1 40:1 43:1 76:1 98:1 109:1 138:1 160:1 165:1 
0.57973080497125184518125706745195 20:1 25:1 43:1 61:1 88:1 113:1 138:1 157:1 171:1 
-0.54529018137415075084817317474517 7:1 30:1 53:1 76:1 87:1 107:1 140:1 152:1 177:1 
-0.65910743170658092626723600915284 20:1 38:1 46:1 68:1 86:1 118:1 121:1 141:1 170:1 
-0.43849750301335299607075057792827 5:1 30:1 48:1 61:1 98:1 108:1 140:1 149:1 169:1 
0.55303286324194844691959360716282 10:1 25:1 43:1 68:1 97:1 106:1 134:1 143:1 165:1 
0.69401171210088696827966714408831 15:1 25:1 43:1 64:1 81:1 120:1 128:1 160:1 171:1 
0.4718183449559071318546443762898 10:1 25:1 43:1 73:1 91:1 117:1 126:1 157:1 165:1 
-0.50019324538981280170446552801877 1:1 39:1 50:1 77:1 99:1 119:1 138:1 160:1 176:1 
-0.46909147565925074507831027403881 16:1 35:1 42:1 74:1 92:1 104:1 139:1 160:1 162:1 
-0.46751143382734078324247661839763 10:1 25:1 50:1 78:1 90:1 105:1 138:1 141:1 168:1 
0.74846011399582323964096985946526 5:1 40:1 43:1 64:1 95:1 108:1 138:1 158:1 178:1 
0.36984443484592588458070849810611 5:1 40:1 43:1 63:1 89:1 118:1 136:1 141:1 170:1 
0.3921504228376960221602587353118 1:1 40:1 43:1 63:1 81:1 118:1 140:1 149:1 170:1 
-0.45400480801273207509538565318508 19:1 36:1 44:1 63:1 81:1 113:1 136:1 143:1 174:1 
-0.50279274720014155430902746957145 14:1 30:1 54:1 67:1 83:1 115:1 124:1 144:1 165:1 
-0.48499539216506187822020024213998 7:1 37:1 45:1 72:1 93:1 109:1 138:1 148:1 170:1 
0.4715146114252516396092573813803 16:1 25:1 43:1 61:1 87:1 110:1 137:1 144:1 170:1 
0.4088039905534879836501715999475 1:1 25:1 43:1 73:1 97:1 116:1 137:1 150:1 170:1 
0.36876010199172015724400353064993 16:1 25:1 43:1 77:1 86:1 105:1 137:1 156:1 165:1 
-0.56060465460715269703229068909422 3:1 25:1 50:1 79:1 96:1 111:1 123:1 143:1 170:1 
-0.36021952351535774239366105575755 16:1 32:1 49:1 64:1 97:1 101:1 129:1 149:1 168:1 
-0.45089240156504367673662159177184 12:1 30:1 56:1 68:1 90:1 110:1 129:1 155:1 170:1 
0.41682608569027268519135986934998 12:1 25:1 43:1 63:1 100:1 117:1 138:1 152:1 170:1 
0.3019094146148473267743383985362 20:1 40:1 43:1 73:1 89:1 107:1 138:1 148:1 165:1 
0.37447796702354790854272437172767 18:1 25:1 43:1 73:1 98:1 113:1 138:1 146:1 178:1 
-0.32461836804818028356933723443944 10:1 26:1 58:1 73:1 81:1 114:1 126:1 157:1 166:1 
-0.35163489678968035123673985253845 5:1 30:1 57:1 75:1 84:1 117:1 123:1 141:1 166:1 
-0.3007363393485244507097320365574 8:1 21:1 60:1 64:1 98:1 116:1 138:1 154:1 164:1 
0.39838609071376834824818047309236 18:1 25:1 43:1 69:1 97:1 110:1 121:1 144:1 170:1 
0.28403425622126332594774567041895 18:1 25:1 43:1 68:1 87:1 118:1 128:1 143:1 165:1 
-0.35412231705269359149923502627644 18:1 36:1 46:1 80:1 88:1 120:1 127:1 149:1 170:1 
-0.35316174513720760552715205449203 18:1 36:1 52:1 65:1 100:1 115:1 124:1 154:1 170:1 
-0.27873452548784266591397340562253 9:1 37:1 49:1 74:1 92:1 111:1 126:1 152:1 177:1 
0.44679421231667287850441994123685 18:1 40:1 43:1 66:1 89:1 108:1 140:1 157:1 170:1 
-0.42429456479512545064025630381366 11:1 25:1 50:1 72:1 97:1 110:1 137:1 153:1 169:1 
-0.32556805549822753764743765714229 1:1 21:1 53:1 68:1 85:1 109:1 136:1 148:1 166:1 
-0.22968221182694281701230920589296 15:1 21:1 49:1 78:1 84:1 109:1 134:1 155:1 176:1 
0.29617645544186022021904136636294 7:1 25:1 43:1 73:1 84:1 118:1 138:1 154:1 168:1 
-0.28608046417400728733682058191334 1:1 39:1 54:1 78:1 96:1 116:1 124:1 143:1 178:1 
-0.28995668968131504961149857990677 7:1 21:1 56:1 78:1 94:1 113:1 132:1 144:1 175:1 
-0.31840197019055332949832859412709 9:1 26:1 47:1 70:1 85:1 120:1 133:1 160:1 173:1 
0.26886441770281910290663063278771 16:1 40:1 43:1 76:1 89:1 110:1 138:1 159:1 165:1 
-0.27897412791090836492458038264886 15:1 34:1 53:1 67:1 90:1 102:1 128:1 154:1 180:1 
-0.30087255234895499134140095520706 8:1 23:1 44:1 76:1 97:1 114:1 121:1 157:1 164:1 
-0.28715600138112512551558097584348 18:1 22:1 46:1 72:1 86:1 108:1 129:1 157:1 175:1 
0.20174767364017834325728983912995 7:1 25:1 43:1 70:1 96:1 118:1 128:1 144:1 170:1 
0.20541219238152605419678309317533 17:1 25:1 43:1 66:1 97:1 116:1 140:1 157:1 165:1 
-0.23502952238150764951996052332106 10:1 30:1 58:1 61:1 94:1 113:1 134:1 150:1 178:1 
-0.24191522400699466688323013841 6:1 34:1 50:1 76:1 89:1 118:1 131:1 148:1 168:1 
-0.20740243903577915141056564607425 1:1 38:1 55:1 69:1 90:1 107:1 129:1 154:1 179:1 
-0.23600111140251012198376656670007 6:1 32:1 47:1 65:1 95:1 106:1 137:1 156:1 163:1 
-0.19814945357943022918867370663065 5:1 30:1 49:1 72:1 93:1 104:1 126:1 154:1 163:1 
-0.1497405553005515255193813572987 17:1 21:1 49:1 70:1 96:1 110:1 132:1 151:1 163:1 
-0.22030831929569716365335807495285 16:1 34:1 52:1 72:1 90:1 116:1 136:1 158:1 177:1 
-0.23104569898606738820312500592991 17:1 36:1 42:1 78:1 92:1 113:1 133:1 157:1 178:1 
-0.12755945732819351512432604067726 10:1 34:1 55:1 75:1 93:1 110:1 138:1 158:1 175:1 
0.14307313639032326335609468515031 8:1 25:1 43:1 70:1 86:1 106:1 126:1 157:1 165:1 
-0.19541233917881881132494470421079 9:1 27:1 58:1 80:1 97:1 112:1 121:1 149:1 169:1 
-0.15899430208406331588300020030147 12:1 23:1 60:1 70:1 87:1 101:1 121:1 150:1 178:1 
-0.15435208741190145631527741443279 4:1 29:1 49:1 69:1 96:1 111:1 133:1 156:1 165:1 
-0.17449491962710228509791932083317 10:1 34:1 50:1 74:1 98:1 109:1 134:1 152:1 161:1 
-0.13773881381938921086849347830139 17:1 24:1 55:1 75:1 94:1 113:1 130:1 156:1 176:1 
-0.12821780326936479954547110082785 11:1 24:1 50:1 70:1 83:1 111:1 138:1 142:1 171:1 
0.12511319221970668147392302671506 9:1 25:1 43:1 63:1 86:1 101:1 138:1 145:1 170:1 
-0.13513752557208677518296724429092 13:1 35:1 55:1 77:1 83:1 110:1 137:1 145:1 168:1 
-0.099210462687791822755656312438077 1:1 29:1 46:1 66:1 96:1 101:1 137:1 142:1 175:1 
-0.15053660755366263246379787688056 3:1 26:1 44:1 74:1 88:1 108:1 121:1 154:1 166:1 
-0.13653200878043794674887578821654 15:1 29:1 55:1 64:1 81:1 104:1 130:1 150:1 169:1 
-0.15495950318752485519446793205134 14:1 28:1 54:1 64:1 98:1 109:1 124:1 154:1 175:1 
-0.12342186838976933194178542407826 2:1 30:1 41:1 65:1 97:1 103:1 138:1 141:1 173:1 
-0.13353440921637854676973233836179 16:1 21:1 44:1 78:1 82:1 101:1 126:1 148:1 180:1 
-0.12050243861409373757886953626439 16:1 21:1 46:1 76:1 90:1 112:1 126:1 141:1 166:1 
-0.10341329482777832093898240373164 6:1 23:1 56:1 61:1 92:1 110:1 137:1 142:1 175:1 
0.1079047926172722743354270846794 17:1 25:1 43:1 63:1 88:1 118:1 127:1 156:1 165:1 
0.10743108068523467280019900726984 16:1 25:1 43:1 70:1 90:1 113:1 135:1 144:1 165:1 
-0.11320309072986400877880441839807 16:1 26:1 57:1 61:1 96:1 110:1 135:1 156:1 172:1 
-0.10241629594229549604644802229814 1:1 30:1 41:1 70:1 81:1 104:1 135:1 141:1 174:1 
-0.096726671058194976793309649565344 5:1 30:1 49:1 79:1 87:1 118:1 133:1 153:1 164:1 
-0.089828283137470668617829971935862 10:1 21:1 58:1 65:1 85:1 116:1 138:1 148:1 167:1 
-0.074309688167777471212716022819222 6:1 29:1 48:1 76:1 84:1 115:1 130:1 158:1 168:1 
-0.066751126792757672911982069763326 7:1 33:1 42:1 72:1 88:1 117:1 124:1 144:1 163:1 
-0.064248533464682927585087668376218 4:1 38:1 41:1 70:1 100:1 111:1 125:1 150:1 179:1 
-0.054046545632952421034378431841105 16:1 28:1 50:1 72:1 93:1 108:1 132:1 156:1 168:1 
-0.044672389268382420302039292892005 10:1 30:1 41:1 69:1 90:1 114:1 136:1 159:1 164:1 
-0.032548477816139204099599169239809 3:1 28:1 56:1 69:1 85:1 101:1 124:1 149:1 163:1 
-0.027776275242148824873300583249147 6:1 37:1 56:1 69:1 87:1 110:1 134:1 149:1 169:1 
-0.026665724015638776756009775681378 18:1 33:1 49:1 74:1 93:1 110:1 124:1 141:1 161:1 
